<?xml version="1.0"?>
<MethodSetup Method="BDT::BDTG">
  <GeneralInfo>
    <Info name="TMVA Release" value="4.2.1 [262657]"/>
    <Info name="ROOT Release" value="6.36/02 [402434]"/>
    <Info name="Creator" value="vashtichowla"/>
    <Info name="Date" value="Mon Jul 28 14:52:07 2025"/>
    <Info name="Host" value="Darwin Sequoia-arm64.local 24.4.0 Darwin Kernel Version 24.4.0: Fri Apr 11 18:33:24 PDT 2025; root:xnu-11417.101.15~117/RELEASE_ARM64_VMAPPLE arm64"/>
    <Info name="Dir" value="/Users/vashtichowla/Desktop/LFV decay/Search-for-the-lepton-flavour-violating-decay-at-Belle-experiment"/>
    <Info name="Training events" value="11670"/>
    <Info name="TrainingTime" value="1.00339103e+00"/>
    <Info name="AnalysisType" value="Classification"/>
  </GeneralInfo>
  <Options>
    <Option name="V" modified="Yes">False</Option>
    <Option name="VerbosityLevel" modified="No">Default</Option>
    <Option name="VarTransform" modified="No">None</Option>
    <Option name="H" modified="Yes">False</Option>
    <Option name="CreateMVAPdfs" modified="No">False</Option>
    <Option name="IgnoreNegWeightsInTraining" modified="No">False</Option>
    <Option name="NTrees" modified="Yes">400</Option>
    <Option name="MaxDepth" modified="Yes">3</Option>
    <Option name="MinNodeSize" modified="Yes">4%</Option>
    <Option name="nCuts" modified="Yes">120</Option>
    <Option name="BoostType" modified="Yes">Grad</Option>
    <Option name="AdaBoostR2Loss" modified="No">quadratic</Option>
    <Option name="UseBaggedBoost" modified="No">False</Option>
    <Option name="Shrinkage" modified="Yes">1.000000e-01</Option>
    <Option name="AdaBoostBeta" modified="No">5.000000e-01</Option>
    <Option name="UseRandomisedTrees" modified="No">False</Option>
    <Option name="UseNvars" modified="Yes">6</Option>
    <Option name="UsePoissonNvars" modified="No">True</Option>
    <Option name="BaggedSampleFraction" modified="No">6.000000e-01</Option>
    <Option name="UseYesNoLeaf" modified="No">True</Option>
    <Option name="NegWeightTreatment" modified="No">pray</Option>
    <Option name="Css" modified="No">1.000000e+00</Option>
    <Option name="Cts_sb" modified="No">1.000000e+00</Option>
    <Option name="Ctb_ss" modified="No">1.000000e+00</Option>
    <Option name="Cbb" modified="No">1.000000e+00</Option>
    <Option name="NodePurityLimit" modified="No">5.000000e-01</Option>
    <Option name="SeparationType" modified="No">giniindex</Option>
    <Option name="RegressionLossFunctionBDTG" modified="No">huber</Option>
    <Option name="HuberQuantile" modified="No">7.000000e-01</Option>
    <Option name="DoBoostMonitor" modified="No">False</Option>
    <Option name="UseFisherCuts" modified="No">False</Option>
    <Option name="MinLinCorrForFisher" modified="No">8.000000e-01</Option>
    <Option name="UseExclusiveVars" modified="No">False</Option>
    <Option name="DoPreselection" modified="No">False</Option>
    <Option name="SigToBkgFraction" modified="No">1.000000e+00</Option>
    <Option name="PruneMethod" modified="No">nopruning</Option>
    <Option name="PruneStrength" modified="No">0.000000e+00</Option>
    <Option name="PruningValFraction" modified="No">5.000000e-01</Option>
    <Option name="SkipNormalization" modified="No">False</Option>
    <Option name="nEventsMin" modified="No">0</Option>
    <Option name="UseBaggedGrad" modified="No">False</Option>
    <Option name="GradBaggingFraction" modified="No">6.000000e-01</Option>
    <Option name="UseNTrainEvents" modified="No">0</Option>
    <Option name="NNodesMax" modified="No">0</Option>
  </Options>
  <Variables NVar="6">
    <Variable VarIndex="0" Expression="deltaE_Btag" Label="deltaE_Btag" Title="deltaE_Btag" Unit="" Internal="deltaE_Btag" Type="F" Min="-3.39469790e+00" Max="6.76211476e-01"/>
    <Variable VarIndex="1" Expression="p_ltag" Label="p_ltag" Title="p_ltag" Unit="" Internal="p_ltag" Type="F" Min="5.80340140e-02" Max="2.44287515e+00"/>
    <Variable VarIndex="2" Expression="m_ROE" Label="m_ROE" Title="m_ROE" Unit="" Internal="m_ROE" Type="F" Min="6.85370803e-01" Max="2.14988208e+00"/>
    <Variable VarIndex="3" Expression="nLepton" Label="nLepton" Title="nLepton" Unit="" Internal="nLepton" Type="I" Min="2.00000000e+00" Max="5.00000000e+00"/>
    <Variable VarIndex="4" Expression="nPhotonsSelected" Label="nPhotonsSelected" Title="nPhotonsSelected" Unit="" Internal="nPhotonsSelected" Type="I" Min="2.00000000e+00" Max="1.20000000e+01"/>
    <Variable VarIndex="5" Expression="best_sum" Label="best_sum" Title="best_sum" Unit="" Internal="best_sum" Type="F" Min="-4.96318207e+01" Max="6.00972223e+00"/>
  </Variables>
  <Spectators NSpec="0"/>
  <Classes NClass="2">
    <Class Name="Signal" Index="0"/>
    <Class Name="Background" Index="1"/>
  </Classes>
  <Transformations NTransformations="0"/>
  <MVAPdfs/>
  <Weights NTrees="400" AnalysisType="1">
    <BinaryTree type="DecisionTree" boostWeight="1.0000000000000000e+00" itree="0">
      <Node pos="s" depth="0" NCoef="0" IVar="5" Cut="4.9155268073081970e-01" cType="1" res="5.9589962155795657e-15" rms="5.0000000000000000e-01" purity="5.0000000000000000e-01" nType="0">
        <Node pos="l" depth="1" NCoef="0" IVar="5" Cut="-1.5810105800628662e+00" cType="1" res="4.3227609246969223e-02" rms="4.9812787771224976e-01" purity="5.4322761297225952e-01" nType="0">
          <Node pos="l" depth="2" NCoef="0" IVar="0" Cut="-1.6710367202758789e+00" cType="1" res="-1.6155201196670532e-01" rms="4.7318172454833984e-01" purity="3.3844795823097229e-01" nType="0">
            <Node pos="l" depth="3" NCoef="0" IVar="-1" Cut="0.0000000000000000e+00" cType="1" res="-4.4391818344593048e-02" rms="4.4803366065025330e-01" purity="2.7804091572761536e-01" nType="-99"/>
            <Node pos="r" depth="3" NCoef="0" IVar="-1" Cut="0.0000000000000000e+00" cType="1" res="2.0578228868544102e-03" rms="4.9989411234855652e-01" purity="5.1028913259506226e-01" nType="-99"/>
          </Node>
          <Node pos="r" depth="2" NCoef="0" IVar="2" Cut="2.0422170162200928e+00" cType="1" res="1.5413515269756317e-01" rms="4.7564941644668579e-01" purity="6.5413516759872437e-01" nType="0">
            <Node pos="l" depth="3" NCoef="0" IVar="-1" Cut="0.0000000000000000e+00" cType="1" res="3.7303607910871506e-02" rms="4.6390840411186218e-01" purity="6.8651801347732544e-01" nType="-99"/>
            <Node pos="r" depth="3" NCoef="0" IVar="-1" Cut="0.0000000000000000e+00" cType="1" res="-2.0658135414123535e-02" rms="4.8921471834182739e-01" purity="3.9670932292938232e-01" nType="-99"/>
          </Node>
        </Node>
        <Node pos="r" depth="1" NCoef="0" IVar="5" Cut="1.0394725799560547e+00" cType="1" res="-3.6776557564735413e-01" rms="3.3874544501304626e-01" purity="1.3223442435264587e-01" nType="0">
          <Node pos="l" depth="2" NCoef="0" IVar="-1" Cut="0.0000000000000000e+00" cType="1" res="-5.0503604114055634e-02" rms="4.3154913187026978e-01" purity="2.4748197197914124e-01" nType="-99"/>
          <Node pos="r" depth="2" NCoef="0" IVar="-1" Cut="0.0000000000000000e+00" cType="1" res="-9.0761631727218628e-02" rms="2.0990034937858582e-01" purity="4.6191845089197159e-02" nType="-99"/>
        </Node>
      </Node>
    </BinaryTree>
    <BinaryTree type="DecisionTree" boostWeight="1.0000000000000000e+00" itree="1">
      <Node pos="s" depth="0" NCoef="0" IVar="5" Cut="4.9155268073081970e-01" cType="1" res="-7.4723402576637454e-06" rms="4.9131453037261963e-01" purity="5.0000000000000000e-01" nType="0">
        <Node pos="l" depth="1" NCoef="0" IVar="5" Cut="-1.5810105800628662e+00" cType="1" res="3.8905933499336243e-02" rms="4.9203550815582275e-01" purity="5.4322761297225952e-01" nType="0">
          <Node pos="l" depth="2" NCoef="0" IVar="0" Cut="-1.6710367202758789e+00" cType="1" res="-1.4540758728981018e-01" rms="4.7109431028366089e-01" purity="3.3844795823097229e-01" nType="0">
            <Node pos="l" depth="3" NCoef="0" IVar="-1" Cut="0.0000000000000000e+00" cType="1" res="-4.0034342557191849e-02" rms="4.4803366065025330e-01" purity="2.7804091572761536e-01" nType="-99"/>
            <Node pos="r" depth="3" NCoef="0" IVar="-1" Cut="0.0000000000000000e+00" cType="1" res="1.8520515877753496e-03" rms="4.9989411234855652e-01" purity="5.1028913259506226e-01" nType="-99"/>
          </Node>
          <Node pos="r" depth="2" NCoef="0" IVar="2" Cut="2.0153007507324219e+00" cType="1" res="1.3872915506362915e-01" rms="4.7398206591606140e-01" purity="6.5413516759872437e-01" nType="0">
            <Node pos="l" depth="3" NCoef="0" IVar="-1" Cut="0.0000000000000000e+00" cType="1" res="3.4672271460294724e-02" rms="4.6176481246948242e-01" purity="6.9176346063613892e-01" nType="-99"/>
            <Node pos="r" depth="3" NCoef="0" IVar="-1" Cut="0.0000000000000000e+00" cType="1" res="-1.1884707026183605e-02" rms="4.9442201852798462e-01" purity="4.3737393617630005e-01" nType="-99"/>
          </Node>
        </Node>
        <Node pos="r" depth="1" NCoef="0" IVar="5" Cut="1.0394725799560547e+00" cType="1" res="-3.3106929063796997e-01" rms="3.3596652746200562e-01" purity="1.3223442435264587e-01" nType="0">
          <Node pos="l" depth="2" NCoef="0" IVar="-1" Cut="0.0000000000000000e+00" cType="1" res="-4.5573577284812927e-02" rms="4.3154913187026978e-01" purity="2.4748197197914124e-01" nType="-99"/>
          <Node pos="r" depth="2" NCoef="0" IVar="-1" Cut="0.0000000000000000e+00" cType="1" res="-8.2385264337062836e-02" rms="2.0990034937858582e-01" purity="4.6191845089197159e-02" nType="-99"/>
        </Node>
      </Node>
    </BinaryTree>
    <BinaryTree type="DecisionTree" boostWeight="1.0000000000000000e+00" itree="2">
      <Node pos="s" depth="0" NCoef="0" IVar="5" Cut="4.9155268073081970e-01" cType="1" res="-2.9747749067610130e-05" rms="4.8417642712593079e-01" purity="5.0000000000000000e-01" nType="0">
        <Node pos="l" depth="1" NCoef="0" IVar="5" Cut="-1.5810105800628662e+00" cType="1" res="3.5019483417272568e-02" rms="4.8704329133033752e-01" purity="5.4322761297225952e-01" nType="0">
          <Node pos="l" depth="2" NCoef="0" IVar="0" Cut="-1.9708038568496704e+00" cType="1" res="-1.3090090453624725e-01" rms="4.6939897537231445e-01" purity="3.3844795823097229e-01" nType="0">
            <Node pos="l" depth="3" NCoef="0" IVar="-1" Cut="0.0000000000000000e+00" cType="1" res="-4.2140867561101913e-02" rms="4.3224635720252991e-01" purity="2.4867734313011169e-01" nType="-99"/>
            <Node pos="r" depth="3" NCoef="0" IVar="-1" Cut="0.0000000000000000e+00" cType="1" res="-8.2790786400437355e-03" rms="4.9358433485031128e-01" purity="4.4120356440544128e-01" nType="-99"/>
          </Node>
          <Node pos="r" depth="2" NCoef="0" IVar="2" Cut="2.0422170162200928e+00" cType="1" res="1.2488106638193130e-01" rms="4.7261616587638855e-01" purity="6.5413516759872437e-01" nType="0">
            <Node pos="l" depth="3" NCoef="0" IVar="-1" Cut="0.0000000000000000e+00" cType="1" res="3.0459208413958549e-02" rms="4.6367922425270081e-01" purity="6.8651801347732544e-01" nType="-99"/>
            <Node pos="r" depth="3" NCoef="0" IVar="-1" Cut="0.0000000000000000e+00" cType="1" res="-1.7423436045646667e-02" rms="4.8921471834182739e-01" purity="3.9670932292938232e-01" nType="-99"/>
          </Node>
        </Node>
        <Node pos="r" depth="1" NCoef="0" IVar="5" Cut="1.0394725799560547e+00" cType="1" res="-2.9821649193763733e-01" rms="3.3372396230697632e-01" purity="1.3223442435264587e-01" nType="0">
          <Node pos="l" depth="2" NCoef="0" IVar="-1" Cut="0.0000000000000000e+00" cType="1" res="-4.1304279118776321e-02" rms="4.3154913187026978e-01" purity="2.4748197197914124e-01" nType="-99"/>
          <Node pos="r" depth="2" NCoef="0" IVar="-1" Cut="0.0000000000000000e+00" cType="1" res="-7.5847119092941284e-02" rms="2.0990034937858582e-01" purity="4.6191845089197159e-02" nType="-99"/>
        </Node>
      </Node>
    </BinaryTree>
    <BinaryTree type="DecisionTree" boostWeight="1.0000000000000000e+00" itree="3">
      <Node pos="s" depth="0" NCoef="0" IVar="5" Cut="4.9155268073081970e-01" cType="1" res="-5.9531885199248791e-05" rms="4.7829669713973999e-01" purity="5.0000000000000000e-01" nType="0">
        <Node pos="l" depth="1" NCoef="0" IVar="5" Cut="-1.5810105800628662e+00" cType="1" res="3.1521972268819809e-02" rms="4.8293474316596985e-01" purity="5.4322761297225952e-01" nType="0">
          <Node pos="l" depth="2" NCoef="0" IVar="0" Cut="-1.6710367202758789e+00" cType="1" res="-1.1785746365785599e-01" rms="4.6798396110534668e-01" purity="3.3844795823097229e-01" nType="0">
            <Node pos="l" depth="3" NCoef="0" IVar="-1" Cut="0.0000000000000000e+00" cType="1" res="-3.3193055540323257e-02" rms="4.4730502367019653e-01" purity="2.7804091572761536e-01" nType="-99"/>
            <Node pos="r" depth="3" NCoef="0" IVar="-1" Cut="0.0000000000000000e+00" cType="1" res="2.4947873316705227e-03" rms="4.9989411234855652e-01" purity="5.1028913259506226e-01" nType="-99"/>
          </Node>
          <Node pos="r" depth="2" NCoef="0" IVar="4" Cut="7.0000000000000000e+00" cType="1" res="-7.0720823714509606e-04" rms="4.4646963477134705e-02" purity="6.5413516759872437e-01" nType="0">
            <Node pos="l" depth="3" NCoef="0" IVar="-1" Cut="0.0000000000000000e+00" cType="1" res="2.7165811508893967e-02" rms="4.6336418390274048e-01" purity="6.7664492130279541e-01" nType="-99"/>
            <Node pos="r" depth="3" NCoef="0" IVar="-1" Cut="0.0000000000000000e+00" cType="1" res="-2.5639507919549942e-02" rms="4.9166244268417358e-01" purity="4.1061380505561829e-01" nType="-99"/>
          </Node>
        </Node>
        <Node pos="r" depth="1" NCoef="0" IVar="5" Cut="1.0394725799560547e+00" cType="1" res="-2.6874405145645142e-01" rms="3.3190596103668213e-01" purity="1.3223442435264587e-01" nType="0">
          <Node pos="l" depth="2" NCoef="0" IVar="-1" Cut="0.0000000000000000e+00" cType="1" res="-3.7551146000623703e-02" rms="4.3154910206794739e-01" purity="2.4748197197914124e-01" nType="-99"/>
          <Node pos="r" depth="2" NCoef="0" IVar="-1" Cut="0.0000000000000000e+00" cType="1" res="-7.0564545691013336e-02" rms="2.0990034937858582e-01" purity="4.6191845089197159e-02" nType="-99"/>
        </Node>
      </Node>
    </BinaryTree>
    <BinaryTree type="DecisionTree" boostWeight="1.0000000000000000e+00" itree="4">
      <Node pos="s" depth="0" NCoef="0" IVar="5" Cut="4.9155268073081970e-01" cType="1" res="-9.2167407274246216e-05" rms="4.7338232398033142e-01" purity="5.0000000000000000e-01" nType="0">
        <Node pos="l" depth="1" NCoef="0" IVar="5" Cut="-1.1667795181274414e+00" cType="1" res="2.8373170644044876e-02" rms="4.7947210073471069e-01" purity="5.4322761297225952e-01" nType="0">
          <Node pos="l" depth="2" NCoef="0" IVar="0" Cut="-1.7209979295730591e+00" cType="1" res="-8.9523606002330780e-02" rms="4.7251006960868835e-01" purity="3.7145215272903442e-01" nType="0">
            <Node pos="l" depth="3" NCoef="0" IVar="-1" Cut="0.0000000000000000e+00" cType="1" res="-3.0607800930738449e-02" rms="4.4897842407226562e-01" purity="2.8575283288955688e-01" nType="-99"/>
            <Node pos="r" depth="3" NCoef="0" IVar="-1" Cut="0.0000000000000000e+00" cType="1" res="5.1150615327060223e-03" rms="4.9454906582832336e-01" purity="5.3525495529174805e-01" nType="-99"/>
          </Node>
          <Node pos="r" depth="2" NCoef="0" IVar="4" Cut="7.0000000000000000e+00" cType="1" res="-5.5857317056506872e-04" rms="3.8304172456264496e-02" purity="6.6471159458160400e-01" nType="0">
            <Node pos="l" depth="3" NCoef="0" IVar="-1" Cut="0.0000000000000000e+00" cType="1" res="2.6963530108332634e-02" rms="4.5879772305488586e-01" purity="6.8830317258834839e-01" nType="-99"/>
            <Node pos="r" depth="3" NCoef="0" IVar="-1" Cut="0.0000000000000000e+00" cType="1" res="-2.5987166911363602e-02" rms="4.8787644505500793e-01" purity="3.9537563920021057e-01" nType="-99"/>
          </Node>
        </Node>
        <Node pos="r" depth="1" NCoef="0" IVar="1" Cut="1.7046477794647217e+00" cType="1" res="-2.4226543307304382e-01" rms="3.3042755722999573e-01" purity="1.3223442435264587e-01" nType="0">
          <Node pos="l" depth="2" NCoef="0" IVar="-1" Cut="0.0000000000000000e+00" cType="1" res="-3.8024462759494781e-02" rms="3.9117443561553955e-01" purity="1.9930908083915710e-01" nType="-99"/>
          <Node pos="r" depth="2" NCoef="0" IVar="-1" Cut="0.0000000000000000e+00" cType="1" res="-6.7816354334354401e-02" rms="2.2263355553150177e-01" purity="5.6362461298704147e-02" nType="-99"/>
        </Node>
      </Node>
    </BinaryTree>
    <BinaryTree type="DecisionTree" boostWeight="1.0000000000000000e+00" itree="5">
      <Node pos="s" depth="0" NCoef="0" IVar="5" Cut="4.9155268073081970e-01" cType="1" res="-1.1542269203346223e-04" rms="4.6911454200744629e-01" purity="5.0000000000000000e-01" nType="0">
        <Node pos="l" depth="1" NCoef="0" IVar="0" Cut="-1.6817182302474976e+00" cType="1" res="2.5542294606566429e-02" rms="4.7637537121772766e-01" purity="5.4322761297225952e-01" nType="0">
          <Node pos="l" depth="2" NCoef="0" IVar="5" Cut="-3.2379350662231445e+00" cType="1" res="-7.9961314797401428e-02" rms="4.6853667497634888e-01" purity="3.9161059260368347e-01" nType="0">
            <Node pos="l" depth="3" NCoef="0" IVar="-1" Cut="0.0000000000000000e+00" cType="1" res="-3.4747675061225891e-02" rms="4.2719179391860962e-01" purity="2.4150218069553375e-01" nType="-99"/>
            <Node pos="r" depth="3" NCoef="0" IVar="-1" Cut="0.0000000000000000e+00" cType="1" res="-3.6905473098158836e-03" rms="4.8609185218811035e-01" purity="4.9717885255813599e-01" nType="-99"/>
          </Node>
          <Node pos="r" depth="2" NCoef="0" IVar="4" Cut="6.0000000000000000e+00" cType="1" res="2.0994532853364944e-02" rms="2.6744928956031799e-01" purity="6.5697741508483887e-01" nType="0">
            <Node pos="l" depth="3" NCoef="0" IVar="-1" Cut="0.0000000000000000e+00" cType="1" res="2.8464119881391525e-02" rms="4.5247855782508850e-01" purity="6.9742226600646973e-01" nType="-99"/>
            <Node pos="r" depth="3" NCoef="0" IVar="-1" Cut="0.0000000000000000e+00" cType="1" res="-4.9187131226062775e-03" rms="4.9491131305694580e-01" purity="5.0844371318817139e-01" nType="-99"/>
          </Node>
        </Node>
        <Node pos="r" depth="1" NCoef="0" IVar="5" Cut="1.0394725799560547e+00" cType="1" res="-2.1840243041515350e-01" rms="3.2926163077354431e-01" purity="1.3223442435264587e-01" nType="0">
          <Node pos="l" depth="2" NCoef="0" IVar="-1" Cut="0.0000000000000000e+00" cType="1" res="-2.9800062999129295e-02" rms="4.3020495772361755e-01" purity="2.4748197197914124e-01" nType="-99"/>
          <Node pos="r" depth="2" NCoef="0" IVar="-1" Cut="0.0000000000000000e+00" cType="1" res="-6.3166923820972443e-02" rms="2.0855365693569183e-01" purity="4.6191845089197159e-02" nType="-99"/>
        </Node>
      </Node>
    </BinaryTree>
    <BinaryTree type="DecisionTree" boostWeight="1.0000000000000000e+00" itree="6">
      <Node pos="s" depth="0" NCoef="0" IVar="5" Cut="4.9155268073081970e-01" cType="1" res="-1.4468657900579274e-04" rms="4.6551379561424255e-01" purity="5.0000000000000000e-01" nType="0">
        <Node pos="l" depth="1" NCoef="0" IVar="5" Cut="-1.1667795181274414e+00" cType="1" res="2.2990511730313301e-02" rms="4.7374546527862549e-01" purity="5.4322761297225952e-01" nType="0">
          <Node pos="l" depth="2" NCoef="0" IVar="4" Cut="5.0000000000000000e+00" cType="1" res="-1.8273282330483198e-03" rms="4.3054912239313126e-02" purity="3.7145215272903442e-01" nType="0">
            <Node pos="l" depth="3" NCoef="0" IVar="-1" Cut="0.0000000000000000e+00" cType="1" res="-3.1361219007521868e-03" rms="4.8106279969215393e-01" purity="4.3408897519111633e-01" nType="-99"/>
            <Node pos="r" depth="3" NCoef="0" IVar="-1" Cut="0.0000000000000000e+00" cType="1" res="-3.4529842436313629e-02" rms="4.3390810489654541e-01" purity="2.7721360325813293e-01" nType="-99"/>
          </Node>
          <Node pos="r" depth="2" NCoef="0" IVar="2" Cut="2.0422170162200928e+00" cType="1" res="9.3142390251159668e-02" rms="4.6458622813224792e-01" purity="6.6471159458160400e-01" nType="0">
            <Node pos="l" depth="3" NCoef="0" IVar="-1" Cut="0.0000000000000000e+00" cType="1" res="2.4161070585250854e-02" rms="4.5557039976119995e-01" purity="6.9768959283828735e-01" nType="-99"/>
            <Node pos="r" depth="3" NCoef="0" IVar="-1" Cut="0.0000000000000000e+00" cType="1" res="-2.0109154284000397e-02" rms="4.8939496278762817e-01" purity="4.0304306149482727e-01" nType="-99"/>
          </Node>
        </Node>
        <Node pos="r" depth="1" NCoef="0" IVar="1" Cut="1.7046477794647217e+00" cType="1" res="-1.9697095453739166e-01" rms="3.2807093858718872e-01" purity="1.3223442435264587e-01" nType="0">
          <Node pos="l" depth="2" NCoef="0" IVar="-1" Cut="0.0000000000000000e+00" cType="1" res="-3.1267549842596054e-02" rms="3.9001819491386414e-01" purity="1.9930908083915710e-01" nType="-99"/>
          <Node pos="r" depth="2" NCoef="0" IVar="-1" Cut="0.0000000000000000e+00" cType="1" res="-6.0842357575893402e-02" rms="2.2183556854724884e-01" purity="5.6362461298704147e-02" nType="-99"/>
        </Node>
      </Node>
    </BinaryTree>
    <BinaryTree type="DecisionTree" boostWeight="1.0000000000000000e+00" itree="7">
      <Node pos="s" depth="0" NCoef="0" IVar="0" Cut="-2.0489428043365479e+00" cType="1" res="-1.5532695397268981e-04" rms="4.6235182881355286e-01" purity="5.0000000000000000e-01" nType="0">
        <Node pos="l" depth="1" NCoef="0" IVar="2" Cut="1.9822489023208618e+00" cType="1" res="-1.3009966909885406e-01" rms="4.3822252750396729e-01" purity="2.8699123859405518e-01" nType="0">
          <Node pos="l" depth="2" NCoef="0" IVar="5" Cut="-3.3896803855895996e+00" cType="1" res="-9.7402229905128479e-02" rms="4.5267999172210693e-01" purity="3.2656273245811462e-01" nType="0">
            <Node pos="l" depth="3" NCoef="0" IVar="-1" Cut="0.0000000000000000e+00" cType="1" res="-3.0823649838566780e-02" rms="4.2401993274688721e-01" purity="2.3649220168590546e-01" nType="-99"/>
            <Node pos="r" depth="3" NCoef="0" IVar="-1" Cut="0.0000000000000000e+00" cType="1" res="-4.8025669530034065e-03" rms="4.8436444997787476e-01" purity="4.6552881598472595e-01" nType="-99"/>
          </Node>
          <Node pos="r" depth="2" NCoef="0" IVar="-1" Cut="0.0000000000000000e+00" cType="1" res="-5.0914354622364044e-02" rms="3.6330321431159973e-01" purity="1.5195791423320770e-01" nType="-99"/>
        </Node>
        <Node pos="r" depth="1" NCoef="0" IVar="5" Cut="3.5416558384895325e-01" cType="1" res="2.8704656288027763e-02" rms="4.6261462569236755e-01" purity="5.4730820655822754e-01" nType="0">
          <Node pos="l" depth="2" NCoef="0" IVar="4" Cut="6.0000000000000000e+00" cType="1" res="-2.7730925939977169e-03" rms="1.5890662372112274e-01" purity="6.1221712827682495e-01" nType="0">
            <Node pos="l" depth="3" NCoef="0" IVar="-1" Cut="0.0000000000000000e+00" cType="1" res="2.0059872418642044e-02" rms="4.6059706807136536e-01" purity="6.5435546636581421e-01" nType="-99"/>
            <Node pos="r" depth="3" NCoef="0" IVar="-1" Cut="0.0000000000000000e+00" cType="1" res="-1.2051607482135296e-02" rms="4.8515710234642029e-01" purity="4.5661747455596924e-01" nType="-99"/>
          </Node>
          <Node pos="r" depth="2" NCoef="0" IVar="5" Cut="9.1562622785568237e-01" cType="1" res="-1.5410140156745911e-01" rms="3.6990243196487427e-01" purity="2.1042679250240326e-01" nType="0">
            <Node pos="l" depth="3" NCoef="0" IVar="-1" Cut="0.0000000000000000e+00" cType="1" res="-1.7391962930560112e-02" rms="4.6052470803260803e-01" purity="3.6601042747497559e-01" nType="-99"/>
            <Node pos="r" depth="3" NCoef="0" IVar="-1" Cut="0.0000000000000000e+00" cType="1" res="-5.5002398788928986e-02" rms="2.3471361398696899e-01" purity="6.1730727553367615e-02" nType="-99"/>
          </Node>
        </Node>
      </Node>
    </BinaryTree>
    <BinaryTree type="DecisionTree" boostWeight="1.0000000000000000e+00" itree="8">
      <Node pos="s" depth="0" NCoef="0" IVar="0" Cut="-1.6788600683212280e+00" cType="1" res="-1.8475331307854503e-04" rms="4.5958355069160461e-01" purity="5.0000000000000000e-01" nType="0">
        <Node pos="l" depth="1" NCoef="0" IVar="2" Cut="2.0045821666717529e+00" cType="1" res="-7.0740498602390289e-02" rms="4.6036842465400696e-01" purity="3.8612467050552368e-01" nType="0">
          <Node pos="l" depth="2" NCoef="0" IVar="5" Cut="-1.3401637077331543e+00" cType="1" res="-4.2627178132534027e-02" rms="4.6685764193534851e-01" purity="4.2420825362205505e-01" nType="0">
            <Node pos="l" depth="3" NCoef="0" IVar="-1" Cut="0.0000000000000000e+00" cType="1" res="-2.0280417054891586e-02" rms="4.5355892181396484e-01" purity="2.9629912972450256e-01" nType="-99"/>
            <Node pos="r" depth="3" NCoef="0" IVar="-1" Cut="0.0000000000000000e+00" cType="1" res="6.6572860814630985e-03" rms="4.7483938932418823e-01" purity="6.0285025835037231e-01" nType="-99"/>
          </Node>
          <Node pos="r" depth="2" NCoef="0" IVar="-1" Cut="0.0000000000000000e+00" cType="1" res="-4.3165467679500580e-02" rms="4.0160822868347168e-01" purity="2.0394614338874817e-01" nType="-99"/>
        </Node>
        <Node pos="r" depth="1" NCoef="0" IVar="5" Cut="3.5416558384895325e-01" cType="1" res="4.5768655836582184e-02" rms="4.5320278406143188e-01" purity="5.7416772842407227e-01" nType="0">
          <Node pos="l" depth="2" NCoef="0" IVar="0" Cut="-1.0858745574951172e+00" cType="1" res="8.8656976819038391e-02" rms="4.6161499619483948e-01" purity="6.6246736049652100e-01" nType="0">
            <Node pos="l" depth="3" NCoef="0" IVar="-1" Cut="0.0000000000000000e+00" cType="1" res="1.0768632404506207e-02" rms="4.7217151522636414e-01" purity="6.2434518337249756e-01" nType="-99"/>
            <Node pos="r" depth="3" NCoef="0" IVar="-1" Cut="0.0000000000000000e+00" cType="1" res="3.9844196289777756e-02" rms="4.1280689835548401e-01" purity="7.7109360694885254e-01" nType="-99"/>
          </Node>
          <Node pos="r" depth="2" NCoef="0" IVar="5" Cut="9.1602993011474609e-01" cType="1" res="-1.2858091294765472e-01" rms="3.6909767985343933e-01" purity="2.1521224081516266e-01" nType="0">
            <Node pos="l" depth="3" NCoef="0" IVar="-1" Cut="0.0000000000000000e+00" cType="1" res="-1.0508772917091846e-02" rms="4.6412947773933411e-01" purity="3.8919702172279358e-01" nType="-99"/>
            <Node pos="r" depth="3" NCoef="0" IVar="-1" Cut="0.0000000000000000e+00" cType="1" res="-5.1148258149623871e-02" rms="2.4021811783313751e-01" purity="6.5025053918361664e-02" nType="-99"/>
          </Node>
        </Node>
      </Node>
    </BinaryTree>
    <BinaryTree type="DecisionTree" boostWeight="1.0000000000000000e+00" itree="9">
      <Node pos="s" depth="0" NCoef="0" IVar="2" Cut="2.0046412944793701e+00" cType="1" res="-1.9757944392040372e-04" rms="4.5692726969718933e-01" purity="5.0000000000000000e-01" nType="0">
        <Node pos="l" depth="1" NCoef="0" IVar="5" Cut="-3.1866197586059570e+00" cType="1" res="2.6193924248218536e-02" rms="4.5748329162597656e-01" purity="5.4197651147842407e-01" nType="0">
          <Node pos="l" depth="2" NCoef="0" IVar="4" Cut="5.0000000000000000e+00" cType="1" res="-3.7447004579007626e-03" rms="6.5707184374332428e-02" purity="2.8523552417755127e-01" nType="0">
            <Node pos="l" depth="3" NCoef="0" IVar="-1" Cut="0.0000000000000000e+00" cType="1" res="-9.8866345360875130e-03" rms="4.6675989031791687e-01" purity="3.5304066538810730e-01" nType="-99"/>
            <Node pos="r" depth="3" NCoef="0" IVar="-1" Cut="0.0000000000000000e+00" cType="1" res="-4.2082026600837708e-02" rms="3.8346329331398010e-01" purity="1.8096619844436646e-01" nType="-99"/>
          </Node>
          <Node pos="r" depth="2" NCoef="0" IVar="5" Cut="2.3615412414073944e-01" cType="1" res="5.5652689188718796e-02" rms="4.5573511719703674e-01" purity="5.9948217868804932e-01" nType="0">
            <Node pos="l" depth="3" NCoef="0" IVar="-1" Cut="0.0000000000000000e+00" cType="1" res="1.8201116472482681e-02" rms="4.5864635705947876e-01" purity="6.6004431247711182e-01" nType="-99"/>
            <Node pos="r" depth="3" NCoef="0" IVar="-1" Cut="0.0000000000000000e+00" cType="1" res="-2.3095833137631416e-02" rms="4.0700268745422363e-01" purity="3.0208978056907654e-01" nType="-99"/>
          </Node>
        </Node>
        <Node pos="r" depth="1" NCoef="0" IVar="0" Cut="-1.0856568813323975e+00" cType="1" res="-1.0535025596618652e-01" rms="4.3923175334930420e-01" purity="3.3275133371353149e-01" nType="0">
          <Node pos="l" depth="2" NCoef="0" IVar="1" Cut="8.8003808259963989e-01" cType="1" res="-1.5750665962696075e-01" rms="4.2899584770202637e-01" purity="2.7441999316215515e-01" nType="0">
            <Node pos="l" depth="3" NCoef="0" IVar="-1" Cut="0.0000000000000000e+00" cType="1" res="-5.0898216664791107e-02" rms="3.4284192323684692e-01" purity="1.3754859566688538e-01" nType="-99"/>
            <Node pos="r" depth="3" NCoef="0" IVar="-1" Cut="0.0000000000000000e+00" cType="1" res="-2.7259545400738716e-02" rms="4.5365673303604126e-01" purity="3.2517704367637634e-01" nType="-99"/>
          </Node>
          <Node pos="r" depth="2" NCoef="0" IVar="-1" Cut="0.0000000000000000e+00" cType="1" res="1.0371387004852295e-02" rms="4.3323090672492981e-01" purity="5.0336849689483643e-01" nType="-99"/>
        </Node>
      </Node>
    </BinaryTree>
    <BinaryTree type="DecisionTree" boostWeight="1.0000000000000000e+00" itree="10">
      <Node pos="s" depth="0" NCoef="0" IVar="4" Cut="7.0000000000000000e+00" cType="1" res="-5.2992661949247122e-04" rms="3.8713980466127396e-02" purity="5.0000000000000000e-01" nType="0">
        <Node pos="l" depth="1" NCoef="0" IVar="5" Cut="7.8920841217041016e-01" cType="1" res="1.7328614369034767e-02" rms="4.5420089364051819e-01" purity="5.2608627080917358e-01" nType="0">
          <Node pos="l" depth="2" NCoef="0" IVar="0" Cut="-1.6817182302474976e+00" cType="1" res="3.2245062291622162e-02" rms="4.6298936009407043e-01" purity="5.6104838848114014e-01" nType="0">
            <Node pos="l" depth="3" NCoef="0" IVar="-1" Cut="0.0000000000000000e+00" cType="1" res="-8.9124040678143501e-03" rms="4.6446520090103149e-01" purity="4.1260653734207153e-01" nType="-99"/>
            <Node pos="r" depth="3" NCoef="0" IVar="-1" Cut="0.0000000000000000e+00" cType="1" res="1.7894899472594261e-02" rms="4.5458057522773743e-01" purity="6.6707968711853027e-01" nType="-99"/>
          </Node>
          <Node pos="r" depth="2" NCoef="0" IVar="-1" Cut="0.0000000000000000e+00" cType="1" res="-4.6979390084743500e-02" rms="2.5028729438781738e-01" purity="7.5634874403476715e-02" nType="-99"/>
        </Node>
        <Node pos="r" depth="1" NCoef="0" IVar="1" Cut="1.3739225864410400e+00" cType="1" res="-1.4735786616802216e-01" rms="4.2988526821136475e-01" purity="2.8097298741340637e-01" nType="0">
          <Node pos="l" depth="2" NCoef="0" IVar="-1" Cut="0.0000000000000000e+00" cType="1" res="-4.9612313508987427e-02" rms="3.4456664323806763e-01" purity="1.6640152037143707e-01" nType="-99"/>
          <Node pos="r" depth="2" NCoef="0" IVar="-1" Cut="0.0000000000000000e+00" cType="1" res="-2.0034683868288994e-02" rms="4.6938523650169373e-01" purity="3.5505238175392151e-01" nType="-99"/>
        </Node>
      </Node>
    </BinaryTree>
    <BinaryTree type="DecisionTree" boostWeight="1.0000000000000000e+00" itree="11">
      <Node pos="s" depth="0" NCoef="0" IVar="4" Cut="5.0000000000000000e+00" cType="1" res="-4.8758334014564753e-04" rms="3.8565509021282196e-02" purity="5.0000000000000000e-01" nType="0">
        <Node pos="l" depth="1" NCoef="0" IVar="5" Cut="3.7280526757240295e-01" cType="1" res="3.7953142076730728e-02" rms="4.5171383023262024e-01" purity="5.5522894859313965e-01" nType="0">
          <Node pos="l" depth="2" NCoef="0" IVar="0" Cut="-1.6795928478240967e+00" cType="1" res="5.7766240090131760e-02" rms="4.5771148800849915e-01" purity="6.0104191303253174e-01" nType="0">
            <Node pos="l" depth="3" NCoef="0" IVar="-1" Cut="0.0000000000000000e+00" cType="1" res="-3.0877937097102404e-03" rms="4.7230866551399231e-01" purity="4.4036370515823364e-01" nType="-99"/>
            <Node pos="r" depth="3" NCoef="0" IVar="-1" Cut="0.0000000000000000e+00" cType="1" res="2.3770693689584732e-02" rms="4.3860942125320435e-01" purity="7.2199112176895142e-01" nType="-99"/>
          </Node>
          <Node pos="r" depth="2" NCoef="0" IVar="-1" Cut="0.0000000000000000e+00" cType="1" res="-2.9722804203629494e-02" rms="3.6544108390808105e-01" purity="1.9403867423534393e-01" nType="-99"/>
        </Node>
        <Node pos="r" depth="1" NCoef="0" IVar="5" Cut="-1.4654585123062134e+00" cType="1" res="-5.8634649962186813e-02" rms="4.4802859425544739e-01" purity="4.1542819142341614e-01" nType="0">
          <Node pos="l" depth="2" NCoef="0" IVar="0" Cut="-1.9215239286422729e+00" cType="1" res="-1.4100803434848785e-01" rms="4.1512510180473328e-01" purity="2.4577818810939789e-01" nType="0">
            <Node pos="l" depth="3" NCoef="0" IVar="-1" Cut="0.0000000000000000e+00" cType="1" res="-4.5203659683465958e-02" rms="3.3755376935005188e-01" purity="1.3226534426212311e-01" nType="-99"/>
            <Node pos="r" depth="3" NCoef="0" IVar="-1" Cut="0.0000000000000000e+00" cType="1" res="-1.5742542222142220e-02" rms="4.7849038243293762e-01" purity="3.7131494283676147e-01" nType="-99"/>
          </Node>
          <Node pos="r" depth="2" NCoef="0" IVar="5" Cut="4.6312135457992554e-01" cType="1" res="-1.8162289634346962e-02" rms="4.5794305205345154e-01" purity="4.9878197908401489e-01" nType="0">
            <Node pos="l" depth="3" NCoef="0" IVar="-1" Cut="0.0000000000000000e+00" cType="1" res="2.8088535182178020e-03" rms="4.8051628470420837e-01" purity="5.8778792619705200e-01" nType="-99"/>
            <Node pos="r" depth="3" NCoef="0" IVar="-1" Cut="0.0000000000000000e+00" cType="1" res="-4.0663611143827438e-02" rms="3.0723401904106140e-01" purity="1.1221379041671753e-01" nType="-99"/>
          </Node>
        </Node>
      </Node>
    </BinaryTree>
    <BinaryTree type="DecisionTree" boostWeight="1.0000000000000000e+00" itree="12">
      <Node pos="s" depth="0" NCoef="0" IVar="2" Cut="2.0046412944793701e+00" cType="1" res="-2.0994075748603791e-04" rms="4.5085820555686951e-01" purity="5.0000000000000000e-01" nType="0">
        <Node pos="l" depth="1" NCoef="0" IVar="5" Cut="-3.1866197586059570e+00" cType="1" res="2.2892946377396584e-02" rms="4.5207864046096802e-01" purity="5.4197651147842407e-01" nType="0">
          <Node pos="l" depth="2" NCoef="0" IVar="4" Cut="5.0000000000000000e+00" cType="1" res="-3.1148907728493214e-03" rms="6.3240692019462585e-02" purity="2.8523552417755127e-01" nType="0">
            <Node pos="l" depth="3" NCoef="0" IVar="-1" Cut="0.0000000000000000e+00" cType="1" res="-8.7753906846046448e-03" rms="4.6585267782211304e-01" purity="3.5304066538810730e-01" nType="-99"/>
            <Node pos="r" depth="3" NCoef="0" IVar="-1" Cut="0.0000000000000000e+00" cType="1" res="-3.4849952906370163e-02" rms="3.8274502754211426e-01" purity="1.8096619844436646e-01" nType="-99"/>
          </Node>
          <Node pos="r" depth="2" NCoef="0" IVar="5" Cut="2.3615412414073944e-01" cType="1" res="4.7067280858755112e-02" rms="4.5156016945838928e-01" purity="5.9948217868804932e-01" nType="0">
            <Node pos="l" depth="3" NCoef="0" IVar="-1" Cut="0.0000000000000000e+00" cType="1" res="1.5319752506911755e-02" rms="4.5644196867942810e-01" purity="6.6004431247711182e-01" nType="-99"/>
            <Node pos="r" depth="3" NCoef="0" IVar="-1" Cut="0.0000000000000000e+00" cType="1" res="-1.8587831407785416e-02" rms="4.0463134646415710e-01" purity="3.0208978056907654e-01" nType="-99"/>
          </Node>
        </Node>
        <Node pos="r" depth="1" NCoef="0" IVar="0" Cut="-1.0856568813323975e+00" cType="1" res="-9.2259652912616730e-02" rms="4.3391555547714233e-01" purity="3.3275133371353149e-01" nType="0">
          <Node pos="l" depth="2" NCoef="0" IVar="5" Cut="-2.9531290531158447e+00" cType="1" res="-1.3794314861297607e-01" rms="4.2681139707565308e-01" purity="2.7441999316215515e-01" nType="0">
            <Node pos="l" depth="3" NCoef="0" IVar="-1" Cut="0.0000000000000000e+00" cType="1" res="-1.7291713505983353e-02" rms="4.2834699153900146e-01" purity="2.7445971965789795e-01" nType="-99"/>
            <Node pos="r" depth="3" NCoef="0" IVar="-1" Cut="0.0000000000000000e+00" cType="1" res="-3.5960927605628967e-02" rms="4.2299526929855347e-01" purity="2.7440112829208374e-01" nType="-99"/>
          </Node>
          <Node pos="r" depth="2" NCoef="0" IVar="-1" Cut="0.0000000000000000e+00" cType="1" res="9.3061858788132668e-03" rms="4.2685920000076294e-01" purity="5.0336849689483643e-01" nType="-99"/>
        </Node>
      </Node>
    </BinaryTree>
    <BinaryTree type="DecisionTree" boostWeight="1.0000000000000000e+00" itree="13">
      <Node pos="s" depth="0" NCoef="0" IVar="0" Cut="-1.0732702016830444e+00" cType="1" res="-2.0042427058797330e-04" rms="4.4918161630630493e-01" purity="5.0000000000000000e-01" nType="0">
        <Node pos="l" depth="1" NCoef="0" IVar="2" Cut="2.0047025680541992e+00" cType="1" res="-1.9057208672165871e-02" rms="4.5375278592109680e-01" purity="4.7389677166938782e-01" nType="0">
          <Node pos="l" depth="2" NCoef="0" IVar="4" Cut="7.0000000000000000e+00" cType="1" res="-1.1509036266943440e-04" rms="2.5987217202782631e-02" purity="5.1775497198104858e-01" nType="0">
            <Node pos="l" depth="3" NCoef="0" IVar="-1" Cut="0.0000000000000000e+00" cType="1" res="4.4423728249967098e-03" rms="4.5592874288558960e-01" purity="5.4434174299240112e-01" nType="-99"/>
            <Node pos="r" depth="3" NCoef="0" IVar="-1" Cut="0.0000000000000000e+00" cType="1" res="-3.1508550047874451e-02" rms="4.3266877532005310e-01" purity="2.7632331848144531e-01" nType="-99"/>
          </Node>
          <Node pos="r" depth="2" NCoef="0" IVar="1" Cut="8.8003808259963989e-01" cType="1" res="-1.2327066808938980e-01" rms="4.2641258239746094e-01" purity="2.7551800012588501e-01" nType="0">
            <Node pos="l" depth="3" NCoef="0" IVar="-1" Cut="0.0000000000000000e+00" cType="1" res="-4.3589379638433456e-02" rms="3.3995863795280457e-01" purity="1.3754859566688538e-01" nType="-99"/>
            <Node pos="r" depth="3" NCoef="0" IVar="-1" Cut="0.0000000000000000e+00" cType="1" res="-2.1630331873893738e-02" rms="4.5163181424140930e-01" purity="3.2579338550567627e-01" nType="-99"/>
          </Node>
        </Node>
        <Node pos="r" depth="1" NCoef="0" IVar="5" Cut="2.2919292747974396e-01" cType="1" res="9.6228972077369690e-02" rms="4.1175267100334167e-01" purity="6.3348603248596191e-01" nType="0">
          <Node pos="l" depth="2" NCoef="0" IVar="-1" Cut="0.0000000000000000e+00" cType="1" res="3.3309079706668854e-02" rms="4.0729254484176636e-01" purity="7.7840101718902588e-01" nType="-99"/>
          <Node pos="r" depth="2" NCoef="0" IVar="-1" Cut="0.0000000000000000e+00" cType="1" res="-7.3563763871788979e-03" rms="3.9294487237930298e-01" purity="3.2162588834762573e-01" nType="-99"/>
        </Node>
      </Node>
    </BinaryTree>
    <BinaryTree type="DecisionTree" boostWeight="1.0000000000000000e+00" itree="14">
      <Node pos="s" depth="0" NCoef="0" IVar="5" Cut="-1.3478372097015381e+00" cType="1" res="-1.8483573512639850e-04" rms="4.4773262739181519e-01" purity="5.0000000000000000e-01" nType="0">
        <Node pos="l" depth="1" NCoef="0" IVar="4" Cut="5.0000000000000000e+00" cType="1" res="-1.2886103941127658e-03" rms="4.1054747998714447e-02" purity="3.4854289889335632e-01" nType="0">
          <Node pos="l" depth="2" NCoef="0" IVar="2" Cut="1.8298746347427368e+00" cType="1" res="-1.9569633528590202e-02" rms="4.7431749105453491e-01" purity="4.0752890706062317e-01" nType="0">
            <Node pos="l" depth="3" NCoef="0" IVar="-1" Cut="0.0000000000000000e+00" cType="1" res="3.9331391453742981e-03" rms="4.8256796598434448e-01" purity="4.6276602149009705e-01" nType="-99"/>
            <Node pos="r" depth="3" NCoef="0" IVar="-1" Cut="0.0000000000000000e+00" cType="1" res="-1.2080226093530655e-02" rms="4.6336612105369568e-01" purity="3.5479232668876648e-01" nType="-99"/>
          </Node>
          <Node pos="r" depth="2" NCoef="0" IVar="0" Cut="-1.9125753641128540e+00" cType="1" res="-1.0918192565441132e-01" rms="4.1947770118713379e-01" purity="2.6181954145431519e-01" nType="0">
            <Node pos="l" depth="3" NCoef="0" IVar="-1" Cut="0.0000000000000000e+00" cType="1" res="-4.1233085095882416e-02" rms="3.3506539463996887e-01" purity="1.2907510995864868e-01" nType="-99"/>
            <Node pos="r" depth="3" NCoef="0" IVar="-1" Cut="0.0000000000000000e+00" cType="1" res="-9.3667125329375267e-03" rms="4.8308178782463074e-01" purity="3.9839202165603638e-01" nType="-99"/>
          </Node>
        </Node>
        <Node pos="r" depth="1" NCoef="0" IVar="5" Cut="1.7309676110744476e-01" cType="1" res="2.8640113770961761e-02" rms="4.4114479422569275e-01" purity="5.7843369245529175e-01" nType="0">
          <Node pos="l" depth="2" NCoef="0" IVar="2" Cut="2.0421416759490967e+00" cType="1" res="7.1436010301113129e-02" rms="4.4820547103881836e-01" purity="6.8583554029464722e-01" nType="0">
            <Node pos="l" depth="3" NCoef="0" IVar="-1" Cut="0.0000000000000000e+00" cType="1" res="1.8784502521157265e-02" rms="4.4242730736732483e-01" purity="7.1565049886703491e-01" nType="-99"/>
            <Node pos="r" depth="3" NCoef="0" IVar="-1" Cut="0.0000000000000000e+00" cType="1" res="-1.2713808566331863e-02" rms="4.7451990842819214e-01" purity="4.2917248606681824e-01" nType="-99"/>
          </Node>
          <Node pos="r" depth="2" NCoef="0" IVar="0" Cut="-1.0604239702224731e+00" cType="1" res="-8.8601455092430115e-02" rms="3.9830005168914795e-01" purity="2.8420063853263855e-01" nType="0">
            <Node pos="l" depth="3" NCoef="0" IVar="-1" Cut="0.0000000000000000e+00" cType="1" res="-3.0090799555182457e-02" rms="3.9292430877685547e-01" purity="2.4789763987064362e-01" nType="-99"/>
            <Node pos="r" depth="3" NCoef="0" IVar="-1" Cut="0.0000000000000000e+00" cType="1" res="-2.9147060122340918e-03" rms="3.9902940392494202e-01" purity="3.6302876472473145e-01" nType="-99"/>
          </Node>
        </Node>
      </Node>
    </BinaryTree>
    <BinaryTree type="DecisionTree" boostWeight="1.0000000000000000e+00" itree="15">
      <Node pos="s" depth="0" NCoef="0" IVar="4" Cut="5.0000000000000000e+00" cType="1" res="-3.2683624885976315e-04" rms="3.7520602345466614e-02" purity="5.0000000000000000e-01" nType="0">
        <Node pos="l" depth="1" NCoef="0" IVar="5" Cut="3.7280526757240295e-01" cType="1" res="3.0020689591765404e-02" rms="4.4600766897201538e-01" purity="5.5522894859313965e-01" nType="0">
          <Node pos="l" depth="2" NCoef="0" IVar="0" Cut="-1.6795928478240967e+00" cType="1" res="4.5196175575256348e-02" rms="4.5304143428802490e-01" purity="6.0104191303253174e-01" nType="0">
            <Node pos="l" depth="3" NCoef="0" IVar="-1" Cut="0.0000000000000000e+00" cType="1" res="-3.0449964106082916e-03" rms="4.6931654214859009e-01" purity="4.4036370515823364e-01" nType="-99"/>
            <Node pos="r" depth="3" NCoef="0" IVar="-1" Cut="0.0000000000000000e+00" cType="1" res="1.9609773531556129e-02" rms="4.3507936596870422e-01" purity="7.2199112176895142e-01" nType="-99"/>
          </Node>
          <Node pos="r" depth="2" NCoef="0" IVar="-1" Cut="0.0000000000000000e+00" cType="1" res="-2.3761318996548653e-02" rms="3.6460432410240173e-01" purity="1.9403867423534393e-01" nType="-99"/>
        </Node>
        <Node pos="r" depth="1" NCoef="0" IVar="0" Cut="-1.3087774515151978e+00" cType="1" res="-4.6423431485891342e-02" rms="4.4228655099868774e-01" purity="4.1542819142341614e-01" nType="0">
          <Node pos="l" depth="2" NCoef="0" IVar="5" Cut="-3.8422470092773438e+00" cType="1" res="-7.9279609024524689e-02" rms="4.3985179066658020e-01" purity="3.6257210373878479e-01" nType="0">
            <Node pos="l" depth="3" NCoef="0" IVar="-1" Cut="0.0000000000000000e+00" cType="1" res="-3.9782803505659103e-02" rms="3.3313122391700745e-01" purity="1.2745119631290436e-01" nType="-99"/>
            <Node pos="r" depth="3" NCoef="0" IVar="-1" Cut="0.0000000000000000e+00" cType="1" res="-1.2064695358276367e-02" rms="4.6361070871353149e-01" purity="4.3088290095329285e-01" nType="-99"/>
          </Node>
          <Node pos="r" depth="2" NCoef="0" IVar="5" Cut="2.3854386806488037e-01" cType="1" res="2.1768286824226379e-02" rms="4.3952751159667969e-01" purity="5.2512890100479126e-01" nType="0">
            <Node pos="l" depth="3" NCoef="0" IVar="-1" Cut="0.0000000000000000e+00" cType="1" res="1.3783121481537819e-02" rms="4.6337175369262695e-01" purity="6.5118676424026489e-01" nType="-99"/>
            <Node pos="r" depth="3" NCoef="0" IVar="-1" Cut="0.0000000000000000e+00" cType="1" res="-1.8311044201254845e-02" rms="3.6661237478256226e-01" purity="2.5513407588005066e-01" nType="-99"/>
          </Node>
        </Node>
      </Node>
    </BinaryTree>
    <BinaryTree type="DecisionTree" boostWeight="1.0000000000000000e+00" itree="16">
      <Node pos="s" depth="0" NCoef="0" IVar="0" Cut="-1.0732702016830444e+00" cType="1" res="-1.6907064127735794e-04" rms="4.4492310285568237e-01" purity="5.0000000000000000e-01" nType="0">
        <Node pos="l" depth="1" NCoef="0" IVar="2" Cut="2.0047025680541992e+00" cType="1" res="-1.5927089378237724e-02" rms="4.5007327198982239e-01" purity="4.7389677166938782e-01" nType="0">
          <Node pos="l" depth="2" NCoef="0" IVar="4" Cut="7.0000000000000000e+00" cType="1" res="-7.2020593506749719e-05" rms="2.5456404313445091e-02" purity="5.1775497198104858e-01" nType="0">
            <Node pos="l" depth="3" NCoef="0" IVar="-1" Cut="0.0000000000000000e+00" cType="1" res="3.7638167850673199e-03" rms="4.5348265767097473e-01" purity="5.4434174299240112e-01" nType="-99"/>
            <Node pos="r" depth="3" NCoef="0" IVar="-1" Cut="0.0000000000000000e+00" cType="1" res="-2.6912985369563103e-02" rms="4.3215909600257874e-01" purity="2.7632331848144531e-01" nType="-99"/>
          </Node>
          <Node pos="r" depth="2" NCoef="0" IVar="5" Cut="-2.9531290531158447e+00" cType="1" res="-1.0336606204509735e-01" rms="4.2438986897468567e-01" purity="2.7551800012588501e-01" nType="0">
            <Node pos="l" depth="3" NCoef="0" IVar="-1" Cut="0.0000000000000000e+00" cType="1" res="-1.0130843147635460e-02" rms="4.2518934607505798e-01" purity="2.7445971965789795e-01" nType="-99"/>
            <Node pos="r" depth="3" NCoef="0" IVar="-1" Cut="0.0000000000000000e+00" cType="1" res="-2.9224723577499390e-02" rms="4.2100951075553894e-01" purity="2.7601119875907898e-01" nType="-99"/>
          </Node>
        </Node>
        <Node pos="r" depth="1" NCoef="0" IVar="5" Cut="2.2919292747974396e-01" cType="1" res="8.0413937568664551e-02" rms="4.0819334983825684e-01" purity="6.3348603248596191e-01" nType="0">
          <Node pos="l" depth="2" NCoef="0" IVar="-1" Cut="0.0000000000000000e+00" cType="1" res="2.8281863778829575e-02" rms="4.0692350268363953e-01" purity="7.7840101718902588e-01" nType="-99"/>
          <Node pos="r" depth="2" NCoef="0" IVar="-1" Cut="0.0000000000000000e+00" cType="1" res="-4.8785330727696419e-03" rms="3.9293777942657471e-01" purity="3.2162588834762573e-01" nType="-99"/>
        </Node>
      </Node>
    </BinaryTree>
    <BinaryTree type="DecisionTree" boostWeight="1.0000000000000000e+00" itree="17">
      <Node pos="s" depth="0" NCoef="0" IVar="1" Cut="8.2670181989669800e-01" cType="1" res="-1.5079093282110989e-04" rms="4.4390612840652466e-01" purity="5.0000000000000000e-01" nType="0">
        <Node pos="l" depth="1" NCoef="0" IVar="2" Cut="1.9710959196090698e+00" cType="1" res="-8.7589867413043976e-02" rms="4.1670063138008118e-01" purity="2.6585167646408081e-01" nType="0">
          <Node pos="l" depth="2" NCoef="0" IVar="0" Cut="-2.4454352855682373e+00" cType="1" res="-5.0260871648788452e-02" rms="4.4462278485298157e-01" purity="3.3261105418205261e-01" nType="0">
            <Node pos="l" depth="3" NCoef="0" IVar="-1" Cut="0.0000000000000000e+00" cType="1" res="-2.6099592447280884e-02" rms="3.9769366383552551e-01" purity="2.1176587045192719e-01" nType="-99"/>
            <Node pos="r" depth="3" NCoef="0" IVar="-1" Cut="0.0000000000000000e+00" cType="1" res="2.5993343442678452e-03" rms="4.7872093319892883e-01" purity="4.5249930024147034e-01" nType="-99"/>
          </Node>
          <Node pos="r" depth="2" NCoef="0" IVar="-1" Cut="0.0000000000000000e+00" cType="1" res="-3.9446204900741577e-02" rms="3.4670391678810120e-01" purity="1.3887241482734680e-01" nType="-99"/>
        </Node>
        <Node pos="r" depth="1" NCoef="0" IVar="5" Cut="7.8920841217041016e-01" cType="1" res="1.3006064109504223e-02" rms="4.4637662172317505e-01" purity="5.3523200750350952e-01" nType="0">
          <Node pos="l" depth="2" NCoef="0" IVar="4" Cut="7.0000000000000000e+00" cType="1" res="-3.3272680593654513e-04" rms="1.0705417022109032e-02" purity="5.7621347904205322e-01" nType="0">
            <Node pos="l" depth="3" NCoef="0" IVar="-1" Cut="0.0000000000000000e+00" cType="1" res="7.9744001850485802e-03" rms="4.5575007796287537e-01" purity="6.0285222530364990e-01" nType="-99"/>
            <Node pos="r" depth="3" NCoef="0" IVar="-1" Cut="0.0000000000000000e+00" cType="1" res="-1.9521843641996384e-02" rms="4.5457506179809570e-01" purity="3.3459487557411194e-01" nType="-99"/>
          </Node>
          <Node pos="r" depth="2" NCoef="0" IVar="-1" Cut="0.0000000000000000e+00" cType="1" res="-3.3144876360893250e-02" rms="2.8031131625175476e-01" purity="9.4116009771823883e-02" nType="-99"/>
        </Node>
      </Node>
    </BinaryTree>
    <BinaryTree type="DecisionTree" boostWeight="1.0000000000000000e+00" itree="18">
      <Node pos="s" depth="0" NCoef="0" IVar="5" Cut="-1.3478372097015381e+00" cType="1" res="-1.6543104720767587e-04" rms="4.4306960701942444e-01" purity="5.0000000000000000e-01" nType="0">
        <Node pos="l" depth="1" NCoef="0" IVar="5" Cut="-8.9312219619750977e+00" cType="1" res="-4.5440465211868286e-02" rms="4.5212855935096741e-01" purity="3.4854289889335632e-01" nType="0">
          <Node pos="l" depth="2" NCoef="0" IVar="-1" Cut="0.0000000000000000e+00" cType="1" res="-3.1054081395268440e-02" rms="3.6581265926361084e-01" purity="1.7840237915515900e-01" nType="-99"/>
          <Node pos="r" depth="2" NCoef="0" IVar="4" Cut="5.0000000000000000e+00" cType="1" res="1.4681695029139519e-03" rms="5.4729100316762924e-02" purity="3.8093885779380798e-01" nType="0">
            <Node pos="l" depth="3" NCoef="0" IVar="-1" Cut="0.0000000000000000e+00" cType="1" res="-1.2742985272780061e-03" rms="4.7971099615097046e-01" purity="4.3660143017768860e-01" nType="-99"/>
            <Node pos="r" depth="3" NCoef="0" IVar="-1" Cut="0.0000000000000000e+00" cType="1" res="-1.4602170325815678e-02" rms="4.4040614366531372e-01" purity="2.9928502440452576e-01" nType="-99"/>
          </Node>
        </Node>
        <Node pos="r" depth="1" NCoef="0" IVar="5" Cut="1.7309676110744476e-01" cType="1" res="2.3280724883079529e-02" rms="4.3646281957626343e-01" purity="5.7843369245529175e-01" nType="0">
          <Node pos="l" depth="2" NCoef="0" IVar="4" Cut="5.0000000000000000e+00" cType="1" res="-6.5056316088885069e-04" rms="1.9552947953343391e-02" purity="6.8583554029464722e-01" nType="0">
            <Node pos="l" depth="3" NCoef="0" IVar="-1" Cut="0.0000000000000000e+00" cType="1" res="1.9206475466489792e-02" rms="4.2699307203292847e-01" purity="7.3534411191940308e-01" nType="-99"/>
            <Node pos="r" depth="3" NCoef="0" IVar="-1" Cut="0.0000000000000000e+00" cType="1" res="1.0153152979910374e-03" rms="4.7185036540031433e-01" purity="5.9678798913955688e-01" nType="-99"/>
          </Node>
          <Node pos="r" depth="2" NCoef="0" IVar="2" Cut="1.9441243410110474e+00" cType="1" res="-6.9046877324581146e-02" rms="3.9704173803329468e-01" purity="2.8420063853263855e-01" nType="0">
            <Node pos="l" depth="3" NCoef="0" IVar="-1" Cut="0.0000000000000000e+00" cType="1" res="-7.2794961743056774e-03" rms="4.2339709401130676e-01" purity="3.5798871517181396e-01" nType="-99"/>
            <Node pos="r" depth="3" NCoef="0" IVar="-1" Cut="0.0000000000000000e+00" cType="1" res="-3.4010272473096848e-02" rms="3.4654718637466431e-01" purity="1.7561076581478119e-01" nType="-99"/>
          </Node>
        </Node>
      </Node>
    </BinaryTree>
    <BinaryTree type="DecisionTree" boostWeight="1.0000000000000000e+00" itree="19">
      <Node pos="s" depth="0" NCoef="0" IVar="0" Cut="-1.0732702016830444e+00" cType="1" res="-1.5521609748248011e-04" rms="4.4206255674362183e-01" purity="5.0000000000000000e-01" nType="0">
        <Node pos="l" depth="1" NCoef="0" IVar="2" Cut="2.0047025680541992e+00" cType="1" res="-1.4289723709225655e-02" rms="4.4760468602180481e-01" purity="4.7389677166938782e-01" nType="0">
          <Node pos="l" depth="2" NCoef="0" IVar="4" Cut="7.0000000000000000e+00" cType="1" res="9.6646163001423702e-06" rms="2.5447314605116844e-02" purity="5.1775497198104858e-01" nType="0">
            <Node pos="l" depth="3" NCoef="0" IVar="-1" Cut="0.0000000000000000e+00" cType="1" res="2.8280774131417274e-03" rms="4.5200446248054504e-01" purity="5.4434174299240112e-01" nType="-99"/>
            <Node pos="r" depth="3" NCoef="0" IVar="-1" Cut="0.0000000000000000e+00" cType="1" res="-2.1935535594820976e-02" rms="4.3227180838584900e-01" purity="2.7632331848144531e-01" nType="-99"/>
          </Node>
          <Node pos="r" depth="2" NCoef="0" IVar="5" Cut="-2.9531290531158447e+00" cType="1" res="-8.7555624544620514e-02" rms="4.2303946614265442e-01" purity="2.7551800012588501e-01" nType="0">
            <Node pos="l" depth="3" NCoef="0" IVar="-1" Cut="0.0000000000000000e+00" cType="1" res="-6.7033735103905201e-03" rms="4.2311212420463562e-01" purity="2.7445971965789795e-01" nType="-99"/>
            <Node pos="r" depth="3" NCoef="0" IVar="-1" Cut="0.0000000000000000e+00" cType="1" res="-2.6279052719473839e-02" rms="4.2004337906837463e-01" purity="2.7601119875907898e-01" nType="-99"/>
          </Node>
        </Node>
        <Node pos="r" depth="1" NCoef="0" IVar="5" Cut="2.2919292747974396e-01" cType="1" res="7.2125509381294250e-02" rms="4.0491849184036255e-01" purity="6.3348603248596191e-01" nType="0">
          <Node pos="l" depth="2" NCoef="0" IVar="-1" Cut="0.0000000000000000e+00" cType="1" res="2.4788513779640198e-02" rms="4.0610718727111816e-01" purity="7.7840101718902588e-01" nType="-99"/>
          <Node pos="r" depth="2" NCoef="0" IVar="-1" Cut="0.0000000000000000e+00" cType="1" res="-1.1919098906219006e-03" rms="3.9152589440345764e-01" purity="3.2162588834762573e-01" nType="-99"/>
        </Node>
      </Node>
    </BinaryTree>
    <BinaryTree type="DecisionTree" boostWeight="1.0000000000000000e+00" itree="20">
      <Node pos="s" depth="0" NCoef="0" IVar="3" Cut="3.0000000000000000e+00" cType="1" res="2.5635070051066577e-04" rms="1.9272986799478531e-02" purity="5.0000000000000000e-01" nType="0">
        <Node pos="l" depth="1" NCoef="0" IVar="5" Cut="-1.3478372097015381e+00" cType="1" res="1.4463964849710464e-02" rms="4.4138643145561218e-01" purity="5.2030551433563232e-01" nType="0">
          <Node pos="l" depth="2" NCoef="0" IVar="5" Cut="-6.1380434036254883e+00" cType="1" res="-3.1432136893272400e-02" rms="4.5378530025482178e-01" purity="3.6127278208732605e-01" nType="0">
            <Node pos="l" depth="3" NCoef="0" IVar="-1" Cut="0.0000000000000000e+00" cType="1" res="-2.2195477038621902e-02" rms="3.9681789278984070e-01" purity="2.0948274433612823e-01" nType="-99"/>
            <Node pos="r" depth="3" NCoef="0" IVar="-1" Cut="0.0000000000000000e+00" cType="1" res="-2.2784911561757326e-03" rms="4.7043770551681519e-01" purity="4.1475710272789001e-01" nType="-99"/>
          </Node>
          <Node pos="r" depth="2" NCoef="0" IVar="5" Cut="9.0267497301101685e-01" cType="1" res="3.6454349756240845e-02" rms="4.3360254168510437e-01" purity="5.9650349617004395e-01" nType="0">
            <Node pos="l" depth="3" NCoef="0" IVar="-1" Cut="0.0000000000000000e+00" cType="1" res="1.1603794991970062e-02" rms="4.4682702422142029e-01" purity="6.5450143814086914e-01" nType="-99"/>
            <Node pos="r" depth="3" NCoef="0" IVar="-1" Cut="0.0000000000000000e+00" cType="1" res="-3.8313336670398712e-02" rms="2.4008704721927643e-01" purity="6.3453815877437592e-02" nType="-99"/>
          </Node>
        </Node>
        <Node pos="r" depth="1" NCoef="0" IVar="2" Cut="1.8705835342407227e+00" cType="1" res="-6.9450125098228455e-02" rms="4.3446740508079529e-01" purity="4.0361845493316650e-01" nType="0">
          <Node pos="l" depth="2" NCoef="0" IVar="4" Cut="4.0000000000000000e+00" cType="1" res="-2.6326780207455158e-03" rms="2.7600215747952461e-02" purity="4.9174207448959351e-01" nType="0">
            <Node pos="l" depth="3" NCoef="0" IVar="-1" Cut="0.0000000000000000e+00" cType="1" res="6.4178546890616417e-03" rms="4.5338013768196106e-01" purity="5.6133490800857544e-01" nType="-99"/>
            <Node pos="r" depth="3" NCoef="0" IVar="-1" Cut="0.0000000000000000e+00" cType="1" res="-2.2742524743080139e-02" rms="4.1974312067031860e-01" purity="4.0865355730056763e-01" nType="-99"/>
          </Node>
          <Node pos="r" depth="2" NCoef="0" IVar="2" Cut="1.9974960088729858e+00" cType="1" res="-1.1552773416042328e-01" rms="4.1971030831336975e-01" purity="3.0167308449745178e-01" nType="0">
            <Node pos="l" depth="3" NCoef="0" IVar="-1" Cut="0.0000000000000000e+00" cType="1" res="-2.1021487191319466e-02" rms="4.3258365988731384e-01" purity="3.9703738689422607e-01" nType="-99"/>
            <Node pos="r" depth="3" NCoef="0" IVar="-1" Cut="0.0000000000000000e+00" cType="1" res="-3.3970266580581665e-02" rms="4.0493950247764587e-01" purity="2.0657391846179962e-01" nType="-99"/>
          </Node>
        </Node>
      </Node>
    </BinaryTree>
    <BinaryTree type="DecisionTree" boostWeight="1.0000000000000000e+00" itree="21">
      <Node pos="s" depth="0" NCoef="0" IVar="0" Cut="-1.3087774515151978e+00" cType="1" res="-1.4340957568492740e-04" rms="4.4044896960258484e-01" purity="5.0000000000000000e-01" nType="0">
        <Node pos="l" depth="1" NCoef="0" IVar="4" Cut="5.0000000000000000e+00" cType="1" res="1.8487538909539580e-04" rms="2.4575969204306602e-02" purity="4.5875799655914307e-01" nType="0">
          <Node pos="l" depth="2" NCoef="0" IVar="5" Cut="1.3305674493312836e-01" cType="1" res="5.0505576655268669e-03" rms="4.5313701033592224e-01" purity="5.1893293857574463e-01" nType="0">
            <Node pos="l" depth="3" NCoef="0" IVar="-1" Cut="0.0000000000000000e+00" cType="1" res="5.1689408719539642e-03" rms="4.5675966143608093e-01" purity="5.5264782905578613e-01" nType="-99"/>
            <Node pos="r" depth="3" NCoef="0" IVar="-1" Cut="0.0000000000000000e+00" cType="1" res="-3.9563495665788651e-02" rms="3.8395154476165771e-01" purity="2.2322557866573334e-01" nType="-99"/>
          </Node>
          <Node pos="r" depth="2" NCoef="0" IVar="5" Cut="-3.8422470092773438e+00" cType="1" res="-5.8782242238521576e-02" rms="4.3675455451011658e-01" purity="3.6257210373878479e-01" nType="0">
            <Node pos="l" depth="3" NCoef="0" IVar="-1" Cut="0.0000000000000000e+00" cType="1" res="-3.3262286335229874e-02" rms="3.3215185999870300e-01" purity="1.2745119631290436e-01" nType="-99"/>
            <Node pos="r" depth="3" NCoef="0" IVar="-1" Cut="0.0000000000000000e+00" cType="1" res="-8.9245829731225967e-03" rms="4.6108475327491760e-01" purity="4.3088290095329285e-01" nType="-99"/>
          </Node>
        </Node>
        <Node pos="r" depth="1" NCoef="0" IVar="5" Cut="6.8437200784683228e-01" cType="1" res="4.3533015996217728e-02" rms="4.1970673203468323e-01" purity="5.9298551082611084e-01" nType="0">
          <Node pos="l" depth="2" NCoef="0" IVar="2" Cut="2.0332450866699219e+00" cType="1" res="6.6882662475109100e-02" rms="4.3647053837776184e-01" purity="6.9025677442550659e-01" nType="0">
            <Node pos="l" depth="3" NCoef="0" IVar="-1" Cut="0.0000000000000000e+00" cType="1" res="1.9292224198579788e-02" rms="4.2658776044845581e-01" purity="7.2815865278244019e-01" nType="-99"/>
            <Node pos="r" depth="3" NCoef="0" IVar="-1" Cut="0.0000000000000000e+00" cType="1" res="-4.1915127076208591e-03" rms="4.7304356098175049e-01" purity="5.0221091508865356e-01" nType="-99"/>
          </Node>
          <Node pos="r" depth="2" NCoef="0" IVar="-1" Cut="0.0000000000000000e+00" cType="1" res="-2.4928741157054901e-02" rms="2.9730090498924255e-01" purity="1.0832318663597107e-01" nType="-99"/>
        </Node>
      </Node>
    </BinaryTree>
    <BinaryTree type="DecisionTree" boostWeight="1.0000000000000000e+00" itree="22">
      <Node pos="s" depth="0" NCoef="0" IVar="3" Cut="3.0000000000000000e+00" cType="1" res="2.7090162620879710e-04" rms="1.9344044849276543e-02" purity="5.0000000000000000e-01" nType="0">
        <Node pos="l" depth="1" NCoef="0" IVar="0" Cut="-1.0887637138366699e+00" cType="1" res="1.3010763563215733e-02" rms="4.3986853957176208e-01" purity="5.2030551433563232e-01" nType="0">
          <Node pos="l" depth="2" NCoef="0" IVar="2" Cut="2.0087451934814453e+00" cType="1" res="-3.8671665242873132e-04" rms="4.4642710685729980e-01" purity="4.9262803792953491e-01" nType="0">
            <Node pos="l" depth="3" NCoef="0" IVar="-1" Cut="0.0000000000000000e+00" cType="1" res="2.8744591400027275e-03" rms="4.4936230778694153e-01" purity="5.3263092041015625e-01" nType="-99"/>
            <Node pos="r" depth="3" NCoef="0" IVar="-1" Cut="0.0000000000000000e+00" cType="1" res="-1.5913154929876328e-02" rms="4.2480897903442383e-01" purity="2.8777393698692322e-01" nType="-99"/>
          </Node>
          <Node pos="r" depth="2" NCoef="0" IVar="4" Cut="5.0000000000000000e+00" cType="1" res="2.3514874279499054e-02" rms="2.7062386274337769e-01" purity="6.4966744184494019e-01" nType="0">
            <Node pos="l" depth="3" NCoef="0" IVar="-1" Cut="0.0000000000000000e+00" cType="1" res="2.9366001486778259e-02" rms="3.8269299268722534e-01" purity="7.2187644243240356e-01" nType="-99"/>
            <Node pos="r" depth="3" NCoef="0" IVar="-1" Cut="0.0000000000000000e+00" cType="1" res="3.4539811313152313e-03" rms="4.2211559414863586e-01" purity="5.4036194086074829e-01" nType="-99"/>
          </Node>
        </Node>
        <Node pos="r" depth="1" NCoef="0" IVar="2" Cut="1.8705835342407227e+00" cType="1" res="-6.2569528818130493e-02" rms="4.3254643678665161e-01" purity="4.0361845493316650e-01" nType="0">
          <Node pos="l" depth="2" NCoef="0" IVar="4" Cut="4.0000000000000000e+00" cType="1" res="-2.5600488297641277e-03" rms="2.7064153924584389e-02" purity="4.9174207448959351e-01" nType="0">
            <Node pos="l" depth="3" NCoef="0" IVar="-1" Cut="0.0000000000000000e+00" cType="1" res="5.2636694163084030e-03" rms="4.5217582583427429e-01" purity="5.6133490800857544e-01" nType="-99"/>
            <Node pos="r" depth="3" NCoef="0" IVar="-1" Cut="0.0000000000000000e+00" cType="1" res="-2.0376944914460182e-02" rms="4.1900169849395752e-01" purity="4.0865355730056763e-01" nType="-99"/>
          </Node>
          <Node pos="r" depth="2" NCoef="0" IVar="1" Cut="1.2165616750717163e+00" cType="1" res="-1.0304641723632812e-01" rms="4.1903561353683472e-01" purity="3.0167308449745178e-01" nType="0">
            <Node pos="l" depth="3" NCoef="0" IVar="-1" Cut="0.0000000000000000e+00" cType="1" res="-1.9548187032341957e-02" rms="4.1618385910987854e-01" purity="2.5743395090103149e-01" nType="-99"/>
            <Node pos="r" depth="3" NCoef="0" IVar="-1" Cut="0.0000000000000000e+00" cType="1" res="-2.9957959428429604e-02" rms="4.2062631249427795e-01" purity="3.4630680084228516e-01" nType="-99"/>
          </Node>
        </Node>
      </Node>
    </BinaryTree>
    <BinaryTree type="DecisionTree" boostWeight="1.0000000000000000e+00" itree="23">
      <Node pos="s" depth="0" NCoef="0" IVar="0" Cut="-2.5199570655822754e+00" cType="1" res="-1.2448609049897641e-04" rms="4.3885904550552368e-01" purity="5.0000000000000000e-01" nType="0">
        <Node pos="l" depth="1" NCoef="0" IVar="-1" Cut="0.0000000000000000e+00" cType="1" res="-2.8586106374859810e-02" rms="3.5968700051307678e-01" purity="1.6498950123786926e-01" nType="-99"/>
        <Node pos="r" depth="1" NCoef="0" IVar="3" Cut="3.0000000000000000e+00" cType="1" res="1.9092459697276354e-03" rms="7.4118323624134064e-02" purity="5.1784700155258179e-01" nType="0">
          <Node pos="l" depth="2" NCoef="0" IVar="0" Cut="-8.7393349409103394e-01" cType="1" res="1.7336735501885414e-02" rms="4.4216191768646240e-01" purity="5.3645843267440796e-01" nType="0">
            <Node pos="l" depth="3" NCoef="0" IVar="-1" Cut="0.0000000000000000e+00" cType="1" res="2.1587945520877838e-03" rms="4.4575464725494385e-01" purity="5.2500176429748535e-01" nType="-99"/>
            <Node pos="r" depth="3" NCoef="0" IVar="-1" Cut="0.0000000000000000e+00" cType="1" res="2.5645071640610695e-02" rms="3.9177626371383667e-01" purity="6.5917760133743286e-01" nType="-99"/>
          </Node>
          <Node pos="r" depth="2" NCoef="0" IVar="4" Cut="4.0000000000000000e+00" cType="1" res="4.6625612303614616e-03" rms="1.6752645373344421e-01" purity="4.2510131001472473e-01" nType="0">
            <Node pos="l" depth="3" NCoef="0" IVar="-1" Cut="0.0000000000000000e+00" cType="1" res="-2.4324192199856043e-03" rms="4.5366036891937256e-01" purity="4.9621930718421936e-01" nType="-99"/>
            <Node pos="r" depth="3" NCoef="0" IVar="-1" Cut="0.0000000000000000e+00" cType="1" res="-2.0882176235318184e-02" rms="4.1577214002609253e-01" purity="3.6026060581207275e-01" nType="-99"/>
          </Node>
        </Node>
      </Node>
    </BinaryTree>
    <BinaryTree type="DecisionTree" boostWeight="1.0000000000000000e+00" itree="24">
      <Node pos="s" depth="0" NCoef="0" IVar="4" Cut="8.0000000000000000e+00" cType="1" res="6.1460363212972879e-05" rms="3.6959085613489151e-02" purity="5.0000000000000000e-01" nType="0">
        <Node pos="l" depth="1" NCoef="0" IVar="5" Cut="9.5140016078948975e-01" cType="1" res="5.4248026572167873e-03" rms="4.3889963626861572e-01" purity="5.1361668109893799e-01" nType="0">
          <Node pos="l" depth="2" NCoef="0" IVar="5" Cut="-7.2092360258102417e-01" cType="1" res="1.3139666989445686e-02" rms="4.4927075505256653e-01" purity="5.4508304595947266e-01" nType="0">
            <Node pos="l" depth="3" NCoef="0" IVar="-1" Cut="0.0000000000000000e+00" cType="1" res="-5.0314818508923054e-03" rms="4.5791137218475342e-01" purity="4.2147874832153320e-01" nType="-99"/>
            <Node pos="r" depth="3" NCoef="0" IVar="-1" Cut="0.0000000000000000e+00" cType="1" res="1.0157064534723759e-02" rms="4.3901857733726501e-01" purity="6.5518707036972046e-01" nType="-99"/>
          </Node>
          <Node pos="r" depth="2" NCoef="0" IVar="-1" Cut="0.0000000000000000e+00" cType="1" res="-4.1775342077016830e-02" rms="2.0446987450122833e-01" purity="4.6261992305517197e-02" nType="-99"/>
        </Node>
        <Node pos="r" depth="1" NCoef="0" IVar="-1" Cut="0.0000000000000000e+00" cType="1" res="-2.7941899374127388e-02" rms="4.1215464472770691e-01" purity="2.2279019653797150e-01" nType="-99"/>
      </Node>
    </BinaryTree>
    <BinaryTree type="DecisionTree" boostWeight="1.0000000000000000e+00" itree="25">
      <Node pos="s" depth="0" NCoef="0" IVar="2" Cut="2.0046412944793701e+00" cType="1" res="-1.2370193144306540e-04" rms="4.3787720799446106e-01" purity="5.0000000000000000e-01" nType="0">
        <Node pos="l" depth="1" NCoef="0" IVar="2" Cut="1.7756569385528564e+00" cType="1" res="1.1479254812002182e-02" rms="4.4161272048950195e-01" purity="5.4197651147842407e-01" nType="0">
          <Node pos="l" depth="2" NCoef="0" IVar="2" Cut="1.6764379739761353e+00" cType="1" res="-2.7810728177428246e-02" rms="4.5256361365318298e-01" purity="4.8597407341003418e-01" nType="0">
            <Node pos="l" depth="3" NCoef="0" IVar="-1" Cut="0.0000000000000000e+00" cType="1" res="3.4217324573546648e-03" rms="4.5172980427742004e-01" purity="5.2978700399398804e-01" nType="-99"/>
            <Node pos="r" depth="3" NCoef="0" IVar="-1" Cut="0.0000000000000000e+00" cType="1" res="-1.5643043443560600e-02" rms="4.4966885447502136e-01" purity="4.4507688283920288e-01" nType="-99"/>
          </Node>
          <Node pos="r" depth="2" NCoef="0" IVar="5" Cut="-8.6703258752822876e-01" cType="1" res="3.4966126084327698e-02" rms="4.3323650956153870e-01" purity="5.7545381784439087e-01" nType="0">
            <Node pos="l" depth="3" NCoef="0" IVar="-1" Cut="0.0000000000000000e+00" cType="1" res="-5.4666325449943542e-03" rms="4.6408259868621826e-01" purity="4.1011258959770203e-01" nType="-99"/>
            <Node pos="r" depth="3" NCoef="0" IVar="-1" Cut="0.0000000000000000e+00" cType="1" res="1.6472212970256805e-02" rms="4.1049906611442566e-01" purity="6.7092043161392212e-01" nType="-99"/>
          </Node>
        </Node>
        <Node pos="r" depth="1" NCoef="0" IVar="1" Cut="1.1187666654586792e+00" cType="1" res="-4.6353805810213089e-02" rms="4.1949111223220825e-01" purity="3.3275133371353149e-01" nType="0">
          <Node pos="l" depth="2" NCoef="0" IVar="-1" Cut="0.0000000000000000e+00" cType="1" res="-2.5518849492073059e-02" rms="3.7228265404701233e-01" purity="1.7662905156612396e-01" nType="-99"/>
          <Node pos="r" depth="2" NCoef="0" IVar="1" Cut="1.4785268306732178e+00" cType="1" res="-2.3396076634526253e-02" rms="4.3749505281448364e-01" purity="4.0420705080032349e-01" nType="0">
            <Node pos="l" depth="3" NCoef="0" IVar="-1" Cut="0.0000000000000000e+00" cType="1" res="1.0140097700059414e-02" rms="4.6302855014801025e-01" purity="4.5833507180213928e-01" nType="-99"/>
            <Node pos="r" depth="3" NCoef="0" IVar="-1" Cut="0.0000000000000000e+00" cType="1" res="-1.7451791092753410e-02" rms="4.1121679544448853e-01" purity="3.6518692970275879e-01" nType="-99"/>
          </Node>
        </Node>
      </Node>
    </BinaryTree>
    <BinaryTree type="DecisionTree" boostWeight="1.0000000000000000e+00" itree="26">
      <Node pos="s" depth="0" NCoef="0" IVar="4" Cut="5.0000000000000000e+00" cType="1" res="9.2711437901016325e-05" rms="3.6851361393928528e-02" purity="5.0000000000000000e-01" nType="0">
        <Node pos="l" depth="1" NCoef="0" IVar="2" Cut="1.9320209026336670e+00" cType="1" res="1.8362000584602356e-02" rms="4.3781581521034241e-01" purity="5.5522894859313965e-01" nType="0">
          <Node pos="l" depth="2" NCoef="0" IVar="2" Cut="1.7774312496185303e+00" cType="1" res="3.9229311048984528e-02" rms="4.3814024329185486e-01" purity="6.0762989521026611e-01" nType="0">
            <Node pos="l" depth="3" NCoef="0" IVar="-1" Cut="0.0000000000000000e+00" cType="1" res="-2.7177170850336552e-03" rms="4.5052617788314819e-01" purity="5.3510630130767822e-01" nType="-99"/>
            <Node pos="r" depth="3" NCoef="0" IVar="-1" Cut="0.0000000000000000e+00" cType="1" res="1.8656495958566666e-02" rms="4.2364543676376343e-01" purity="6.6530603170394897e-01" nType="-99"/>
          </Node>
          <Node pos="r" depth="2" NCoef="0" IVar="5" Cut="-3.8038557767868042e-01" cType="1" res="-2.7788849547505379e-02" rms="4.3354496359825134e-01" purity="4.3933716416358948e-01" nType="0">
            <Node pos="l" depth="3" NCoef="0" IVar="-1" Cut="0.0000000000000000e+00" cType="1" res="-2.0784564316272736e-02" rms="4.5973011851310730e-01" purity="3.2737985253334045e-01" nType="-99"/>
            <Node pos="r" depth="3" NCoef="0" IVar="-1" Cut="0.0000000000000000e+00" cType="1" res="6.7291306331753731e-03" rms="4.0172496438026428e-01" purity="5.3561943769454956e-01" nType="-99"/>
          </Node>
        </Node>
        <Node pos="r" depth="1" NCoef="0" IVar="0" Cut="-1.3087774515151978e+00" cType="1" res="-2.8395844623446465e-02" rms="4.3448123335838318e-01" purity="4.1542819142341614e-01" nType="0">
          <Node pos="l" depth="2" NCoef="0" IVar="1" Cut="1.6598609685897827e+00" cType="1" res="-4.9330744892358780e-02" rms="4.3431401252746582e-01" purity="3.6257210373878479e-01" nType="0">
            <Node pos="l" depth="3" NCoef="0" IVar="-1" Cut="0.0000000000000000e+00" cType="1" res="-8.5561340674757957e-03" rms="4.2680966854095459e-01" purity="3.5822325944900513e-01" nType="-99"/>
            <Node pos="r" depth="3" NCoef="0" IVar="-1" Cut="0.0000000000000000e+00" cType="1" res="-2.6583882048726082e-02" rms="4.6493822336196899e-01" purity="3.8496601581573486e-01" nType="-99"/>
          </Node>
          <Node pos="r" depth="2" NCoef="0" IVar="1" Cut="1.7784051895141602e+00" cType="1" res="1.5053727664053440e-02" rms="4.3159934878349304e-01" purity="5.2512890100479126e-01" nType="0">
            <Node pos="l" depth="3" NCoef="0" IVar="-1" Cut="0.0000000000000000e+00" cType="1" res="1.8719833344221115e-02" rms="4.3439614772796631e-01" purity="5.8980751037597656e-01" nType="-99"/>
            <Node pos="r" depth="3" NCoef="0" IVar="-1" Cut="0.0000000000000000e+00" cType="1" res="-1.1788433417677879e-02" rms="4.1915163397789001e-01" purity="4.6156525611877441e-01" nType="-99"/>
          </Node>
        </Node>
      </Node>
    </BinaryTree>
    <BinaryTree type="DecisionTree" boostWeight="1.0000000000000000e+00" itree="27">
      <Node pos="s" depth="0" NCoef="0" IVar="3" Cut="3.0000000000000000e+00" cType="1" res="2.9406553949229419e-04" rms="1.9486112520098686e-02" purity="5.0000000000000000e-01" nType="0">
        <Node pos="l" depth="1" NCoef="0" IVar="4" Cut="8.0000000000000000e+00" cType="1" res="1.5013973461464047e-04" rms="3.3117722719907761e-02" purity="5.2030551433563232e-01" nType="0">
          <Node pos="l" depth="2" NCoef="0" IVar="5" Cut="9.5140016078948975e-01" cType="1" res="1.5876885503530502e-02" rms="4.3747097253799438e-01" purity="5.3567856550216675e-01" nType="0">
            <Node pos="l" depth="3" NCoef="0" IVar="-1" Cut="0.0000000000000000e+00" cType="1" res="5.1911538466811180e-03" rms="4.4693899154663086e-01" purity="5.6688749790191650e-01" nType="-99"/>
            <Node pos="r" depth="3" NCoef="0" IVar="-1" Cut="0.0000000000000000e+00" cType="1" res="-3.5829789936542511e-02" rms="2.2651119530200958e-01" purity="5.7861287146806717e-02" nType="-99"/>
          </Node>
          <Node pos="r" depth="2" NCoef="0" IVar="-1" Cut="0.0000000000000000e+00" cType="1" res="-2.4005565792322159e-02" rms="4.1091069579124451e-01" purity="2.3247356712818146e-01" nType="-99"/>
        </Node>
        <Node pos="r" depth="1" NCoef="0" IVar="2" Cut="1.8705835342407227e+00" cType="1" res="-4.8999868333339691e-02" rms="4.3022555112838745e-01" purity="4.0361845493316650e-01" nType="0">
          <Node pos="l" depth="2" NCoef="0" IVar="0" Cut="-1.7371673583984375e+00" cType="1" res="-1.9775277003645897e-02" rms="4.3815222382545471e-01" purity="4.9174207448959351e-01" nType="0">
            <Node pos="l" depth="3" NCoef="0" IVar="-1" Cut="0.0000000000000000e+00" cType="1" res="-1.6107464209198952e-02" rms="4.4969034194946289e-01" purity="3.4050029516220093e-01" nType="-99"/>
            <Node pos="r" depth="3" NCoef="0" IVar="-1" Cut="0.0000000000000000e+00" cType="1" res="4.8475898802280426e-03" rms="4.2454826831817627e-01" purity="6.0943627357482910e-01" nType="-99"/>
          </Node>
          <Node pos="r" depth="2" NCoef="0" IVar="1" Cut="1.2165616750717163e+00" cType="1" res="-8.2808181643486023e-02" rms="4.1833004355430603e-01" purity="3.0167308449745178e-01" nType="0">
            <Node pos="l" depth="3" NCoef="0" IVar="-1" Cut="0.0000000000000000e+00" cType="1" res="-1.4720837585628033e-02" rms="4.1524842381477356e-01" purity="2.5743395090103149e-01" nType="-99"/>
            <Node pos="r" depth="3" NCoef="0" IVar="-1" Cut="0.0000000000000000e+00" cType="1" res="-2.6044551283121109e-02" rms="4.1989395022392273e-01" purity="3.4630680084228516e-01" nType="-99"/>
          </Node>
        </Node>
      </Node>
    </BinaryTree>
    <BinaryTree type="DecisionTree" boostWeight="1.0000000000000000e+00" itree="28">
      <Node pos="s" depth="0" NCoef="0" IVar="0" Cut="-2.5199570655822754e+00" cType="1" res="-1.0011655831476673e-04" rms="4.3584573268890381e-01" purity="5.0000000000000000e-01" nType="0">
        <Node pos="l" depth="1" NCoef="0" IVar="-1" Cut="0.0000000000000000e+00" cType="1" res="-2.5089398026466370e-02" rms="3.5849890112876892e-01" purity="1.6498950123786926e-01" nType="-99"/>
        <Node pos="r" depth="1" NCoef="0" IVar="1" Cut="1.4773948192596436e+00" cType="1" res="4.9124439246952534e-03" rms="4.3901917338371277e-01" purity="5.1784700155258179e-01" nType="0">
          <Node pos="l" depth="2" NCoef="0" IVar="0" Cut="-1.6218383312225342e+00" cType="1" res="2.6553330942988396e-02" rms="4.4148471951484680e-01" purity="4.9571561813354492e-01" nType="0">
            <Node pos="l" depth="3" NCoef="0" IVar="-1" Cut="0.0000000000000000e+00" cType="1" res="-5.6647637393325567e-04" rms="4.5185357332229614e-01" purity="4.2551091313362122e-01" nType="-99"/>
            <Node pos="r" depth="3" NCoef="0" IVar="-1" Cut="0.0000000000000000e+00" cType="1" res="2.0291201770305634e-02" rms="4.1326183080673218e-01" purity="6.3893872499465942e-01" nType="-99"/>
          </Node>
          <Node pos="r" depth="2" NCoef="0" IVar="0" Cut="-1.0715001821517944e+00" cType="1" res="-1.7194846644997597e-02" rms="4.3537679314613342e-01" purity="5.4045534133911133e-01" nType="0">
            <Node pos="l" depth="3" NCoef="0" IVar="-1" Cut="0.0000000000000000e+00" cType="1" res="-9.5630688592791557e-03" rms="4.4955414533615112e-01" purity="5.0268161296844482e-01" nType="-99"/>
            <Node pos="r" depth="3" NCoef="0" IVar="-1" Cut="0.0000000000000000e+00" cType="1" res="9.3095488846302032e-03" rms="3.9693003892898560e-01" purity="6.2424653768539429e-01" nType="-99"/>
          </Node>
        </Node>
      </Node>
    </BinaryTree>
    <BinaryTree type="DecisionTree" boostWeight="1.0000000000000000e+00" itree="29">
      <Node pos="s" depth="0" NCoef="0" IVar="0" Cut="-1.2751334905624390e+00" cType="1" res="-8.9239452790934592e-05" rms="4.3533733487129211e-01" purity="5.0000000000000000e-01" nType="0">
        <Node pos="l" depth="1" NCoef="0" IVar="1" Cut="1.4310286045074463e+00" cType="1" res="-1.2766007333993912e-02" rms="4.4343483448028564e-01" purity="4.6189761161804199e-01" nType="0">
          <Node pos="l" depth="2" NCoef="0" IVar="0" Cut="-2.0286355018615723e+00" cType="1" res="5.6573520414531231e-03" rms="4.3650311231613159e-01" purity="4.4061076641082764e-01" nType="0">
            <Node pos="l" depth="3" NCoef="0" IVar="-1" Cut="0.0000000000000000e+00" cType="1" res="-9.9473958835005760e-03" rms="4.2528003454208374e-01" purity="2.8982821106910706e-01" nType="-99"/>
            <Node pos="r" depth="3" NCoef="0" IVar="-1" Cut="0.0000000000000000e+00" cType="1" res="8.4316879510879517e-03" rms="4.4129273295402527e-01" purity="5.4430878162384033e-01" nType="-99"/>
          </Node>
          <Node pos="r" depth="2" NCoef="0" IVar="4" Cut="4.0000000000000000e+00" cType="1" res="-3.8911879528313875e-04" rms="1.4032004401087761e-02" purity="4.9988573789596558e-01" nType="0">
            <Node pos="l" depth="3" NCoef="0" IVar="-1" Cut="0.0000000000000000e+00" cType="1" res="-5.1683426136150956e-05" rms="4.4131171703338623e-01" purity="5.9951579570770264e-01" nType="-99"/>
            <Node pos="r" depth="3" NCoef="0" IVar="-1" Cut="0.0000000000000000e+00" cType="1" res="-1.6791220754384995e-02" rms="4.5903334021568298e-01" purity="4.3682482838630676e-01" nType="-99"/>
          </Node>
        </Node>
        <Node pos="r" depth="1" NCoef="0" IVar="1" Cut="1.6857558488845825e+00" cType="1" res="3.1971659511327744e-02" rms="4.1241663694381714e-01" purity="5.9636509418487549e-01" nType="0">
          <Node pos="l" depth="2" NCoef="0" IVar="-1" Cut="0.0000000000000000e+00" cType="1" res="2.2455150261521339e-02" rms="4.0822246670722961e-01" purity="6.5592795610427856e-01" nType="-99"/>
          <Node pos="r" depth="2" NCoef="0" IVar="5" Cut="1.7653715610504150e-01" cType="1" res="-8.2956388359889388e-04" rms="4.1104573011398315e-01" purity="5.6351852416992188e-01" nType="0">
            <Node pos="l" depth="3" NCoef="0" IVar="-1" Cut="0.0000000000000000e+00" cType="1" res="8.6301537230610847e-03" rms="4.3672275543212891e-01" purity="7.0990276336669922e-01" nType="-99"/>
            <Node pos="r" depth="3" NCoef="0" IVar="-1" Cut="0.0000000000000000e+00" cType="1" res="-2.1766347810626030e-02" rms="3.4080711007118225e-01" purity="2.6572665572166443e-01" nType="-99"/>
          </Node>
        </Node>
      </Node>
    </BinaryTree>
    <BinaryTree type="DecisionTree" boostWeight="1.0000000000000000e+00" itree="30">
      <Node pos="s" depth="0" NCoef="0" IVar="2" Cut="2.0046412944793701e+00" cType="1" res="-7.8804427175782621e-05" rms="4.3473419547080994e-01" purity="5.0000000000000000e-01" nType="0">
        <Node pos="l" depth="1" NCoef="0" IVar="4" Cut="6.0000000000000000e+00" cType="1" res="-2.0863159443251789e-04" rms="3.5339094698429108e-02" purity="5.4197651147842407e-01" nType="0">
          <Node pos="l" depth="2" NCoef="0" IVar="5" Cut="4.7159928083419800e-01" cType="1" res="2.3508338257670403e-02" rms="4.3619930744171143e-01" purity="5.8229595422744751e-01" nType="0">
            <Node pos="l" depth="3" NCoef="0" IVar="-1" Cut="0.0000000000000000e+00" cType="1" res="7.2282333858311176e-03" rms="4.4421780109405518e-01" purity="6.2114208936691284e-01" nType="-99"/>
            <Node pos="r" depth="3" NCoef="0" IVar="-1" Cut="0.0000000000000000e+00" cType="1" res="-2.0893957465887070e-02" rms="3.2038462162017822e-01" purity="1.4845703542232513e-01" nType="-99"/>
          </Node>
          <Node pos="r" depth="2" NCoef="0" IVar="2" Cut="1.8443986177444458e+00" cType="1" res="-3.7926446646451950e-02" rms="4.4379016757011414e-01" purity="3.9533206820487976e-01" nType="0">
            <Node pos="l" depth="3" NCoef="0" IVar="-1" Cut="0.0000000000000000e+00" cType="1" res="-1.6598824411630630e-02" rms="4.5921733975410461e-01" purity="3.3398869633674622e-01" nType="-99"/>
            <Node pos="r" depth="3" NCoef="0" IVar="-1" Cut="0.0000000000000000e+00" cType="1" res="-5.8008224004879594e-04" rms="4.2364406585693359e-01" purity="4.6161845326423645e-01" nType="-99"/>
          </Node>
        </Node>
        <Node pos="r" depth="1" NCoef="0" IVar="0" Cut="-1.0856568813323975e+00" cType="1" res="-4.1270952671766281e-02" rms="4.1653788089752197e-01" purity="3.3275133371353149e-01" nType="0">
          <Node pos="l" depth="2" NCoef="0" IVar="5" Cut="-2.9531290531158447e+00" cType="1" res="-5.8918662369251251e-02" rms="4.1972067952156067e-01" purity="2.7441999316215515e-01" nType="0">
            <Node pos="l" depth="3" NCoef="0" IVar="-1" Cut="0.0000000000000000e+00" cType="1" res="2.1868778858333826e-03" rms="4.1933366656303406e-01" purity="2.7445971965789795e-01" nType="-99"/>
            <Node pos="r" depth="3" NCoef="0" IVar="-1" Cut="0.0000000000000000e+00" cType="1" res="-2.1492879837751389e-02" rms="4.1614550352096558e-01" purity="2.7440112829208374e-01" nType="-99"/>
          </Node>
          <Node pos="r" depth="2" NCoef="0" IVar="-1" Cut="0.0000000000000000e+00" cType="1" res="2.6143251452594995e-03" rms="4.0267002582550049e-01" purity="5.0336849689483643e-01" nType="-99"/>
        </Node>
      </Node>
    </BinaryTree>
    <BinaryTree type="DecisionTree" boostWeight="1.0000000000000000e+00" itree="31">
      <Node pos="s" depth="0" NCoef="0" IVar="3" Cut="3.0000000000000000e+00" cType="1" res="3.1140170176513493e-04" rms="1.9597103819251060e-02" purity="5.0000000000000000e-01" nType="0">
        <Node pos="l" depth="1" NCoef="0" IVar="0" Cut="-2.0440793037414551e+00" cType="1" res="9.1599021106958389e-03" rms="4.3501722812652588e-01" purity="5.2030551433563232e-01" nType="0">
          <Node pos="l" depth="2" NCoef="0" IVar="2" Cut="1.8985998630523682e+00" cType="1" res="-3.8895737379789352e-02" rms="4.1951769590377808e-01" purity="2.9417583346366882e-01" nType="0">
            <Node pos="l" depth="3" NCoef="0" IVar="-1" Cut="0.0000000000000000e+00" cType="1" res="-5.5424484889954329e-04" rms="4.4650760293006897e-01" purity="3.6581787467002869e-01" nType="-99"/>
            <Node pos="r" depth="3" NCoef="0" IVar="-1" Cut="0.0000000000000000e+00" cType="1" res="-3.0655391514301300e-02" rms="3.4956592321395874e-01" purity="1.5318055450916290e-01" nType="-99"/>
          </Node>
          <Node pos="r" depth="2" NCoef="0" IVar="1" Cut="1.4859858751296997e+00" cType="1" res="1.8527429550886154e-02" rms="4.3736016750335693e-01" purity="5.6438517570495605e-01" nType="0">
            <Node pos="l" depth="3" NCoef="0" IVar="-1" Cut="0.0000000000000000e+00" cType="1" res="1.1974512599408627e-02" rms="4.3997097015380859e-01" purity="5.7741236686706543e-01" nType="-99"/>
            <Node pos="r" depth="3" NCoef="0" IVar="-1" Cut="0.0000000000000000e+00" cType="1" res="-1.5500157605856657e-03" rms="4.3372339010238647e-01" purity="5.5468261241912842e-01" nType="-99"/>
          </Node>
        </Node>
        <Node pos="r" depth="1" NCoef="0" IVar="2" Cut="1.8705835342407227e+00" cType="1" res="-4.3926674872636795e-02" rms="4.2815560102462769e-01" purity="4.0361845493316650e-01" nType="0">
          <Node pos="l" depth="2" NCoef="0" IVar="4" Cut="4.0000000000000000e+00" cType="1" res="-2.2137654013931751e-03" rms="2.3647032678127289e-02" purity="4.9174207448959351e-01" nType="0">
            <Node pos="l" depth="3" NCoef="0" IVar="-1" Cut="0.0000000000000000e+00" cType="1" res="4.6687447465956211e-03" rms="4.4850683212280273e-01" purity="5.6133490800857544e-01" nType="-99"/>
            <Node pos="r" depth="3" NCoef="0" IVar="-1" Cut="0.0000000000000000e+00" cType="1" res="-1.5027000568807125e-02" rms="4.1435506939888000e-01" purity="4.0865355730056763e-01" nType="-99"/>
          </Node>
          <Node pos="r" depth="2" NCoef="0" IVar="1" Cut="1.2165616750717163e+00" cType="1" res="-7.3797747492790222e-02" rms="4.1774451732635498e-01" purity="3.0167308449745178e-01" nType="0">
            <Node pos="l" depth="3" NCoef="0" IVar="-1" Cut="0.0000000000000000e+00" cType="1" res="-1.2941241264343262e-02" rms="4.1473594307899475e-01" purity="2.5743395090103149e-01" nType="-99"/>
            <Node pos="r" depth="3" NCoef="0" IVar="-1" Cut="0.0000000000000000e+00" cType="1" res="-2.3884927853941917e-02" rms="4.1936528682708740e-01" purity="3.4630680084228516e-01" nType="-99"/>
          </Node>
        </Node>
      </Node>
    </BinaryTree>
    <BinaryTree type="DecisionTree" boostWeight="1.0000000000000000e+00" itree="32">
      <Node pos="s" depth="0" NCoef="0" IVar="0" Cut="-8.7140697240829468e-01" cType="1" res="-7.7052631240803748e-05" rms="4.3383926153182983e-01" purity="5.0000000000000000e-01" nType="0">
        <Node pos="l" depth="1" NCoef="0" IVar="5" Cut="1.0451426357030869e-01" cType="1" res="-5.7077980600297451e-03" rms="4.3690726161003113e-01" purity="4.8927724361419678e-01" nType="0">
          <Node pos="l" depth="2" NCoef="0" IVar="5" Cut="-7.1809309720993042e-01" cType="1" res="4.5711454004049301e-03" rms="4.4497978687286377e-01" purity="5.2548533678054810e-01" nType="0">
            <Node pos="l" depth="3" NCoef="0" IVar="-1" Cut="0.0000000000000000e+00" cType="1" res="-4.6683512628078461e-03" rms="4.5197924971580505e-01" purity="4.0488708019256592e-01" nType="-99"/>
            <Node pos="r" depth="3" NCoef="0" IVar="-1" Cut="0.0000000000000000e+00" cType="1" res="9.1546829789876938e-03" rms="4.3250867724418640e-01" purity="6.9545000791549683e-01" nType="-99"/>
          </Node>
          <Node pos="r" depth="2" NCoef="0" IVar="2" Cut="1.8706905841827393e+00" cType="1" res="-5.0583619624376297e-02" rms="3.9665141701698303e-01" purity="3.3119979500770569e-01" nType="0">
            <Node pos="l" depth="3" NCoef="0" IVar="-1" Cut="0.0000000000000000e+00" cType="1" res="-3.9120404981076717e-03" rms="4.2536148428916931e-01" purity="4.0079450607299805e-01" nType="-99"/>
            <Node pos="r" depth="3" NCoef="0" IVar="-1" Cut="0.0000000000000000e+00" cType="1" res="-2.3271249607205391e-02" rms="3.6463597416877747e-01" purity="2.6599371433258057e-01" nType="-99"/>
          </Node>
        </Node>
        <Node pos="r" depth="1" NCoef="0" IVar="-1" Cut="0.0000000000000000e+00" cType="1" res="1.7933636903762817e-02" rms="3.8827556371688843e-01" purity="6.3008052110671997e-01" nType="-99"/>
      </Node>
    </BinaryTree>
    <BinaryTree type="DecisionTree" boostWeight="1.0000000000000000e+00" itree="33">
      <Node pos="s" depth="0" NCoef="0" IVar="5" Cut="-8.7053966522216797e+00" cType="1" res="-6.8243476562201977e-05" rms="4.3348708748817444e-01" purity="5.0000000000000000e-01" nType="0">
        <Node pos="l" depth="1" NCoef="0" IVar="-1" Cut="0.0000000000000000e+00" cType="1" res="-2.0500851795077324e-02" rms="3.6998286843299866e-01" purity="1.8284904956817627e-01" nType="-99"/>
        <Node pos="r" depth="1" NCoef="0" IVar="5" Cut="1.7417609691619873e-01" cType="1" res="4.5025120489299297e-03" rms="4.3661391735076904e-01" purity="5.1918739080429077e-01" nType="0">
          <Node pos="l" depth="2" NCoef="0" IVar="5" Cut="-5.5981528759002686e-01" cType="1" res="1.6526093706488609e-02" rms="4.4642323255538940e-01" purity="5.7304221391677856e-01" nType="0">
            <Node pos="l" depth="3" NCoef="0" IVar="-1" Cut="0.0000000000000000e+00" cType="1" res="-1.8375705694779754e-03" rms="4.6105337142944336e-01" purity="4.6294644474983215e-01" nType="-99"/>
            <Node pos="r" depth="3" NCoef="0" IVar="-1" Cut="0.0000000000000000e+00" cType="1" res="1.1327084153890610e-02" rms="4.2481699585914612e-01" purity="7.1436935663223267e-01" nType="-99"/>
          </Node>
          <Node pos="r" depth="2" NCoef="0" IVar="1" Cut="1.4472906589508057e+00" cType="1" res="-4.7894593328237534e-02" rms="3.8666340708732605e-01" purity="2.8449553251266479e-01" nType="0">
            <Node pos="l" depth="3" NCoef="0" IVar="-1" Cut="0.0000000000000000e+00" cType="1" res="3.7167740520089865e-03" rms="4.1886755824089050e-01" purity="3.5939657688140869e-01" nType="-99"/>
            <Node pos="r" depth="3" NCoef="0" IVar="-1" Cut="0.0000000000000000e+00" cType="1" res="-2.1049108356237411e-02" rms="3.6912396550178528e-01" purity="2.5287488102912903e-01" nType="-99"/>
          </Node>
        </Node>
      </Node>
    </BinaryTree>
    <BinaryTree type="DecisionTree" boostWeight="1.0000000000000000e+00" itree="34">
      <Node pos="s" depth="0" NCoef="0" IVar="4" Cut="8.0000000000000000e+00" cType="1" res="2.8398793074302375e-04" rms="3.7112727761268616e-02" purity="5.0000000000000000e-01" nType="0">
        <Node pos="l" depth="1" NCoef="0" IVar="5" Cut="9.5140016078948975e-01" cType="1" res="3.9836545474827290e-03" rms="4.3378373980522156e-01" purity="5.1361668109893799e-01" nType="0">
          <Node pos="l" depth="2" NCoef="0" IVar="0" Cut="-1.2864152193069458e+00" cType="1" res="9.8825749009847641e-03" rms="4.4448503851890564e-01" purity="5.4508304595947266e-01" nType="0">
            <Node pos="l" depth="3" NCoef="0" IVar="-1" Cut="0.0000000000000000e+00" cType="1" res="-1.2067183852195740e-03" rms="4.5063391327857971e-01" purity="4.8974078893661499e-01" nType="-99"/>
            <Node pos="r" depth="3" NCoef="0" IVar="-1" Cut="0.0000000000000000e+00" cType="1" res="1.2113569304347038e-02" rms="4.2492145299911499e-01" purity="6.9337111711502075e-01" nType="-99"/>
          </Node>
          <Node pos="r" depth="2" NCoef="0" IVar="-1" Cut="0.0000000000000000e+00" cType="1" res="-3.7266720086336136e-02" rms="2.0095345377922058e-01" purity="4.6261992305517197e-02" nType="-99"/>
        </Node>
        <Node pos="r" depth="1" NCoef="0" IVar="-1" Cut="0.0000000000000000e+00" cType="1" res="-2.1648364141583443e-02" rms="4.1087239980697632e-01" purity="2.2279019653797150e-01" nType="-99"/>
      </Node>
    </BinaryTree>
    <BinaryTree type="DecisionTree" boostWeight="1.0000000000000000e+00" itree="35">
      <Node pos="s" depth="0" NCoef="0" IVar="2" Cut="2.0046412944793701e+00" cType="1" res="-6.9943780545145273e-05" rms="4.3283048272132874e-01" purity="5.0000000000000000e-01" nType="0">
        <Node pos="l" depth="1" NCoef="0" IVar="2" Cut="1.7756569385528564e+00" cType="1" res="8.8240234181284904e-03" rms="4.3691337108612061e-01" purity="5.4197651147842407e-01" nType="0">
          <Node pos="l" depth="2" NCoef="0" IVar="2" Cut="1.6764379739761353e+00" cType="1" res="-2.0721010863780975e-02" rms="4.4992321729660034e-01" purity="4.8597407341003418e-01" nType="0">
            <Node pos="l" depth="3" NCoef="0" IVar="-1" Cut="0.0000000000000000e+00" cType="1" res="4.4591394253075123e-03" rms="4.5041623711585999e-01" purity="5.2978700399398804e-01" nType="-99"/>
            <Node pos="r" depth="3" NCoef="0" IVar="-1" Cut="0.0000000000000000e+00" cType="1" res="-1.3642809353768826e-02" rms="4.4624122977256775e-01" purity="4.4507688283920288e-01" nType="-99"/>
          </Node>
          <Node pos="r" depth="2" NCoef="0" IVar="5" Cut="-8.6703258752822876e-01" cType="1" res="2.6485532522201538e-02" rms="4.2797493934631348e-01" purity="5.7545381784439087e-01" nType="0">
            <Node pos="l" depth="3" NCoef="0" IVar="-1" Cut="0.0000000000000000e+00" cType="1" res="-4.2475620284676552e-03" rms="4.6163931488990784e-01" purity="4.1011258959770203e-01" nType="-99"/>
            <Node pos="r" depth="3" NCoef="0" IVar="-1" Cut="0.0000000000000000e+00" cType="1" res="1.3086228631436825e-02" rms="4.0499758720397949e-01" purity="6.7092043161392212e-01" nType="-99"/>
          </Node>
        </Node>
        <Node pos="r" depth="1" NCoef="0" IVar="1" Cut="1.6291548013687134e+00" cType="1" res="-3.5506516695022583e-02" rms="4.1427364945411682e-01" purity="3.3275133371353149e-01" nType="0">
          <Node pos="l" depth="2" NCoef="0" IVar="1" Cut="1.1353280544281006e+00" cType="1" res="-1.9634326919913292e-02" rms="4.2086306214332581e-01" purity="3.2996967434883118e-01" nType="0">
            <Node pos="l" depth="3" NCoef="0" IVar="-1" Cut="0.0000000000000000e+00" cType="1" res="-2.1669475361704826e-02" rms="3.6978706717491150e-01" purity="1.7360906302928925e-01" nType="-99"/>
            <Node pos="r" depth="3" NCoef="0" IVar="-1" Cut="0.0000000000000000e+00" cType="1" res="5.8294842019677162e-03" rms="4.5209616422653198e-01" purity="4.5318880677223206e-01" nType="-99"/>
          </Node>
          <Node pos="r" depth="2" NCoef="0" IVar="-1" Cut="0.0000000000000000e+00" cType="1" res="-2.0177733153104782e-02" rms="3.9334118366241455e-01" purity="3.4007793664932251e-01" nType="-99"/>
        </Node>
      </Node>
    </BinaryTree>
    <BinaryTree type="DecisionTree" boostWeight="1.0000000000000000e+00" itree="36">
      <Node pos="s" depth="0" NCoef="0" IVar="3" Cut="3.0000000000000000e+00" cType="1" res="3.2711488893255591e-04" rms="1.9728962332010269e-02" purity="5.0000000000000000e-01" nType="0">
        <Node pos="l" depth="1" NCoef="0" IVar="4" Cut="5.0000000000000000e+00" cType="1" res="2.9288686346262693e-04" rms="3.3356208354234695e-02" purity="5.2030551433563232e-01" nType="0">
          <Node pos="l" depth="2" NCoef="0" IVar="0" Cut="-1.0761879682540894e+00" cType="1" res="2.4168016389012337e-02" rms="4.3191108107566833e-01" purity="5.8229124546051025e-01" nType="0">
            <Node pos="l" depth="3" NCoef="0" IVar="-1" Cut="0.0000000000000000e+00" cType="1" res="2.7873658109456301e-03" rms="4.4181570410728455e-01" purity="5.5228596925735474e-01" nType="-99"/>
            <Node pos="r" depth="3" NCoef="0" IVar="-1" Cut="0.0000000000000000e+00" cType="1" res="2.2875288501381874e-02" rms="3.7629058957099915e-01" purity="7.2398030757904053e-01" nType="-99"/>
          </Node>
          <Node pos="r" depth="2" NCoef="0" IVar="0" Cut="-2.0111372470855713e+00" cType="1" res="-1.5015340410172939e-02" rms="4.3369919061660767e-01" purity="4.3271976709365845e-01" nType="0">
            <Node pos="l" depth="3" NCoef="0" IVar="-1" Cut="0.0000000000000000e+00" cType="1" res="-2.0731313154101372e-02" rms="3.5635265707969666e-01" purity="2.0457006990909576e-01" nType="-99"/>
            <Node pos="r" depth="3" NCoef="0" IVar="-1" Cut="0.0000000000000000e+00" cType="1" res="-5.8480643201619387e-04" rms="4.4779407978057861e-01" purity="4.8237952589988708e-01" nType="-99"/>
          </Node>
        </Node>
        <Node pos="r" depth="1" NCoef="0" IVar="0" Cut="-2.1466581821441650e+00" cType="1" res="-3.7996482104063034e-02" rms="4.2660117149353027e-01" purity="4.0361845493316650e-01" nType="0">
          <Node pos="l" depth="2" NCoef="0" IVar="-1" Cut="0.0000000000000000e+00" cType="1" res="2.9357557650655508e-03" rms="4.4637700915336609e-01" purity="2.9990050196647644e-01" nType="-99"/>
          <Node pos="r" depth="2" NCoef="0" IVar="2" Cut="1.8746972084045410e+00" cType="1" res="-5.3541146218776703e-02" rms="4.1896751523017883e-01" purity="4.3634510040283203e-01" nType="0">
            <Node pos="l" depth="3" NCoef="0" IVar="-1" Cut="0.0000000000000000e+00" cType="1" res="-1.3385186903178692e-03" rms="4.3278610706329346e-01" purity="5.5278646945953369e-01" nType="-99"/>
            <Node pos="r" depth="3" NCoef="0" IVar="-1" Cut="0.0000000000000000e+00" cType="1" res="-2.8702652081847191e-02" rms="3.9221206307411194e-01" purity="2.8747874498367310e-01" nType="-99"/>
          </Node>
        </Node>
      </Node>
    </BinaryTree>
    <BinaryTree type="DecisionTree" boostWeight="1.0000000000000000e+00" itree="37">
      <Node pos="s" depth="0" NCoef="0" IVar="0" Cut="-8.7140697240829468e-01" cType="1" res="-5.7053966884268448e-05" rms="4.3192261457443237e-01" purity="5.0000000000000000e-01" nType="0">
        <Node pos="l" depth="1" NCoef="0" IVar="1" Cut="1.4789248704910278e+00" cType="1" res="-4.7888243570923805e-03" rms="4.3520507216453552e-01" purity="4.8927724361419678e-01" nType="0">
          <Node pos="l" depth="2" NCoef="0" IVar="0" Cut="-1.6263976097106934e+00" cType="1" res="1.3003294356167316e-02" rms="4.3111824989318848e-01" purity="4.6451249718666077e-01" nType="0">
            <Node pos="l" depth="3" NCoef="0" IVar="-1" Cut="0.0000000000000000e+00" cType="1" res="-1.7497380031272769e-03" rms="4.3891987204551697e-01" purity="3.9095482230186462e-01" nType="-99"/>
            <Node pos="r" depth="3" NCoef="0" IVar="-1" Cut="0.0000000000000000e+00" cType="1" res="1.4920339919626713e-02" rms="4.0799573063850403e-01" purity="6.3901191949844360e-01" nType="-99"/>
          </Node>
          <Node pos="r" depth="2" NCoef="0" IVar="1" Cut="1.5527467727661133e+00" cType="1" res="-2.8570011258125305e-02" rms="4.3948504328727722e-01" purity="5.2237814664840698e-01" nType="0">
            <Node pos="l" depth="3" NCoef="0" IVar="-1" Cut="0.0000000000000000e+00" cType="1" res="-2.4400701746344566e-02" rms="4.3594756722450256e-01" purity="4.1425859928131104e-01" nType="-99"/>
            <Node pos="r" depth="3" NCoef="0" IVar="-1" Cut="0.0000000000000000e+00" cType="1" res="-4.3527046218514442e-03" rms="4.3888369202613831e-01" purity="5.3696578741073608e-01" nType="-99"/>
          </Node>
        </Node>
        <Node pos="r" depth="1" NCoef="0" IVar="-1" Cut="0.0000000000000000e+00" cType="1" res="1.5584616921842098e-02" rms="3.8530638813972473e-01" purity="6.3008052110671997e-01" nType="-99"/>
      </Node>
    </BinaryTree>
    <BinaryTree type="DecisionTree" boostWeight="1.0000000000000000e+00" itree="38">
      <Node pos="s" depth="0" NCoef="0" IVar="2" Cut="1.9441243410110474e+00" cType="1" res="-4.6484277845593169e-05" rms="4.3159192800521851e-01" purity="5.0000000000000000e-01" nType="0">
