<?xml version="1.0"?>
<MethodSetup Method="MLP::MLP">
  <GeneralInfo>
    <Info name="TMVA Release" value="4.2.1 [262657]"/>
    <Info name="ROOT Release" value="6.34/04 [401924]"/>
    <Info name="Creator" value="ethan_rm"/>
    <Info name="Date" value="Tue Jul 29 09:56:29 2025"/>
    <Info name="Host" value="Linux 0998ae7ee246 6.11.0-1015-azure #15~24.04.1-Ubuntu SMP Thu May 1 02:52:08 UTC 2025 x86_64 x86_64 x86_64 GNU/Linux"/>
    <Info name="Dir" value="/home/ethan_rm/LFV_BELLE/Search-for-the-lepton-flavour-violating-decay-at-Belle-experiment"/>
    <Info name="Training events" value="18894"/>
    <Info name="TrainingTime" value="3.25746739e+01"/>
    <Info name="AnalysisType" value="Classification"/>
  </GeneralInfo>
  <Options>
    <Option name="NCycles" modified="Yes">600</Option>
    <Option name="HiddenLayers" modified="Yes">N+5</Option>
    <Option name="NeuronType" modified="Yes">tanh</Option>
    <Option name="RandomSeed" modified="No">1</Option>
    <Option name="EstimatorType" modified="No">CE</Option>
    <Option name="NeuronInputType" modified="No">sum</Option>
    <Option name="V" modified="Yes">False</Option>
    <Option name="VerbosityLevel" modified="No">Default</Option>
    <Option name="VarTransform" modified="Yes">N</Option>
    <Option name="H" modified="Yes">True</Option>
    <Option name="CreateMVAPdfs" modified="No">False</Option>
    <Option name="IgnoreNegWeightsInTraining" modified="No">False</Option>
    <Option name="TrainingMethod" modified="No">BP</Option>
    <Option name="LearningRate" modified="No">2.000000e-02</Option>
    <Option name="DecayRate" modified="No">1.000000e-02</Option>
    <Option name="TestRate" modified="Yes">5</Option>
    <Option name="EpochMonitoring" modified="No">False</Option>
    <Option name="Sampling" modified="No">1.000000e+00</Option>
    <Option name="SamplingEpoch" modified="No">1.000000e+00</Option>
    <Option name="SamplingImportance" modified="No">1.000000e+00</Option>
    <Option name="SamplingTraining" modified="No">True</Option>
    <Option name="SamplingTesting" modified="No">False</Option>
    <Option name="ResetStep" modified="No">50</Option>
    <Option name="Tau" modified="No">3.000000e+00</Option>
    <Option name="BPMode" modified="No">sequential</Option>
    <Option name="BatchSize" modified="No">-1</Option>
    <Option name="ConvergenceImprove" modified="No">1.000000e-30</Option>
    <Option name="ConvergenceTests" modified="No">-1</Option>
    <Option name="UseRegulator" modified="No">False</Option>
    <Option name="UpdateLimit" modified="No">10000</Option>
    <Option name="CalculateErrors" modified="No">False</Option>
    <Option name="WeightRange" modified="No">1.000000e+00</Option>
  </Options>
  <Variables NVar="6">
    <Variable VarIndex="0" Expression="deltaE_Btag" Label="deltaE_Btag" Title="deltaE_Btag" Unit="" Internal="deltaE_Btag" Type="F" Min="-3.50518942e+00" Max="2.90217429e-01"/>
    <Variable VarIndex="1" Expression="p_ltag" Label="p_ltag" Title="p_ltag" Unit="" Internal="p_ltag" Type="F" Min="5.55064119e-02" Max="2.44173980e+00"/>
    <Variable VarIndex="2" Expression="m_ROE" Label="m_ROE" Title="m_ROE" Unit="" Internal="m_ROE" Type="F" Min="6.85370803e-01" Max="2.14999366e+00"/>
    <Variable VarIndex="3" Expression="nLepton" Label="nLepton" Title="nLepton" Unit="" Internal="nLepton" Type="I" Min="2.00000000e+00" Max="6.00000000e+00"/>
    <Variable VarIndex="4" Expression="nPhotonsSelected" Label="nPhotonsSelected" Title="nPhotonsSelected" Unit="" Internal="nPhotonsSelected" Type="I" Min="2.00000000e+00" Max="1.30000000e+01"/>
    <Variable VarIndex="5" Expression="best_sum" Label="best_sum" Title="best_sum" Unit="" Internal="best_sum" Type="F" Min="-4.98709450e+01" Max="6.00972223e+00"/>
  </Variables>
  <Spectators NSpec="0"/>
  <Classes NClass="2">
    <Class Name="Signal" Index="0"/>
    <Class Name="Background" Index="1"/>
  </Classes>
  <Transformations NTransformations="1">
    <Transform Name="Normalize">
      <Selection>
        <Input NInputs="6">
          <Input Type="Variable" Label="deltaE_Btag" Expression="deltaE_Btag"/>
          <Input Type="Variable" Label="p_ltag" Expression="p_ltag"/>
          <Input Type="Variable" Label="m_ROE" Expression="m_ROE"/>
          <Input Type="Variable" Label="nLepton" Expression="nLepton"/>
          <Input Type="Variable" Label="nPhotonsSelected" Expression="nPhotonsSelected"/>
          <Input Type="Variable" Label="best_sum" Expression="best_sum"/>
        </Input>
        <Output NOutputs="6">
          <Output Type="Variable" Label="deltaE_Btag" Expression="deltaE_Btag"/>
          <Output Type="Variable" Label="p_ltag" Expression="p_ltag"/>
          <Output Type="Variable" Label="m_ROE" Expression="m_ROE"/>
          <Output Type="Variable" Label="nLepton" Expression="nLepton"/>
          <Output Type="Variable" Label="nPhotonsSelected" Expression="nPhotonsSelected"/>
          <Output Type="Variable" Label="best_sum" Expression="best_sum"/>
        </Output>
      </Selection>
      <Class ClassIndex="0">
        <Ranges>
          <Range Index="0" Min="-3.3080909252166748e+00" Max="2.9021742939949036e-01"/>
          <Range Index="1" Min="6.4381621778011322e-02" Max="2.4417397975921631e+00"/>
          <Range Index="2" Min="9.2115032672882080e-01" Max="2.1492302417755127e+00"/>
          <Range Index="3" Min="2.0000000000000000e+00" Max="5.0000000000000000e+00"/>
          <Range Index="4" Min="2.0000000000000000e+00" Max="1.1000000000000000e+01"/>
          <Range Index="5" Min="-3.6562671661376953e+01" Max="3.9864866733551025e+00"/>
        </Ranges>
      </Class>
      <Class ClassIndex="1">
        <Ranges>
          <Range Index="0" Min="-3.5051894187927246e+00" Max="2.4319148063659668e-01"/>
          <Range Index="1" Min="5.5506411939859390e-02" Max="2.4145264625549316e+00"/>
          <Range Index="2" Min="6.8537080287933350e-01" Max="2.1499936580657959e+00"/>
          <Range Index="3" Min="2.0000000000000000e+00" Max="6.0000000000000000e+00"/>
          <Range Index="4" Min="2.0000000000000000e+00" Max="1.3000000000000000e+01"/>
          <Range Index="5" Min="-4.9870944976806641e+01" Max="6.0097222328186035e+00"/>
        </Ranges>
      </Class>
      <Class ClassIndex="2">
        <Ranges>
          <Range Index="0" Min="-3.5051894187927246e+00" Max="2.9021742939949036e-01"/>
          <Range Index="1" Min="5.5506411939859390e-02" Max="2.4417397975921631e+00"/>
          <Range Index="2" Min="6.8537080287933350e-01" Max="2.1499936580657959e+00"/>
          <Range Index="3" Min="2.0000000000000000e+00" Max="6.0000000000000000e+00"/>
          <Range Index="4" Min="2.0000000000000000e+00" Max="1.3000000000000000e+01"/>
          <Range Index="5" Min="-4.9870944976806641e+01" Max="6.0097222328186035e+00"/>
        </Ranges>
      </Class>
    </Transform>
  </Transformations>
  <MVAPdfs/>
  <Weights>
    <Layout NLayers="3">
      <Layer Index="0" NNeurons="7">
        <Neuron NSynapses="11">
          -1.8537623445715898e+00 2.1791290743032476e+00 2.7241578184138788e+00 1.7535265940170315e+00 -2.1744075251697832e+00 -1.4853795497400237e+00 -1.8197296551997477e-02 1.9130233894823259e+00 -1.5011162945368393e+00 3.7569656906704646e-01 -1.3548924152937747e+00 
        </Neuron>
        <Neuron NSynapses="11">
          -2.3226205269599290e-01 -2.7769589044881928e+00 1.2721536829718705e+00 -2.5259954578412770e-02 6.2923719277451373e-01 3.8352655986741069e-01 8.2239885247538058e-01 -2.7021466260947768e-01 1.1077084838611408e+00 3.4103290625460186e-01 -8.2818205419041202e-01 
        </Neuron>
        <Neuron NSynapses="11">
          1.4492745115382328e+00 4.4829543026881075e-01 -4.8519026905336399e-01 -3.0614060033495893e-01 2.0502418279874695e+00 -2.0973088081609279e+00 -2.7578114463388177e+00 3.0279516831504266e-01 3.3876921866607695e-01 7.1738345158051875e-01 -7.1759577701119381e-01 
        </Neuron>
        <Neuron NSynapses="11">
          -1.0656946697392843e-01 9.7751635532115755e-01 6.7936986900131879e-01 -8.3360675847455423e-01 2.0053197558157274e+00 -1.6073667615086913e+00 -2.3830938255323031e-01 5.6805673408871216e-01 1.0972080096848320e+00 6.4841969882580552e-01 1.5618509901883604e+00 
        </Neuron>
        <Neuron NSynapses="11">
          -3.1768434969246848e-02 -2.1056864138766804e+00 1.8141662446008874e-01 -1.5216590596665720e+00 1.3417860720580927e+00 1.0552012797592605e+00 9.8135248668697395e-01 9.8065730048140620e-01 -1.6736612117782215e+00 1.0085331472948214e-01 -1.1674369428549403e+00 
        </Neuron>
        <Neuron NSynapses="11">
          -6.0843162998646276e+00 -3.7672342055302170e-02 -1.8551843797966694e+00 1.2752643303111355e+00 2.2947251474159852e-01 -1.2815098816173152e+00 2.0265431221174710e+00 1.8736024347991365e-02 5.6834982992006322e-01 5.3901801921288728e+00 -5.0907501105133390e-01 
        </Neuron>
        <Neuron NSynapses="11">
          3.1282054497194034e+00 -8.0475278123541627e-01 3.5373365655872097e-01 -1.4006716795370161e-01 -5.1715832046845811e-01 -1.3296866608352920e+00 -3.9349159927551175e-01 1.5092897631467448e+00 1.2078164350919043e+00 -4.7738266117891941e+00 -2.4827035561896587e+00 
        </Neuron>
      </Layer>
      <Layer Index="1" NNeurons="12">
        <Neuron NSynapses="1">
          -2.6519371858494956e+00 
        </Neuron>
        <Neuron NSynapses="1">
          4.0596080526120087e-01 
        </Neuron>
        <Neuron NSynapses="1">
          1.6435896114065620e+00 
        </Neuron>
        <Neuron NSynapses="1">
          1.8199432562417304e+00 
        </Neuron>
        <Neuron NSynapses="1">
          7.6550473479318359e-01 
        </Neuron>
        <Neuron NSynapses="1">
          1.4872506474117657e+00 
        </Neuron>
        <Neuron NSynapses="1">
          -1.6557575077856286e+00 
        </Neuron>
        <Neuron NSynapses="1">
          -5.7475343207834462e-01 
        </Neuron>
        <Neuron NSynapses="1">
          -3.2347488818442915e-01 
        </Neuron>
        <Neuron NSynapses="1">
          -4.2947400665933921e+00 
        </Neuron>
        <Neuron NSynapses="1">
          -2.8940119002562242e-01 
        </Neuron>
        <Neuron NSynapses="1">
          -2.1522500219453122e+00 
        </Neuron>
      </Layer>
      <Layer Index="2" NNeurons="1">
        <Neuron NSynapses="0"/>
      </Layer>
    </Layout>
  </Weights>
</MethodSetup>
