<?xml version="1.0"?>
<MethodSetup Method="MLP::MLP">
  <GeneralInfo>
    <Info name="TMVA Release" value="4.2.1 [262657]"/>
    <Info name="ROOT Release" value="6.34/04 [401924]"/>
    <Info name="Creator" value="ethan_rm"/>
    <Info name="Date" value="Tue Jul 29 04:23:47 2025"/>
    <Info name="Host" value="Linux 0998ae7ee246 6.11.0-1015-azure #15~24.04.1-Ubuntu SMP Thu May 1 02:52:08 UTC 2025 x86_64 x86_64 x86_64 GNU/Linux"/>
    <Info name="Dir" value="/home/ethan_rm/LFV_BELLE/Search-for-the-lepton-flavour-violating-decay-at-Belle-experiment"/>
    <Info name="Training events" value="31461"/>
    <Info name="TrainingTime" value="7.05786331e+01"/>
    <Info name="AnalysisType" value="Classification"/>
  </GeneralInfo>
  <Options>
    <Option name="NCycles" modified="Yes">600</Option>
    <Option name="HiddenLayers" modified="Yes">N+5</Option>
    <Option name="NeuronType" modified="Yes">tanh</Option>
    <Option name="RandomSeed" modified="No">1</Option>
    <Option name="EstimatorType" modified="No">CE</Option>
    <Option name="NeuronInputType" modified="No">sum</Option>
    <Option name="V" modified="Yes">False</Option>
    <Option name="VerbosityLevel" modified="No">Default</Option>
    <Option name="VarTransform" modified="Yes">N</Option>
    <Option name="H" modified="Yes">True</Option>
    <Option name="CreateMVAPdfs" modified="No">False</Option>
    <Option name="IgnoreNegWeightsInTraining" modified="No">False</Option>
    <Option name="TrainingMethod" modified="No">BP</Option>
    <Option name="LearningRate" modified="No">2.000000e-02</Option>
    <Option name="DecayRate" modified="No">1.000000e-02</Option>
    <Option name="TestRate" modified="Yes">5</Option>
    <Option name="EpochMonitoring" modified="No">False</Option>
    <Option name="Sampling" modified="No">1.000000e+00</Option>
    <Option name="SamplingEpoch" modified="No">1.000000e+00</Option>
    <Option name="SamplingImportance" modified="No">1.000000e+00</Option>
    <Option name="SamplingTraining" modified="No">True</Option>
    <Option name="SamplingTesting" modified="No">False</Option>
    <Option name="ResetStep" modified="No">50</Option>
    <Option name="Tau" modified="No">3.000000e+00</Option>
    <Option name="BPMode" modified="No">sequential</Option>
    <Option name="BatchSize" modified="No">-1</Option>
    <Option name="ConvergenceImprove" modified="No">1.000000e-30</Option>
    <Option name="ConvergenceTests" modified="No">-1</Option>
    <Option name="UseRegulator" modified="No">False</Option>
    <Option name="UpdateLimit" modified="No">10000</Option>
    <Option name="CalculateErrors" modified="No">False</Option>
    <Option name="WeightRange" modified="No">1.000000e+00</Option>
  </Options>
  <Variables NVar="6">
    <Variable VarIndex="0" Expression="deltaE_Btag" Label="deltaE_Btag" Title="deltaE_Btag" Unit="" Internal="deltaE_Btag" Type="F" Min="-3.50799990e+00" Max="5.91274142e-01"/>
    <Variable VarIndex="1" Expression="p_ltag" Label="p_ltag" Title="p_ltag" Unit="" Internal="p_ltag" Type="F" Min="5.55064119e-02" Max="2.44173980e+00"/>
    <Variable VarIndex="2" Expression="m_ROE" Label="m_ROE" Title="m_ROE" Unit="" Internal="m_ROE" Type="F" Min="6.85370803e-01" Max="2.14999366e+00"/>
    <Variable VarIndex="3" Expression="nLepton" Label="nLepton" Title="nLepton" Unit="" Internal="nLepton" Type="I" Min="2.00000000e+00" Max="6.00000000e+00"/>
    <Variable VarIndex="4" Expression="nPhotonsSelected" Label="nPhotonsSelected" Title="nPhotonsSelected" Unit="" Internal="nPhotonsSelected" Type="I" Min="2.00000000e+00" Max="1.30000000e+01"/>
    <Variable VarIndex="5" Expression="best_sum" Label="best_sum" Title="best_sum" Unit="" Internal="best_sum" Type="F" Min="-4.98709450e+01" Max="6.17435646e+00"/>
  </Variables>
  <Spectators NSpec="0"/>
  <Classes NClass="2">
    <Class Name="Signal" Index="0"/>
    <Class Name="Background" Index="1"/>
  </Classes>
  <Transformations NTransformations="1">
    <Transform Name="Normalize">
      <Selection>
        <Input NInputs="6">
          <Input Type="Variable" Label="deltaE_Btag" Expression="deltaE_Btag"/>
          <Input Type="Variable" Label="p_ltag" Expression="p_ltag"/>
          <Input Type="Variable" Label="m_ROE" Expression="m_ROE"/>
          <Input Type="Variable" Label="nLepton" Expression="nLepton"/>
          <Input Type="Variable" Label="nPhotonsSelected" Expression="nPhotonsSelected"/>
          <Input Type="Variable" Label="best_sum" Expression="best_sum"/>
        </Input>
        <Output NOutputs="6">
          <Output Type="Variable" Label="deltaE_Btag" Expression="deltaE_Btag"/>
          <Output Type="Variable" Label="p_ltag" Expression="p_ltag"/>
          <Output Type="Variable" Label="m_ROE" Expression="m_ROE"/>
          <Output Type="Variable" Label="nLepton" Expression="nLepton"/>
          <Output Type="Variable" Label="nPhotonsSelected" Expression="nPhotonsSelected"/>
          <Output Type="Variable" Label="best_sum" Expression="best_sum"/>
        </Output>
      </Selection>
      <Class ClassIndex="0">
        <Ranges>
          <Range Index="0" Min="-3.3080909252166748e+00" Max="2.9021742939949036e-01"/>
          <Range Index="1" Min="6.4381621778011322e-02" Max="2.4417397975921631e+00"/>
          <Range Index="2" Min="9.2115032672882080e-01" Max="2.1492302417755127e+00"/>
          <Range Index="3" Min="2.0000000000000000e+00" Max="5.0000000000000000e+00"/>
          <Range Index="4" Min="2.0000000000000000e+00" Max="1.1000000000000000e+01"/>
          <Range Index="5" Min="-3.6562671661376953e+01" Max="3.9864866733551025e+00"/>
        </Ranges>
      </Class>
      <Class ClassIndex="1">
        <Ranges>
          <Range Index="0" Min="-3.5079998970031738e+00" Max="5.9127414226531982e-01"/>
          <Range Index="1" Min="5.5506411939859390e-02" Max="2.4414288997650146e+00"/>
          <Range Index="2" Min="6.8537080287933350e-01" Max="2.1499936580657959e+00"/>
          <Range Index="3" Min="2.0000000000000000e+00" Max="6.0000000000000000e+00"/>
          <Range Index="4" Min="2.0000000000000000e+00" Max="1.3000000000000000e+01"/>
          <Range Index="5" Min="-4.9870944976806641e+01" Max="6.1743564605712891e+00"/>
        </Ranges>
      </Class>
      <Class ClassIndex="2">
        <Ranges>
          <Range Index="0" Min="-3.5079998970031738e+00" Max="5.9127414226531982e-01"/>
          <Range Index="1" Min="5.5506411939859390e-02" Max="2.4417397975921631e+00"/>
          <Range Index="2" Min="6.8537080287933350e-01" Max="2.1499936580657959e+00"/>
          <Range Index="3" Min="2.0000000000000000e+00" Max="6.0000000000000000e+00"/>
          <Range Index="4" Min="2.0000000000000000e+00" Max="1.3000000000000000e+01"/>
          <Range Index="5" Min="-4.9870944976806641e+01" Max="6.1743564605712891e+00"/>
        </Ranges>
      </Class>
    </Transform>
  </Transformations>
  <MVAPdfs/>
  <Weights>
    <Layout NLayers="3">
      <Layer Index="0" NNeurons="7">
        <Neuron NSynapses="11">
          -2.0773190194561151e+00 2.5205649579562763e+00 2.9932667314487529e+00 1.7316872746522574e+00 -2.4137302909216247e+00 -1.5451144214948827e+00 -9.8406008864395544e-02 1.7781662336400150e+00 -1.2759849476198224e+00 5.5232435365878041e-01 -1.3214366311077970e+00 
        </Neuron>
        <Neuron NSynapses="11">
          -3.1354025949028352e-01 -3.3422542843552834e+00 1.1672228407371732e+00 9.3175325808843759e-02 6.0525017420906380e-01 5.6133528949362432e-01 1.3285520868329723e+00 -1.2498742767204303e-01 1.6955772375864879e+00 1.6301818498370496e-01 -7.6309387765011827e-01 
        </Neuron>
        <Neuron NSynapses="11">
          1.3932759243558679e+00 7.6617082729692709e-01 -5.2901474311535834e-01 -2.3325494338937797e-01 1.9451482256088142e+00 -2.1721801687852738e+00 -2.5826259648038357e+00 4.4447296551412291e-01 5.8618148843597606e-01 5.8144112622487665e-01 -8.0099625149637366e-01 
        </Neuron>
        <Neuron NSynapses="11">
          -2.2915027786416509e-02 7.2309421574720645e-01 4.4194457850198443e-01 -9.9439422618514073e-01 2.2962923747283135e+00 -1.7057884702008865e+00 -1.5896256377748855e-01 8.2737228357822223e-01 1.1147651780177232e+00 5.5719318683886532e-01 1.4294812823705487e+00 
        </Neuron>
        <Neuron NSynapses="11">
          -6.8442798441468083e-02 -1.6820268995501300e+00 3.1292826904122084e-01 -1.4275314084508586e+00 1.5129795198510567e+00 1.2655031489727060e+00 1.3012307765312210e+00 8.0861497251098458e-01 -1.4609492504193160e+00 -5.7633974430930948e-02 -1.1868742171627789e+00 
        </Neuron>
        <Neuron NSynapses="11">
          -5.9241087500913467e+00 3.1510279744648001e-01 -1.7855403902647173e+00 1.1381860277797105e+00 1.3979376144049521e-01 -1.2133237828818058e+00 1.7127048091510342e+00 2.9209543809619276e-01 5.5465869716369054e-01 5.9284124475438338e+00 -5.0061873883926289e-01 
        </Neuron>
        <Neuron NSynapses="11">
          2.9046744774358983e+00 -8.5765018450162089e-01 4.2294033262545033e-01 -2.2133747841145862e-01 -3.3736493840538434e-01 -1.3736649395691047e+00 -4.6178914100517277e-01 1.5587055417940989e+00 1.0038869294407078e+00 -5.2409310782696208e+00 -2.5074104224190186e+00 
        </Neuron>
      </Layer>
      <Layer Index="1" NNeurons="12">
        <Neuron NSynapses="1">
          -2.5366100271108385e+00 
        </Neuron>
        <Neuron NSynapses="1">
          6.2757956617732946e-01 
        </Neuron>
        <Neuron NSynapses="1">
          1.8543079186771365e+00 
        </Neuron>
        <Neuron NSynapses="1">
          1.6557455285569616e+00 
        </Neuron>
        <Neuron NSynapses="1">
          7.6965497218264800e-01 
        </Neuron>
        <Neuron NSynapses="1">
          1.7882479424329996e+00 
        </Neuron>
        <Neuron NSynapses="1">
          -1.6097817920035506e+00 
        </Neuron>
        <Neuron NSynapses="1">
          -3.2291505102755197e-01 
        </Neuron>
        <Neuron NSynapses="1">
          2.1113143353931935e-01 
        </Neuron>
        <Neuron NSynapses="1">
          -4.5546387249445832e+00 
        </Neuron>
        <Neuron NSynapses="1">
          -3.5330133996752180e-02 
        </Neuron>
        <Neuron NSynapses="1">
          -2.3220958132020724e+00 
        </Neuron>
      </Layer>
      <Layer Index="2" NNeurons="1">
        <Neuron NSynapses="0"/>
      </Layer>
    </Layout>
  </Weights>
</MethodSetup>
