<?xml version="1.0"?>
<MethodSetup Method="BDT::BDTG">
  <GeneralInfo>
    <Info name="TMVA Release" value="4.2.1 [262657]"/>
    <Info name="ROOT Release" value="6.34/04 [401924]"/>
    <Info name="Creator" value="ethan_rm"/>
    <Info name="Date" value="Tue Jul 29 09:14:17 2025"/>
    <Info name="Host" value="Linux 0998ae7ee246 6.11.0-1015-azure #15~24.04.1-Ubuntu SMP Thu May 1 02:52:08 UTC 2025 x86_64 x86_64 x86_64 GNU/Linux"/>
    <Info name="Dir" value="/home/ethan_rm/LFV_BELLE/Search-for-the-lepton-flavour-violating-decay-at-Belle-experiment"/>
    <Info name="Training events" value="3761"/>
    <Info name="TrainingTime" value="1.69517303e+00"/>
    <Info name="AnalysisType" value="Classification"/>
  </GeneralInfo>
  <Options>
    <Option name="V" modified="Yes">False</Option>
    <Option name="VerbosityLevel" modified="No">Default</Option>
    <Option name="VarTransform" modified="No">None</Option>
    <Option name="H" modified="Yes">False</Option>
    <Option name="CreateMVAPdfs" modified="No">False</Option>
    <Option name="IgnoreNegWeightsInTraining" modified="No">False</Option>
    <Option name="NTrees" modified="Yes">400</Option>
    <Option name="MaxDepth" modified="Yes">3</Option>
    <Option name="MinNodeSize" modified="Yes">4%</Option>
    <Option name="nCuts" modified="Yes">120</Option>
    <Option name="BoostType" modified="Yes">Grad</Option>
    <Option name="AdaBoostR2Loss" modified="No">quadratic</Option>
    <Option name="UseBaggedBoost" modified="No">False</Option>
    <Option name="Shrinkage" modified="Yes">1.000000e-01</Option>
    <Option name="AdaBoostBeta" modified="No">5.000000e-01</Option>
    <Option name="UseRandomisedTrees" modified="No">False</Option>
    <Option name="UseNvars" modified="Yes">6</Option>
    <Option name="UsePoissonNvars" modified="No">True</Option>
    <Option name="BaggedSampleFraction" modified="No">6.000000e-01</Option>
    <Option name="UseYesNoLeaf" modified="No">True</Option>
    <Option name="NegWeightTreatment" modified="No">pray</Option>
    <Option name="Css" modified="No">1.000000e+00</Option>
    <Option name="Cts_sb" modified="No">1.000000e+00</Option>
    <Option name="Ctb_ss" modified="No">1.000000e+00</Option>
    <Option name="Cbb" modified="No">1.000000e+00</Option>
    <Option name="NodePurityLimit" modified="No">5.000000e-01</Option>
    <Option name="SeparationType" modified="No">giniindex</Option>
    <Option name="RegressionLossFunctionBDTG" modified="No">huber</Option>
    <Option name="HuberQuantile" modified="No">7.000000e-01</Option>
    <Option name="DoBoostMonitor" modified="No">False</Option>
    <Option name="UseFisherCuts" modified="No">False</Option>
    <Option name="MinLinCorrForFisher" modified="No">8.000000e-01</Option>
    <Option name="UseExclusiveVars" modified="No">False</Option>
    <Option name="DoPreselection" modified="No">False</Option>
    <Option name="SigToBkgFraction" modified="No">1.000000e+00</Option>
    <Option name="PruneMethod" modified="No">nopruning</Option>
    <Option name="PruneStrength" modified="No">0.000000e+00</Option>
    <Option name="PruningValFraction" modified="No">5.000000e-01</Option>
    <Option name="SkipNormalization" modified="No">False</Option>
    <Option name="nEventsMin" modified="No">0</Option>
    <Option name="UseBaggedGrad" modified="No">False</Option>
    <Option name="GradBaggingFraction" modified="No">6.000000e-01</Option>
    <Option name="UseNTrainEvents" modified="No">0</Option>
    <Option name="NNodesMax" modified="No">0</Option>
  </Options>
  <Variables NVar="26">
    <Variable VarIndex="0" Expression="CleoConeCS_1" Label="CleoConeCS_1" Title="CleoConeCS_1" Unit="" Internal="CleoConeCS_1" Type="F" Min="0.00000000e+00" Max="6.78170872e+00"/>
    <Variable VarIndex="1" Expression="CleoConeCS_2" Label="CleoConeCS_2" Title="CleoConeCS_2" Unit="" Internal="CleoConeCS_2" Type="F" Min="0.00000000e+00" Max="7.97285700e+00"/>
    <Variable VarIndex="2" Expression="CleoConeCS_3" Label="CleoConeCS_3" Title="CleoConeCS_3" Unit="" Internal="CleoConeCS_3" Type="F" Min="0.00000000e+00" Max="6.65986156e+00"/>
    <Variable VarIndex="3" Expression="CleoConeCS_4" Label="CleoConeCS_4" Title="CleoConeCS_4" Unit="" Internal="CleoConeCS_4" Type="F" Min="0.00000000e+00" Max="5.86983585e+00"/>
    <Variable VarIndex="4" Expression="CleoConeCS_5" Label="CleoConeCS_5" Title="CleoConeCS_5" Unit="" Internal="CleoConeCS_5" Type="F" Min="0.00000000e+00" Max="5.25017691e+00"/>
    <Variable VarIndex="5" Expression="CleoConeCS_6" Label="CleoConeCS_6" Title="CleoConeCS_6" Unit="" Internal="CleoConeCS_6" Type="F" Min="0.00000000e+00" Max="5.53426170e+00"/>
    <Variable VarIndex="6" Expression="CleoConeCS_7" Label="CleoConeCS_7" Title="CleoConeCS_7" Unit="" Internal="CleoConeCS_7" Type="F" Min="0.00000000e+00" Max="5.14183903e+00"/>
    <Variable VarIndex="7" Expression="CleoConeCS_8" Label="CleoConeCS_8" Title="CleoConeCS_8" Unit="" Internal="CleoConeCS_8" Type="F" Min="0.00000000e+00" Max="5.00858355e+00"/>
    <Variable VarIndex="8" Expression="CleoConeCS_9" Label="CleoConeCS_9" Title="CleoConeCS_9" Unit="" Internal="CleoConeCS_9" Type="F" Min="0.00000000e+00" Max="4.67602634e+00"/>
    <Variable VarIndex="9" Expression="KSFWVariables_et" Label="KSFWVariables_et" Title="KSFWVariables_et" Unit="" Internal="KSFWVariables_et" Type="F" Min="3.33085299e+00" Max="1.26979418e+01"/>
    <Variable VarIndex="10" Expression="KSFWVariables_hoo0" Label="KSFWVariables_hoo0" Title="KSFWVariables_hoo0" Unit="" Internal="KSFWVariables_hoo0" Type="F" Min="1.54535258e-02" Max="7.58213937e-01"/>
    <Variable VarIndex="11" Expression="KSFWVariables_hoo1" Label="KSFWVariables_hoo1" Title="KSFWVariables_hoo1" Unit="" Internal="KSFWVariables_hoo1" Type="F" Min="-4.35744263e-02" Max="9.76694524e-02"/>
    <Variable VarIndex="12" Expression="KSFWVariables_hoo2" Label="KSFWVariables_hoo2" Title="KSFWVariables_hoo2" Unit="" Internal="KSFWVariables_hoo2" Type="F" Min="-2.45382413e-02" Max="1.64440393e-01"/>
    <Variable VarIndex="13" Expression="KSFWVariables_hoo3" Label="KSFWVariables_hoo3" Title="KSFWVariables_hoo3" Unit="" Internal="KSFWVariables_hoo3" Type="F" Min="-3.45871188e-02" Max="4.55517285e-02"/>
    <Variable VarIndex="14" Expression="KSFWVariables_hoo4" Label="KSFWVariables_hoo4" Title="KSFWVariables_hoo4" Unit="" Internal="KSFWVariables_hoo4" Type="F" Min="-4.17935029e-02" Max="1.68596447e-01"/>
    <Variable VarIndex="15" Expression="KSFWVariables_hso01" Label="KSFWVariables_hso01" Title="KSFWVariables_hso01" Unit="" Internal="KSFWVariables_hso01" Type="F" Min="-1.46183348e+00" Max="9.13178384e-01"/>
    <Variable VarIndex="16" Expression="KSFWVariables_hso03" Label="KSFWVariables_hso03" Title="KSFWVariables_hso03" Unit="" Internal="KSFWVariables_hso03" Type="F" Min="-6.50135338e-01" Max="4.74473208e-01"/>
    <Variable VarIndex="17" Expression="KSFWVariables_hso04" Label="KSFWVariables_hso04" Title="KSFWVariables_hso04" Unit="" Internal="KSFWVariables_hso04" Type="F" Min="-4.04266328e-01" Max="7.95326352e-01"/>
    <Variable VarIndex="18" Expression="KSFWVariables_hso10" Label="KSFWVariables_hso10" Title="KSFWVariables_hso10" Unit="" Internal="KSFWVariables_hso10" Type="F" Min="0.00000000e+00" Max="7.91843891e-01"/>
    <Variable VarIndex="19" Expression="KSFWVariables_hso12" Label="KSFWVariables_hso12" Title="KSFWVariables_hso12" Unit="" Internal="KSFWVariables_hso12" Type="F" Min="-2.15522587e-01" Max="4.78261143e-01"/>
    <Variable VarIndex="20" Expression="KSFWVariables_hso14" Label="KSFWVariables_hso14" Title="KSFWVariables_hso14" Unit="" Internal="KSFWVariables_hso14" Type="F" Min="-1.78718269e-01" Max="3.68612438e-01"/>
    <Variable VarIndex="21" Expression="KSFWVariables_hso20" Label="KSFWVariables_hso20" Title="KSFWVariables_hso20" Unit="" Internal="KSFWVariables_hso20" Type="F" Min="1.41724041e-02" Max="1.54551756e+00"/>
    <Variable VarIndex="22" Expression="KSFWVariables_hso22" Label="KSFWVariables_hso22" Title="KSFWVariables_hso22" Unit="" Internal="KSFWVariables_hso22" Type="F" Min="-3.60408038e-01" Max="8.14731002e-01"/>
    <Variable VarIndex="23" Expression="KSFWVariables_hso24" Label="KSFWVariables_hso24" Title="KSFWVariables_hso24" Unit="" Internal="KSFWVariables_hso24" Type="F" Min="-3.43206733e-01" Max="4.80300248e-01"/>
    <Variable VarIndex="24" Expression="r2" Label="r2" Title="r2" Unit="" Internal="r2" Type="F" Min="4.44877986e-03" Max="7.89872766e-01"/>
    <Variable VarIndex="25" Expression="thrust_Bm" Label="thrust_Bm" Title="thrust_Bm" Unit="" Internal="thrust_Bm" Type="F" Min="6.45773888e-01" Max="9.88126814e-01"/>
  </Variables>
  <Spectators NSpec="0"/>
  <Classes NClass="2">
    <Class Name="Signal" Index="0"/>
    <Class Name="Background" Index="1"/>
  </Classes>
  <Transformations NTransformations="0"/>
  <MVAPdfs/>
  <Weights NTrees="400" AnalysisType="1">
    <BinaryTree type="DecisionTree" boostWeight="1.0000000000000000e+00" itree="0">
      <Node pos="s" depth="0" NCoef="0" IVar="24" Cut="2.5760197639465332e-01" cType="1" res="1.0041186801576941e-14" rms="5.0000000000000000e-01" purity="5.0000000000000000e-01" nType="0">
        <Node pos="l" depth="1" NCoef="0" IVar="10" Cut="1.1327747255563736e-01" cType="1" res="3.0816417932510376e-01" rms="3.9374461770057678e-01" purity="8.0816417932510376e-01" nType="0">
          <Node pos="l" depth="2" NCoef="0" IVar="21" Cut="2.1393297612667084e-01" cType="1" res="3.5015147924423218e-01" rms="3.5692286491394043e-01" purity="8.5015147924423218e-01" nType="0">
            <Node pos="l" depth="3" NCoef="0" IVar="-1" Cut="0.0000000000000000e+00" cType="1" res="2.2988833487033844e-02" rms="4.8660850524902344e-01" purity="6.1494415998458862e-01" nType="-99"/>
            <Node pos="r" depth="3" NCoef="0" IVar="-1" Cut="0.0000000000000000e+00" cType="1" res="7.9015143215656281e-02" rms="3.0645585060119629e-01" purity="8.9507567882537842e-01" nType="-99"/>
          </Node>
          <Node pos="r" depth="2" NCoef="0" IVar="-1" Cut="0.0000000000000000e+00" cType="1" res="-1.5083794482052326e-02" rms="4.9427926540374756e-01" purity="4.2458105087280273e-01" nType="-99"/>
        </Node>
        <Node pos="r" depth="1" NCoef="0" IVar="24" Cut="3.7214374542236328e-01" cType="1" res="-2.9419422149658203e-01" rms="4.0428918600082397e-01" purity="2.0580576360225677e-01" nType="0">
          <Node pos="l" depth="2" NCoef="0" IVar="21" Cut="2.0484647154808044e-01" cType="1" res="-1.5358832478523254e-01" rms="4.7582626342773438e-01" purity="3.4641167521476746e-01" nType="0">
            <Node pos="l" depth="3" NCoef="0" IVar="-1" Cut="0.0000000000000000e+00" cType="1" res="-7.2038188576698303e-02" rms="3.4678882360458374e-01" purity="1.3980904221534729e-01" nType="-99"/>
            <Node pos="r" depth="3" NCoef="0" IVar="-1" Cut="0.0000000000000000e+00" cType="1" res="-1.6437090933322906e-02" rms="4.9319928884506226e-01" purity="4.1781455278396606e-01" nType="-99"/>
          </Node>
          <Node pos="r" depth="2" NCoef="0" IVar="24" Cut="4.7227102518081665e-01" cType="1" res="-4.1482627391815186e-01" rms="2.7914005517959595e-01" purity="8.5173726081848145e-02" nType="0">
            <Node pos="l" depth="3" NCoef="0" IVar="-1" Cut="0.0000000000000000e+00" cType="1" res="-7.1362055838108063e-02" rms="3.5026621818542480e-01" purity="1.4318972826004028e-01" nType="-99"/>
            <Node pos="r" depth="3" NCoef="0" IVar="-1" Cut="0.0000000000000000e+00" cType="1" res="-9.6131473779678345e-02" rms="1.3772620260715485e-01" purity="1.9342644140124321e-02" nType="-99"/>
          </Node>
        </Node>
      </Node>
    </BinaryTree>
    <BinaryTree type="DecisionTree" boostWeight="1.0000000000000000e+00" itree="1">
      <Node pos="s" depth="0" NCoef="0" IVar="24" Cut="2.5760197639465332e-01" cType="1" res="-1.3461010439641541e-06" rms="4.7742196917533875e-01" purity="5.0000000000000000e-01" nType="0">
        <Node pos="l" depth="1" NCoef="0" IVar="10" Cut="1.1327747255563736e-01" cType="1" res="2.7741008996963501e-01" rms="3.8752400875091553e-01" purity="8.0816417932510376e-01" nType="0">
          <Node pos="l" depth="2" NCoef="0" IVar="21" Cut="2.1393297612667084e-01" cType="1" res="3.1520551443099976e-01" rms="3.5410696268081665e-01" purity="8.5015147924423218e-01" nType="0">
            <Node pos="l" depth="3" NCoef="0" IVar="-1" Cut="0.0000000000000000e+00" cType="1" res="2.0701291039586067e-02" rms="4.8660850524902344e-01" purity="6.1494415998458862e-01" nType="-99"/>
            <Node pos="r" depth="3" NCoef="0" IVar="-1" Cut="0.0000000000000000e+00" cType="1" res="7.1575045585632324e-02" rms="3.0645585060119629e-01" purity="8.9507567882537842e-01" nType="-99"/>
          </Node>
          <Node pos="r" depth="2" NCoef="0" IVar="-1" Cut="0.0000000000000000e+00" cType="1" res="-1.3578620739281178e-02" rms="4.9427923560142517e-01" purity="4.2458105087280273e-01" nType="-99"/>
        </Node>
        <Node pos="r" depth="1" NCoef="0" IVar="24" Cut="3.6774662137031555e-01" cType="1" res="-2.6483690738677979e-01" rms="3.9819267392158508e-01" purity="2.0580576360225677e-01" nType="0">
          <Node pos="l" depth="2" NCoef="0" IVar="10" Cut="9.5456697046756744e-02" cType="1" res="-1.3490596413612366e-01" rms="4.7388738393783569e-01" purity="3.4980514645576477e-01" nType="0">
            <Node pos="l" depth="3" NCoef="0" IVar="-1" Cut="0.0000000000000000e+00" cType="1" res="-1.4990071766078472e-02" rms="4.8838067054748535e-01" purity="4.0973624587059021e-01" nType="-99"/>
            <Node pos="r" depth="3" NCoef="0" IVar="-1" Cut="0.0000000000000000e+00" cType="1" res="-7.3793560266494751e-02" rms="3.1903293728828430e-01" purity="1.1681362986564636e-01" nType="-99"/>
          </Node>
          <Node pos="r" depth="2" NCoef="0" IVar="24" Cut="4.7244960069656372e-01" cType="1" res="-3.7068367004394531e-01" rms="2.8253376483917236e-01" purity="8.8498353958129883e-02" nType="0">
            <Node pos="l" depth="3" NCoef="0" IVar="-1" Cut="0.0000000000000000e+00" cType="1" res="-6.3984878361225128e-02" rms="3.5378792881965637e-01" purity="1.4682561159133911e-01" nType="-99"/>
            <Node pos="r" depth="3" NCoef="0" IVar="-1" Cut="0.0000000000000000e+00" cType="1" res="-8.7350100278854370e-02" rms="1.3772620260715485e-01" purity="1.9342644140124321e-02" nType="-99"/>
          </Node>
        </Node>
      </Node>
    </BinaryTree>
    <BinaryTree type="DecisionTree" boostWeight="1.0000000000000000e+00" itree="2">
      <Node pos="s" depth="0" NCoef="0" IVar="24" Cut="2.7707529067993164e-01" cType="1" res="-9.6229859991581179e-07" rms="4.5831587910652161e-01" purity="5.0000000000000000e-01" nType="0">
        <Node pos="l" depth="1" NCoef="0" IVar="10" Cut="1.0719316452741623e-01" cType="1" res="2.3040074110031128e-01" rms="3.9785194396972656e-01" purity="7.8202837705612183e-01" nType="0">
          <Node pos="l" depth="2" NCoef="0" IVar="21" Cut="2.0149005949497223e-01" cType="1" res="2.6754030585289001e-01" rms="3.6849439144134521e-01" purity="8.2653802633285522e-01" nType="0">
            <Node pos="l" depth="3" NCoef="0" IVar="-1" Cut="0.0000000000000000e+00" cType="1" res="9.2204976826906204e-03" rms="4.9198338389396667e-01" purity="5.5818045139312744e-01" nType="-99"/>
            <Node pos="r" depth="3" NCoef="0" IVar="-1" Cut="0.0000000000000000e+00" cType="1" res="6.2520556151866913e-02" rms="3.2736256718635559e-01" purity="8.7339425086975098e-01" nType="-99"/>
          </Node>
          <Node pos="r" depth="2" NCoef="0" IVar="-1" Cut="0.0000000000000000e+00" cType="1" res="-1.1544629931449890e-02" rms="4.8898723721504211e-01" purity="4.3701642751693726e-01" nType="-99"/>
        </Node>
        <Node pos="r" depth="1" NCoef="0" IVar="22" Cut="-7.2003774344921112e-02" cType="1" res="-2.5941133499145508e-01" rms="3.7586715817451477e-01" purity="1.8246287107467651e-01" nType="0">
          <Node pos="l" depth="2" NCoef="0" IVar="-1" Cut="0.0000000000000000e+00" cType="1" res="4.6053235419094563e-03" rms="4.8835420608520508e-01" purity="4.8047557473182678e-01" nType="-99"/>
          <Node pos="r" depth="2" NCoef="0" IVar="25" Cut="8.6144107580184937e-01" cType="1" res="-2.8977623581886292e-01" rms="3.4831720590591431e-01" purity="1.5039686858654022e-01" nType="0">
            <Node pos="l" depth="3" NCoef="0" IVar="-1" Cut="0.0000000000000000e+00" cType="1" res="-2.7125313878059387e-02" rms="4.6117094159126282e-01" purity="3.2152557373046875e-01" nType="-99"/>
            <Node pos="r" depth="3" NCoef="0" IVar="-1" Cut="0.0000000000000000e+00" cType="1" res="-6.7618340253829956e-02" rms="2.9748198390007019e-01" purity="1.0436988621950150e-01" nType="-99"/>
          </Node>
        </Node>
      </Node>
    </BinaryTree>
    <BinaryTree type="DecisionTree" boostWeight="1.0000000000000000e+00" itree="3">
      <Node pos="s" depth="0" NCoef="0" IVar="24" Cut="2.5760197639465332e-01" cType="1" res="1.8595789015307673e-06" rms="4.4242310523986816e-01" purity="5.0000000000000000e-01" nType="0">
        <Node pos="l" depth="1" NCoef="0" IVar="10" Cut="1.1936178058385849e-01" cType="1" res="2.2689312696456909e-01" rms="3.7813496589660645e-01" purity="8.0816417932510376e-01" nType="0">
          <Node pos="l" depth="2" NCoef="0" IVar="24" Cut="1.7181925475597382e-01" cType="1" res="2.5504299998283386e-01" rms="3.5320234298706055e-01" purity="8.4546303749084473e-01" nType="0">
            <Node pos="l" depth="3" NCoef="0" IVar="-1" Cut="0.0000000000000000e+00" cType="1" res="6.6309243440628052e-02" rms="2.7840107679367065e-01" purity="9.1154152154922485e-01" nType="-99"/>
            <Node pos="r" depth="3" NCoef="0" IVar="-1" Cut="0.0000000000000000e+00" cType="1" res="3.2652314752340317e-02" rms="4.2540875077247620e-01" purity="7.4481344223022461e-01" nType="-99"/>
          </Node>
          <Node pos="r" depth="2" NCoef="0" IVar="-1" Cut="0.0000000000000000e+00" cType="1" res="-1.7024526372551918e-02" rms="4.8883396387100220e-01" purity="3.9492213726043701e-01" nType="-99"/>
        </Node>
        <Node pos="r" depth="1" NCoef="0" IVar="24" Cut="3.7214374542236328e-01" cType="1" res="-2.1660377085208893e-01" rms="3.8734352588653564e-01" purity="2.0580576360225677e-01" nType="0">
          <Node pos="l" depth="2" NCoef="0" IVar="18" Cut="7.8529976308345795e-02" cType="1" res="-1.0979593545198441e-01" rms="4.6471533179283142e-01" purity="3.4641167521476746e-01" nType="0">
            <Node pos="l" depth="3" NCoef="0" IVar="-1" Cut="0.0000000000000000e+00" cType="1" res="1.2847326695919037e-02" rms="4.8720306158065796e-01" purity="5.2342450618743896e-01" nType="-99"/>
            <Node pos="r" depth="3" NCoef="0" IVar="-1" Cut="0.0000000000000000e+00" cType="1" res="-3.6307629197835922e-02" rms="4.3639841675758362e-01" purity="2.7532714605331421e-01" nType="-99"/>
          </Node>
          <Node pos="r" depth="2" NCoef="0" IVar="17" Cut="4.8411935567855835e-03" cType="1" res="-3.0823895335197449e-01" rms="2.7439087629318237e-01" purity="8.5173726081848145e-02" nType="0">
            <Node pos="l" depth="3" NCoef="0" IVar="-1" Cut="0.0000000000000000e+00" cType="1" res="-4.6639624983072281e-02" rms="3.7336826324462891e-01" purity="1.7478618025779724e-01" nType="-99"/>
            <Node pos="r" depth="3" NCoef="0" IVar="-1" Cut="0.0000000000000000e+00" cType="1" res="-7.2066351771354675e-02" rms="2.1190097928047180e-01" purity="4.8516713082790375e-02" nType="-99"/>
          </Node>
        </Node>
      </Node>
    </BinaryTree>
    <BinaryTree type="DecisionTree" boostWeight="1.0000000000000000e+00" itree="4">
      <Node pos="s" depth="0" NCoef="0" IVar="24" Cut="2.5760197639465332e-01" cType="1" res="-9.4148108473746106e-06" rms="4.2849561572074890e-01" purity="5.0000000000000000e-01" nType="0">
        <Node pos="l" depth="1" NCoef="0" IVar="10" Cut="1.0719316452741623e-01" cType="1" res="2.0447550714015961e-01" rms="3.7459260225296021e-01" purity="8.0816417932510376e-01" nType="0">
          <Node pos="l" depth="2" NCoef="0" IVar="21" Cut="2.1393297612667084e-01" cType="1" res="2.3518545925617218e-01" rms="3.4516090154647827e-01" purity="8.5323905944824219e-01" nType="0">
            <Node pos="l" depth="3" NCoef="0" IVar="-1" Cut="0.0000000000000000e+00" cType="1" res="1.3140044175088406e-02" rms="4.8242726922035217e-01" purity="6.1971670389175415e-01" nType="-99"/>
            <Node pos="r" depth="3" NCoef="0" IVar="-1" Cut="0.0000000000000000e+00" cType="1" res="5.7546705007553101e-02" rms="3.0077236890792847e-01" purity="8.9841246604919434e-01" nType="-99"/>
          </Node>
          <Node pos="r" depth="2" NCoef="0" IVar="-1" Cut="0.0000000000000000e+00" cType="1" res="-6.3738664612174034e-03" rms="4.9009090662002563e-01" purity="4.6160578727722168e-01" nType="-99"/>
        </Node>
        <Node pos="r" depth="1" NCoef="0" IVar="24" Cut="3.7214374542236328e-01" cType="1" res="-1.9522446393966675e-01" rms="3.8328516483306885e-01" purity="2.0580576360225677e-01" nType="0">
          <Node pos="l" depth="2" NCoef="0" IVar="10" Cut="9.1647021472454071e-02" cType="1" res="-9.8865315318107605e-02" rms="4.6228626370429993e-01" purity="3.4641167521476746e-01" nType="0">
            <Node pos="l" depth="3" NCoef="0" IVar="-1" Cut="0.0000000000000000e+00" cType="1" res="-7.8777577728033066e-03" rms="4.8080024123191833e-01" purity="4.1346636414527893e-01" nType="-99"/>
            <Node pos="r" depth="3" NCoef="0" IVar="-1" Cut="0.0000000000000000e+00" cType="1" res="-5.9595484286546707e-02" rms="3.3170473575592041e-01" purity="1.3267612457275391e-01" nType="-99"/>
          </Node>
          <Node pos="r" depth="2" NCoef="0" IVar="17" Cut="4.8411935567855835e-03" cType="1" res="-2.7789524197578430e-01" rms="2.7348744869232178e-01" purity="8.5173726081848145e-02" nType="0">
            <Node pos="l" depth="3" NCoef="0" IVar="-1" Cut="0.0000000000000000e+00" cType="1" res="-4.2916551232337952e-02" rms="3.7348854541778564e-01" purity="1.7478618025779724e-01" nType="-99"/>
            <Node pos="r" depth="3" NCoef="0" IVar="-1" Cut="0.0000000000000000e+00" cType="1" res="-6.7370392382144928e-02" rms="2.1198144555091858e-01" purity="4.8516713082790375e-02" nType="-99"/>
          </Node>
        </Node>
      </Node>
    </BinaryTree>
    <BinaryTree type="DecisionTree" boostWeight="1.0000000000000000e+00" itree="5">
      <Node pos="s" depth="0" NCoef="0" IVar="24" Cut="2.2514642775058746e-01" cType="1" res="-1.1364533747837413e-05" rms="4.1673153638839722e-01" purity="5.0000000000000000e-01" nType="0">
        <Node pos="l" depth="1" NCoef="0" IVar="10" Cut="1.1327747255563736e-01" cType="1" res="2.1149818599224091e-01" rms="3.4781697392463684e-01" purity="8.3766472339630127e-01" nType="0">
          <Node pos="l" depth="2" NCoef="0" IVar="9" Cut="5.7473225593566895e+00" cType="1" res="2.3469895124435425e-01" rms="3.1886878609657288e-01" purity="8.7753295898437500e-01" nType="0">
            <Node pos="l" depth="3" NCoef="0" IVar="-1" Cut="0.0000000000000000e+00" cType="1" res="1.6421688720583916e-02" rms="4.3626457452774048e-01" purity="7.1623438596725464e-01" nType="-99"/>
            <Node pos="r" depth="3" NCoef="0" IVar="-1" Cut="0.0000000000000000e+00" cType="1" res="5.7087417691946030e-02" rms="2.8710618615150452e-01" purity="9.0378457307815552e-01" nType="-99"/>
          </Node>
          <Node pos="r" depth="2" NCoef="0" IVar="-1" Cut="0.0000000000000000e+00" cType="1" res="2.6700068701757118e-05" rms="4.9721202254295349e-01" purity="4.7445443272590637e-01" nType="-99"/>
        </Node>
        <Node pos="r" depth="1" NCoef="0" IVar="24" Cut="3.1869035959243774e-01" cType="1" res="-1.5655842423439026e-01" rms="3.9375624060630798e-01" purity="2.5008025765419006e-01" nType="0">
          <Node pos="l" depth="2" NCoef="0" IVar="21" Cut="2.2961354255676270e-01" cType="1" res="-2.0534481853246689e-02" rms="4.7255331277847290e-01" purity="4.7812351584434509e-01" nType="0">
            <Node pos="l" depth="3" NCoef="0" IVar="-1" Cut="0.0000000000000000e+00" cType="1" res="-4.1244082152843475e-02" rms="4.2070209980010986e-01" purity="2.6479321718215942e-01" nType="-99"/>
            <Node pos="r" depth="3" NCoef="0" IVar="-1" Cut="0.0000000000000000e+00" cType="1" res="1.2211916968226433e-02" rms="4.7231480479240417e-01" purity="5.7213020324707031e-01" nType="-99"/>
          </Node>
          <Node pos="r" depth="2" NCoef="0" IVar="25" Cut="8.6141604185104370e-01" cType="1" res="-2.2427038848400116e-01" rms="3.2751765847206116e-01" purity="1.3656155765056610e-01" nType="0">
            <Node pos="l" depth="3" NCoef="0" IVar="-1" Cut="0.0000000000000000e+00" cType="1" res="-1.4369324781000614e-02" rms="4.5812669396400452e-01" purity="3.3269932866096497e-01" nType="-99"/>
            <Node pos="r" depth="3" NCoef="0" IVar="-1" Cut="0.0000000000000000e+00" cType="1" res="-5.6655909866094589e-02" rms="2.8258273005485535e-01" purity="9.5816656947135925e-02" nType="-99"/>
          </Node>
        </Node>
      </Node>
    </BinaryTree>
    <BinaryTree type="DecisionTree" boostWeight="1.0000000000000000e+00" itree="6">
      <Node pos="s" depth="0" NCoef="0" IVar="24" Cut="2.2514642775058746e-01" cType="1" res="-8.0319341577705927e-06" rms="4.0620949864387512e-01" purity="5.0000000000000000e-01" nType="0">
        <Node pos="l" depth="1" NCoef="0" IVar="10" Cut="1.1327747255563736e-01" cType="1" res="1.9069582223892212e-01" rms="3.4561315178871155e-01" purity="8.3766472339630127e-01" nType="0">
          <Node pos="l" depth="2" NCoef="0" IVar="9" Cut="6.2765073776245117e+00" cType="1" res="2.1161465346813202e-01" rms="3.1780377030372620e-01" purity="8.7753295898437500e-01" nType="0">
            <Node pos="l" depth="3" NCoef="0" IVar="-1" Cut="0.0000000000000000e+00" cType="1" res="2.7923732995986938e-02" rms="3.9492920041084290e-01" purity="7.8651869297027588e-01" nType="-99"/>
            <Node pos="r" depth="3" NCoef="0" IVar="-1" Cut="0.0000000000000000e+00" cType="1" res="5.7021304965019226e-02" rms="2.6582309603691101e-01" purity="9.1929316520690918e-01" nType="-99"/>
          </Node>
          <Node pos="r" depth="2" NCoef="0" IVar="-1" Cut="0.0000000000000000e+00" cType="1" res="2.4031018256209791e-05" rms="4.9721202254295349e-01" purity="4.7445443272590637e-01" nType="-99"/>
        </Node>
        <Node pos="r" depth="1" NCoef="0" IVar="24" Cut="3.1869035959243774e-01" cType="1" res="-1.4115591347217560e-01" rms="3.8972443342208862e-01" purity="2.5008025765419006e-01" nType="0">
          <Node pos="l" depth="2" NCoef="0" IVar="10" Cut="8.9599475264549255e-02" cType="1" res="-1.8500247970223427e-02" rms="4.6969321370124817e-01" purity="4.7812351584434509e-01" nType="0">
            <Node pos="l" depth="3" NCoef="0" IVar="-1" Cut="0.0000000000000000e+00" cType="1" res="9.8450826480984688e-03" rms="4.7265580296516418e-01" purity="5.5628234148025513e-01" nType="-99"/>
            <Node pos="r" depth="3" NCoef="0" IVar="-1" Cut="0.0000000000000000e+00" cType="1" res="-4.8910029232501984e-02" rms="3.8810774683952332e-01" purity="2.2289186716079712e-01" nType="-99"/>
          </Node>
          <Node pos="r" depth="2" NCoef="0" IVar="22" Cut="-3.6534294486045837e-02" cType="1" res="-2.0221324265003204e-01" rms="3.2627651095390320e-01" purity="1.3656155765056610e-01" nType="0">
            <Node pos="l" depth="3" NCoef="0" IVar="-1" Cut="0.0000000000000000e+00" cType="1" res="-1.4432943426072598e-02" rms="4.3038576841354370e-01" purity="2.9868853092193604e-01" nType="-99"/>
            <Node pos="r" depth="3" NCoef="0" IVar="-1" Cut="0.0000000000000000e+00" cType="1" res="-5.3083028644323349e-02" rms="2.8817909955978394e-01" purity="9.9212482571601868e-02" nType="-99"/>
          </Node>
        </Node>
      </Node>
    </BinaryTree>
    <BinaryTree type="DecisionTree" boostWeight="1.0000000000000000e+00" itree="7">
      <Node pos="s" depth="0" NCoef="0" IVar="24" Cut="2.2514642775058746e-01" cType="1" res="-2.2071355942898663e-06" rms="3.9734593033790588e-01" purity="5.0000000000000000e-01" nType="0">
        <Node pos="l" depth="1" NCoef="0" IVar="19" Cut="1.7081577330827713e-02" cType="1" res="1.7196343839168549e-01" rms="3.4382522106170654e-01" purity="8.3766472339630127e-01" nType="0">
          <Node pos="l" depth="2" NCoef="0" IVar="24" Cut="1.7201755940914154e-01" cType="1" res="2.0430867373943329e-01" rms="3.1226938962936401e-01" purity="8.7466597557067871e-01" nType="0">
            <Node pos="l" depth="3" NCoef="0" IVar="-1" Cut="0.0000000000000000e+00" cType="1" res="5.4190676659345627e-02" rms="2.7183291316032410e-01" purity="9.0704923868179321e-01" nType="-99"/>
            <Node pos="r" depth="3" NCoef="0" IVar="-1" Cut="0.0000000000000000e+00" cType="1" res="2.9016491025686264e-02" rms="3.9017421007156372e-01" purity="7.8864467144012451e-01" nType="-99"/>
          </Node>
          <Node pos="r" depth="2" NCoef="0" IVar="-1" Cut="0.0000000000000000e+00" cType="1" res="1.1608671396970749e-02" rms="4.2072626948356628e-01" purity="6.9956046342849731e-01" nType="-99"/>
        </Node>
        <Node pos="r" depth="1" NCoef="0" IVar="17" Cut="-9.6932664513587952e-02" cType="1" res="-1.2728115916252136e-01" rms="3.8620746135711670e-01" purity="2.5008025765419006e-01" nType="0">
          <Node pos="l" depth="2" NCoef="0" IVar="-1" Cut="0.0000000000000000e+00" cType="1" res="1.9336163997650146e-02" rms="4.5358252525329590e-01" purity="5.1925379037857056e-01" nType="-99"/>
          <Node pos="r" depth="2" NCoef="0" IVar="12" Cut="-1.9374828843865544e-04" cType="1" res="-1.5662603080272675e-01" rms="3.6644303798675537e-01" purity="2.1381509304046631e-01" nType="0">
            <Node pos="l" depth="3" NCoef="0" IVar="-1" Cut="0.0000000000000000e+00" cType="1" res="1.5429980121552944e-02" rms="4.6425840258598328e-01" purity="5.5031412839889526e-01" nType="-99"/>
            <Node pos="r" depth="3" NCoef="0" IVar="-1" Cut="0.0000000000000000e+00" cType="1" res="-4.0927417576313019e-02" rms="3.4632891416549683e-01" purity="1.7926907539367676e-01" nType="-99"/>
          </Node>
        </Node>
      </Node>
    </BinaryTree>
    <BinaryTree type="DecisionTree" boostWeight="1.0000000000000000e+00" itree="8">
      <Node pos="s" depth="0" NCoef="0" IVar="24" Cut="2.7707529067993164e-01" cType="1" res="2.2258736862568185e-05" rms="3.9022582769393921e-01" purity="5.0000000000000000e-01" nType="0">
        <Node pos="l" depth="1" NCoef="0" IVar="19" Cut="3.5253137350082397e-02" cType="1" res="1.2695501744747162e-01" rms="3.7349650263786316e-01" purity="7.8202837705612183e-01" nType="0">
          <Node pos="l" depth="2" NCoef="0" IVar="24" Cut="1.7114426195621490e-01" cType="1" res="1.5409617125988007e-01" rms="3.5400655865669250e-01" purity="8.1701081991195679e-01" nType="0">
            <Node pos="l" depth="3" NCoef="0" IVar="-1" Cut="0.0000000000000000e+00" cType="1" res="4.9196571111679077e-02" rms="2.8262194991111755e-01" purity="8.9837563037872314e-01" nType="-99"/>
            <Node pos="r" depth="3" NCoef="0" IVar="-1" Cut="0.0000000000000000e+00" cType="1" res="1.8162898719310760e-02" rms="4.2612904310226440e-01" purity="7.0060145854949951e-01" nType="-99"/>
          </Node>
          <Node pos="r" depth="2" NCoef="0" IVar="-1" Cut="0.0000000000000000e+00" cType="1" res="-1.1866586282849312e-02" rms="4.4313612580299377e-01" purity="5.4887080192565918e-01" nType="-99"/>
        </Node>
        <Node pos="r" depth="1" NCoef="0" IVar="22" Cut="-7.2003774344921112e-02" cType="1" res="-1.4289192855358124e-01" rms="3.5790556669235229e-01" purity="1.8246287107467651e-01" nType="0">
          <Node pos="l" depth="2" NCoef="0" IVar="-1" Cut="0.0000000000000000e+00" cType="1" res="1.7450161278247833e-02" rms="4.7078886628150940e-01" purity="4.8047557473182678e-01" nType="-99"/>
          <Node pos="r" depth="2" NCoef="0" IVar="5" Cut="1.1147290468215942e+00" cType="1" res="-1.6710716485977173e-01" rms="3.3465641736984253e-01" purity="1.5039686858654022e-01" nType="0">
            <Node pos="l" depth="3" NCoef="0" IVar="-1" Cut="0.0000000000000000e+00" cType="1" res="-4.5029710978269577e-02" rms="3.0784946680068970e-01" purity="1.2201587110757828e-01" nType="-99"/>
            <Node pos="r" depth="3" NCoef="0" IVar="-1" Cut="0.0000000000000000e+00" cType="1" res="-9.4747199909761548e-04" rms="4.5138761401176453e-01" purity="3.5145407915115356e-01" nType="-99"/>
          </Node>
        </Node>
      </Node>
    </BinaryTree>
    <BinaryTree type="DecisionTree" boostWeight="1.0000000000000000e+00" itree="9">
      <Node pos="s" depth="0" NCoef="0" IVar="24" Cut="2.7707529067993164e-01" cType="1" res="1.2200998753542081e-05" rms="3.8399827480316162e-01" purity="5.0000000000000000e-01" nType="0">
        <Node pos="l" depth="1" NCoef="0" IVar="10" Cut="1.0110886394977570e-01" cType="1" res="1.1447134613990784e-01" rms="3.7163516879081726e-01" purity="7.8202837705612183e-01" nType="0">
          <Node pos="l" depth="2" NCoef="0" IVar="9" Cut="5.5139908790588379e+00" cType="1" res="1.4281560480594635e-01" rms="3.4713384509086609e-01" purity="8.3059561252593994e-01" nType="0">
            <Node pos="l" depth="3" NCoef="0" IVar="-1" Cut="0.0000000000000000e+00" cType="1" res="-2.3781448602676392e-02" rms="4.6021154522895813e-01" purity="5.4972976446151733e-01" nType="-99"/>
            <Node pos="r" depth="3" NCoef="0" IVar="-1" Cut="0.0000000000000000e+00" cType="1" res="4.0641658008098602e-02" rms="3.2254141569137573e-01" purity="8.5975575447082520e-01" nType="-99"/>
          </Node>
          <Node pos="r" depth="2" NCoef="0" IVar="-1" Cut="0.0000000000000000e+00" cType="1" res="-1.1564338579773903e-02" rms="4.5803007483482361e-01" purity="4.9226713180541992e-01" nType="-99"/>
        </Node>
        <Node pos="r" depth="1" NCoef="0" IVar="12" Cut="2.7995996642857790e-03" cType="1" res="-1.2885789573192596e-01" rms="3.5583001375198364e-01" purity="1.8246287107467651e-01" nType="0">
          <Node pos="l" depth="2" NCoef="0" IVar="-1" Cut="0.0000000000000000e+00" cType="1" res="9.5580033957958221e-03" rms="4.6340468525886536e-01" purity="4.2845454812049866e-01" nType="-99"/>
          <Node pos="r" depth="2" NCoef="0" IVar="25" Cut="8.3179122209548950e-01" cType="1" res="-1.5444709360599518e-01" rms="3.2940220832824707e-01" purity="1.4611141383647919e-01" nType="0">
            <Node pos="l" depth="3" NCoef="0" IVar="-1" Cut="0.0000000000000000e+00" cType="1" res="6.6743697971105576e-03" rms="4.7004377841949463e-01" purity="4.0479010343551636e-01" nType="-99"/>
            <Node pos="r" depth="3" NCoef="0" IVar="-1" Cut="0.0000000000000000e+00" cType="1" res="-4.4518090784549713e-02" rms="2.9526594281196594e-01" purity="1.0972161591053009e-01" nType="-99"/>
          </Node>
        </Node>
      </Node>
    </BinaryTree>
    <BinaryTree type="DecisionTree" boostWeight="1.0000000000000000e+00" itree="10">
      <Node pos="s" depth="0" NCoef="0" IVar="24" Cut="2.2514642775058746e-01" cType="1" res="-6.7562149297373253e-07" rms="3.7823608517646790e-01" purity="5.0000000000000000e-01" nType="0">
        <Node pos="l" depth="1" NCoef="0" IVar="10" Cut="1.1327747255563736e-01" cType="1" res="1.2987823784351349e-01" rms="3.3890351653099060e-01" purity="8.3766472339630127e-01" nType="0">
          <Node pos="l" depth="2" NCoef="0" IVar="21" Cut="2.0536680519580841e-01" cType="1" res="1.4709047973155975e-01" rms="3.1316530704498291e-01" purity="8.7753295898437500e-01" nType="0">
            <Node pos="l" depth="3" NCoef="0" IVar="-1" Cut="0.0000000000000000e+00" cType="1" res="-5.8656989131122828e-04" rms="4.6340510249137878e-01" purity="6.5087997913360596e-01" nType="-99"/>
            <Node pos="r" depth="3" NCoef="0" IVar="-1" Cut="0.0000000000000000e+00" cType="1" res="4.4420991092920303e-02" rms="2.7709892392158508e-01" purity="9.1140711307525635e-01" nType="-99"/>
          </Node>
          <Node pos="r" depth="2" NCoef="0" IVar="-1" Cut="0.0000000000000000e+00" cType="1" res="-5.4011940956115723e-03" rms="4.9037358164787292e-01" purity="4.7445443272590637e-01" nType="-99"/>
        </Node>
        <Node pos="r" depth="1" NCoef="0" IVar="21" Cut="2.0484647154808044e-01" cType="1" res="-9.6129491925239563e-02" rms="3.7711244821548462e-01" purity="2.5008025765419006e-01" nType="0">
          <Node pos="l" depth="2" NCoef="0" IVar="9" Cut="7.6942477226257324e+00" cType="1" res="-2.0039124786853790e-01" rms="2.8054651618003845e-01" purity="1.0144625604152679e-01" nType="0">
            <Node pos="l" depth="3" NCoef="0" IVar="-1" Cut="0.0000000000000000e+00" cType="1" res="-5.7141922414302826e-02" rms="2.4819537997245789e-01" purity="7.4692055583000183e-02" nType="-99"/>
            <Node pos="r" depth="3" NCoef="0" IVar="-1" Cut="0.0000000000000000e+00" cType="1" res="-3.2400015741586685e-02" rms="3.2754370570182800e-01" purity="1.5806360542774200e-01" nType="-99"/>
          </Node>
          <Node pos="r" depth="2" NCoef="0" IVar="9" Cut="6.6436471939086914e+00" cType="1" res="-4.9692660570144653e-02" rms="4.0435284376144409e-01" purity="3.1627991795539856e-01" nType="0">
            <Node pos="l" depth="3" NCoef="0" IVar="-1" Cut="0.0000000000000000e+00" cType="1" res="-3.5340797156095505e-02" rms="3.6244496703147888e-01" purity="2.1180605888366699e-01" nType="-99"/>
            <Node pos="r" depth="3" NCoef="0" IVar="-1" Cut="0.0000000000000000e+00" cType="1" res="6.4308624714612961e-03" rms="4.1745913028717041e-01" purity="3.9592340588569641e-01" nType="-99"/>
          </Node>
        </Node>
      </Node>
    </BinaryTree>
    <BinaryTree type="DecisionTree" boostWeight="1.0000000000000000e+00" itree="11">
      <Node pos="s" depth="0" NCoef="0" IVar="24" Cut="3.2251304388046265e-01" cType="1" res="2.7442903956398368e-05" rms="3.7306165695190430e-01" purity="5.0000000000000000e-01" nType="0">
        <Node pos="l" depth="1" NCoef="0" IVar="21" Cut="2.2932006418704987e-01" cType="1" res="7.9539708793163300e-02" rms="3.8185930252075195e-01" purity="7.2119909524917603e-01" nType="0">
          <Node pos="l" depth="2" NCoef="0" IVar="9" Cut="7.3174214363098145e+00" cType="1" res="-5.9579521417617798e-02" rms="4.3180537223815918e-01" purity="4.9047267436981201e-01" nType="0">
            <Node pos="l" depth="3" NCoef="0" IVar="-1" Cut="0.0000000000000000e+00" cType="1" res="-3.1851101666688919e-02" rms="4.2745256423950195e-01" purity="4.0861696004867554e-01" nType="-99"/>
            <Node pos="r" depth="3" NCoef="0" IVar="-1" Cut="0.0000000000000000e+00" cType="1" res="1.7808806151151657e-02" rms="4.0211221575737000e-01" purity="6.2598532438278198e-01" nType="-99"/>
          </Node>
          <Node pos="r" depth="2" NCoef="0" IVar="10" Cut="1.1923710256814957e-01" cType="1" res="1.1669027805328369e-01" rms="3.5835126042366028e-01" purity="7.8281253576278687e-01" nType="0">
            <Node pos="l" depth="3" NCoef="0" IVar="-1" Cut="0.0000000000000000e+00" cType="1" res="3.5606827586889267e-02" rms="3.3722388744354248e-01" purity="8.2939320802688599e-01" nType="-99"/>
            <Node pos="r" depth="3" NCoef="0" IVar="-1" Cut="0.0000000000000000e+00" cType="1" res="-2.2614018991589546e-02" rms="4.5687404274940491e-01" purity="3.4699246287345886e-01" nType="-99"/>
          </Node>
        </Node>
        <Node pos="r" depth="1" NCoef="0" IVar="25" Cut="8.8306593894958496e-01" cType="1" res="-1.3120907545089722e-01" rms="3.1710422039031982e-01" purity="1.3490666449069977e-01" nType="0">
          <Node pos="l" depth="2" NCoef="0" IVar="9" Cut="7.1365389823913574e+00" cType="1" res="-4.1373614221811295e-02" rms="4.1259971261024475e-01" purity="2.5733765959739685e-01" nType="0">
            <Node pos="l" depth="3" NCoef="0" IVar="-1" Cut="0.0000000000000000e+00" cType="1" res="-2.9131088405847549e-02" rms="3.5779488086700439e-01" purity="1.8002380430698395e-01" nType="-99"/>
            <Node pos="r" depth="3" NCoef="0" IVar="-1" Cut="0.0000000000000000e+00" cType="1" res="2.0166302099823952e-02" rms="4.6035188436508179e-01" purity="3.7960922718048096e-01" nType="-99"/>
          </Node>
          <Node pos="r" depth="2" NCoef="0" IVar="17" Cut="-4.7362718731164932e-02" cType="1" res="-1.6751475632190704e-01" rms="2.6041102409362793e-01" purity="8.5427962243556976e-02" nType="0">
            <Node pos="l" depth="3" NCoef="0" IVar="-1" Cut="0.0000000000000000e+00" cType="1" res="-1.4903173781931400e-02" rms="3.9630192518234253e-01" purity="2.3678846657276154e-01" nType="-99"/>
            <Node pos="r" depth="3" NCoef="0" IVar="-1" Cut="0.0000000000000000e+00" cType="1" res="-5.2797749638557434e-02" rms="2.0949919521808624e-01" purity="5.0330679863691330e-02" nType="-99"/>
          </Node>
        </Node>
      </Node>
    </BinaryTree>
    <BinaryTree type="DecisionTree" boostWeight="1.0000000000000000e+00" itree="12">
      <Node pos="s" depth="0" NCoef="0" IVar="24" Cut="2.2514642775058746e-01" cType="1" res="-2.0880743250017986e-05" rms="3.6790171265602112e-01" purity="5.0000000000000000e-01" nType="0">
        <Node pos="l" depth="1" NCoef="0" IVar="19" Cut="1.7081577330827713e-02" cType="1" res="1.0927716642618179e-01" rms="3.3531403541564941e-01" purity="8.3766472339630127e-01" nType="0">
          <Node pos="l" depth="2" NCoef="0" IVar="9" Cut="6.2766709327697754e+00" cType="1" res="1.3556379079818726e-01" rms="3.0729940533638000e-01" purity="8.7466597557067871e-01" nType="0">
            <Node pos="l" depth="3" NCoef="0" IVar="-1" Cut="0.0000000000000000e+00" cType="1" res="1.9351566210389137e-02" rms="3.6324530839920044e-01" purity="8.1678396463394165e-01" nType="-99"/>
            <Node pos="r" depth="3" NCoef="0" IVar="-1" Cut="0.0000000000000000e+00" cType="1" res="4.4196594506502151e-02" rms="2.7391293644905090e-01" purity="9.0062290430068970e-01" nType="-99"/>
          </Node>
          <Node pos="r" depth="2" NCoef="0" IVar="-1" Cut="0.0000000000000000e+00" cType="1" res="2.7596580330282450e-03" rms="4.0917408466339111e-01" purity="6.9956046342849731e-01" nType="-99"/>
        </Node>
        <Node pos="r" depth="1" NCoef="0" IVar="25" Cut="8.3771973848342896e-01" cType="1" res="-8.0916933715343475e-02" rms="3.7003642320632935e-01" purity="2.5008025765419006e-01" nType="0">
          <Node pos="l" depth="2" NCoef="0" IVar="9" Cut="6.7200956344604492e+00" cType="1" res="5.5246222764253616e-02" rms="4.5062863826751709e-01" purity="5.0944674015045166e-01" nType="0">
            <Node pos="l" depth="3" NCoef="0" IVar="-1" Cut="0.0000000000000000e+00" cType="1" res="-2.3774199187755585e-02" rms="4.3962550163269043e-01" purity="3.1088531017303467e-01" nType="-99"/>
            <Node pos="r" depth="3" NCoef="0" IVar="-1" Cut="0.0000000000000000e+00" cType="1" res="4.0016602724790573e-02" rms="4.1629898548126221e-01" purity="6.6293430328369141e-01" nType="-99"/>
          </Node>
          <Node pos="r" depth="2" NCoef="0" IVar="12" Cut="-1.9374828843865544e-04" cType="1" res="-1.1198655515909195e-01" rms="3.4152522683143616e-01" purity="1.9089816510677338e-01" nType="0">
            <Node pos="l" depth="3" NCoef="0" IVar="-1" Cut="0.0000000000000000e+00" cType="1" res="1.8951414152979851e-02" rms="4.5845183730125427e-01" purity="5.5630934238433838e-01" nType="-99"/>
            <Node pos="r" depth="3" NCoef="0" IVar="-1" Cut="0.0000000000000000e+00" cType="1" res="-3.4887462854385376e-02" rms="3.1885731220245361e-01" purity="1.5130075812339783e-01" nType="-99"/>
          </Node>
        </Node>
      </Node>
    </BinaryTree>
    <BinaryTree type="DecisionTree" boostWeight="1.0000000000000000e+00" itree="13">
      <Node pos="s" depth="0" NCoef="0" IVar="24" Cut="3.0303972959518433e-01" cType="1" res="-1.9733834051294252e-05" rms="3.6370724439620972e-01" purity="5.0000000000000000e-01" nType="0">
        <Node pos="l" depth="1" NCoef="0" IVar="10" Cut="1.0110886394977570e-01" cType="1" res="7.2395592927932739e-02" rms="3.7054228782653809e-01" purity="7.4874937534332275e-01" nType="0">
          <Node pos="l" depth="2" NCoef="0" IVar="9" Cut="5.5139908790588379e+00" cType="1" res="9.8481431603431702e-02" rms="3.5082125663757324e-01" purity="8.0141913890838623e-01" nType="0">
            <Node pos="l" depth="3" NCoef="0" IVar="-1" Cut="0.0000000000000000e+00" cType="1" res="-2.9308820143342018e-02" rms="4.4083356857299805e-01" purity="5.1270562410354614e-01" nType="-99"/>
            <Node pos="r" depth="3" NCoef="0" IVar="-1" Cut="0.0000000000000000e+00" cType="1" res="3.2008368521928787e-02" rms="3.3185485005378723e-01" purity="8.3102107048034668e-01" nType="-99"/>
          </Node>
          <Node pos="r" depth="2" NCoef="0" IVar="24" Cut="1.7494423687458038e-01" cType="1" res="-7.5799912214279175e-02" rms="4.3851217627525330e-01" purity="4.4952878355979919e-01" nType="0">
            <Node pos="l" depth="3" NCoef="0" IVar="-1" Cut="0.0000000000000000e+00" cType="1" res="7.4976217001676559e-03" rms="4.5451813936233521e-01" purity="6.2542206048965454e-01" nType="-99"/>
            <Node pos="r" depth="3" NCoef="0" IVar="-1" Cut="0.0000000000000000e+00" cType="1" res="-4.2852707207202911e-02" rms="3.8513487577438354e-01" purity="2.5492680072784424e-01" nType="-99"/>
          </Node>
        </Node>
        <Node pos="r" depth="1" NCoef="0" IVar="25" Cut="8.4650886058807373e-01" cType="1" res="-9.9398583173751831e-02" rms="3.2912454009056091e-01" purity="1.5862989425659180e-01" nType="0">
          <Node pos="l" depth="2" NCoef="0" IVar="-1" Cut="0.0000000000000000e+00" cType="1" res="8.4572043269872665e-03" rms="4.5283424854278564e-01" purity="3.8853684067726135e-01" nType="-99"/>
          <Node pos="r" depth="2" NCoef="0" IVar="17" Cut="-7.7104687690734863e-02" cType="1" res="-1.2286317348480225e-01" rms="2.9662662744522095e-01" purity="1.1924683302640915e-01" nType="0">
            <Node pos="l" depth="3" NCoef="0" IVar="-1" Cut="0.0000000000000000e+00" cType="1" res="2.6238174177706242e-03" rms="4.3080818653106689e-01" purity="3.1705731153488159e-01" nType="-99"/>
            <Node pos="r" depth="3" NCoef="0" IVar="-1" Cut="0.0000000000000000e+00" cType="1" res="-4.0690578520298004e-02" rms="2.6614895462989807e-01" purity="9.0515397489070892e-02" nType="-99"/>
          </Node>
        </Node>
      </Node>
    </BinaryTree>
    <BinaryTree type="DecisionTree" boostWeight="1.0000000000000000e+00" itree="14">
      <Node pos="s" depth="0" NCoef="0" IVar="24" Cut="2.2514642775058746e-01" cType="1" res="-4.5485681766876951e-05" rms="3.5990008711814880e-01" purity="5.0000000000000000e-01" nType="0">
        <Node pos="l" depth="1" NCoef="0" IVar="19" Cut="1.7081577330827713e-02" cType="1" res="9.1191343963146210e-02" rms="3.3283597230911255e-01" purity="8.3766472339630127e-01" nType="0">
          <Node pos="l" depth="2" NCoef="0" IVar="24" Cut="1.7201755940914154e-01" cType="1" res="1.1476185172796249e-01" rms="3.0598053336143494e-01" purity="8.7466597557067871e-01" nType="0">
            <Node pos="l" depth="3" NCoef="0" IVar="-1" Cut="0.0000000000000000e+00" cType="1" res="4.0364287793636322e-02" rms="2.6830193400382996e-01" purity="9.0704923868179321e-01" nType="-99"/>
            <Node pos="r" depth="3" NCoef="0" IVar="-1" Cut="0.0000000000000000e+00" cType="1" res="1.4227232895791531e-02" rms="3.8201203942298889e-01" purity="7.8864467144012451e-01" nType="-99"/>
          </Node>
          <Node pos="r" depth="2" NCoef="0" IVar="-1" Cut="0.0000000000000000e+00" cType="1" res="8.1295770360156894e-04" rms="4.0620037913322449e-01" purity="6.9956046342849731e-01" nType="-99"/>
        </Node>
        <Node pos="r" depth="1" NCoef="0" IVar="6" Cut="1.1957557201385498e+00" cType="1" res="-6.7573674023151398e-02" rms="3.6425724625587463e-01" purity="2.5008025765419006e-01" nType="0">
          <Node pos="l" depth="2" NCoef="0" IVar="17" Cut="-8.7018676102161407e-02" cType="1" res="-8.5395745933055878e-02" rms="3.5411798954010010e-01" purity="2.2025553882122040e-01" nType="0">
            <Node pos="l" depth="3" NCoef="0" IVar="-1" Cut="0.0000000000000000e+00" cType="1" res="1.2421168386936188e-02" rms="4.3546408414840698e-01" purity="4.6156072616577148e-01" nType="-99"/>
            <Node pos="r" depth="3" NCoef="0" IVar="-1" Cut="0.0000000000000000e+00" cType="1" res="-2.8714399784803391e-02" rms="3.3448100090026855e-01" purity="1.8272604048252106e-01" nType="-99"/>
          </Node>
          <Node pos="r" depth="2" NCoef="0" IVar="-1" Cut="0.0000000000000000e+00" cType="1" res="3.2437261193990707e-02" rms="4.1303494572639465e-01" purity="6.0519129037857056e-01" nType="-99"/>
        </Node>
      </Node>
    </BinaryTree>
    <BinaryTree type="DecisionTree" boostWeight="1.0000000000000000e+00" itree="15">
      <Node pos="s" depth="0" NCoef="0" IVar="24" Cut="3.2251304388046265e-01" cType="1" res="-2.4051585569395684e-05" rms="3.5714682936668396e-01" purity="5.0000000000000000e-01" nType="0">
        <Node pos="l" depth="1" NCoef="0" IVar="21" Cut="2.4197581410408020e-01" cType="1" res="5.5242002010345459e-02" rms="3.7146487832069397e-01" purity="7.2119909524917603e-01" nType="0">
          <Node pos="l" depth="2" NCoef="0" IVar="9" Cut="6.3395838737487793e+00" cType="1" res="-6.0191549360752106e-02" rms="4.1713705658912659e-01" purity="5.1011502742767334e-01" nType="0">
            <Node pos="l" depth="3" NCoef="0" IVar="-1" Cut="0.0000000000000000e+00" cType="1" res="-4.5872963964939117e-02" rms="4.1778185963630676e-01" purity="3.2655024528503418e-01" nType="-99"/>
            <Node pos="r" depth="3" NCoef="0" IVar="-1" Cut="0.0000000000000000e+00" cType="1" res="-1.7845047113951296e-04" rms="4.0217408537864685e-01" purity="5.8639335632324219e-01" nType="-99"/>
          </Node>
          <Node pos="r" depth="2" NCoef="0" IVar="10" Cut="1.1923710256814957e-01" cType="1" res="9.0517178177833557e-02" rms="3.4880286455154419e-01" purity="7.8570395708084106e-01" nType="0">
            <Node pos="l" depth="3" NCoef="0" IVar="-1" Cut="0.0000000000000000e+00" cType="1" res="3.0866527929902077e-02" rms="3.2954841852188110e-01" purity="8.3312320709228516e-01" nType="-99"/>
            <Node pos="r" depth="3" NCoef="0" IVar="-1" Cut="0.0000000000000000e+00" cType="1" res="-2.1198784932494164e-02" rms="4.4772052764892578e-01" purity="3.5101374983787537e-01" nType="-99"/>
          </Node>
        </Node>
        <Node pos="r" depth="1" NCoef="0" IVar="22" Cut="-3.6534294486045837e-02" cType="1" res="-9.1241732239723206e-02" rms="3.1140530109405518e-01" purity="1.3490666449069977e-01" nType="0">
          <Node pos="l" depth="2" NCoef="0" IVar="-1" Cut="0.0000000000000000e+00" cType="1" res="2.5910669937729836e-03" rms="4.0651568770408630e-01" purity="2.9528322815895081e-01" nType="-99"/>
          <Node pos="r" depth="2" NCoef="0" IVar="15" Cut="1.2805049121379852e-01" cType="1" res="-1.1472854763269424e-01" rms="2.7967676520347595e-01" purity="9.7745031118392944e-02" nType="0">
            <Node pos="l" depth="3" NCoef="0" IVar="-1" Cut="0.0000000000000000e+00" cType="1" res="-4.1118927299976349e-02" rms="2.5133484601974487e-01" purity="7.6108559966087341e-02" nType="-99"/>
            <Node pos="r" depth="3" NCoef="0" IVar="-1" Cut="0.0000000000000000e+00" cType="1" res="2.7194496942684054e-04" rms="3.9012366533279419e-01" purity="2.2655981779098511e-01" nType="-99"/>
          </Node>
        </Node>
      </Node>
    </BinaryTree>
    <BinaryTree type="DecisionTree" boostWeight="1.0000000000000000e+00" itree="16">
      <Node pos="s" depth="0" NCoef="0" IVar="19" Cut="2.5294905528426170e-02" cType="1" res="-4.3910571548622102e-05" rms="3.5401311516761780e-01" purity="5.0000000000000000e-01" nType="0">
        <Node pos="l" depth="1" NCoef="0" IVar="21" Cut="2.1666432917118073e-01" cType="1" res="4.7843918204307556e-02" rms="3.5567039251327515e-01" purity="6.2516033649444580e-01" nType="0">
          <Node pos="l" depth="2" NCoef="0" IVar="25" Cut="8.2981979846954346e-01" cType="1" res="-6.7734405398368835e-02" rms="3.6896967887878418e-01" purity="3.4509322047233582e-01" nType="0">
            <Node pos="l" depth="3" NCoef="0" IVar="-1" Cut="0.0000000000000000e+00" cType="1" res="1.0033592581748962e-02" rms="4.3077528476715088e-01" purity="6.2518477439880371e-01" nType="-99"/>
            <Node pos="r" depth="3" NCoef="0" IVar="-1" Cut="0.0000000000000000e+00" cType="1" res="-3.4776907414197922e-02" rms="3.1757119297981262e-01" purity="2.0020318031311035e-01" nType="-99"/>
          </Node>
          <Node pos="r" depth="2" NCoef="0" IVar="22" Cut="1.2088960409164429e-01" cType="1" res="8.1046514213085175e-02" rms="3.4466361999511719e-01" purity="7.0561617612838745e-01" nType="0">
            <Node pos="l" depth="3" NCoef="0" IVar="-1" Cut="0.0000000000000000e+00" cType="1" res="3.1894084066152573e-02" rms="3.3135417103767395e-01" purity="7.8362023830413818e-01" nType="-99"/>
            <Node pos="r" depth="3" NCoef="0" IVar="-1" Cut="0.0000000000000000e+00" cType="1" res="-9.0929269790649414e-03" rms="3.6681216955184937e-01" purity="4.2680487036705017e-01" nType="-99"/>
          </Node>
        </Node>
        <Node pos="r" depth="1" NCoef="0" IVar="25" Cut="8.6689054965972900e-01" cType="1" res="-9.3379929661750793e-02" rms="3.3143869042396545e-01" purity="2.5605568289756775e-01" nType="0">
          <Node pos="l" depth="2" NCoef="0" IVar="5" Cut="7.7825784683227539e-01" cType="1" res="-7.1593485772609711e-03" rms="3.9709794521331787e-01" purity="5.2203857898712158e-01" nType="0">
            <Node pos="l" depth="3" NCoef="0" IVar="-1" Cut="0.0000000000000000e+00" cType="1" res="-1.9891627132892609e-02" rms="3.7691271305084229e-01" purity="4.0540510416030884e-01" nType="-99"/>
            <Node pos="r" depth="3" NCoef="0" IVar="-1" Cut="0.0000000000000000e+00" cType="1" res="2.0882077515125275e-02" rms="4.0299567580223083e-01" purity="6.7211204767227173e-01" nType="-99"/>
          </Node>
          <Node pos="r" depth="2" NCoef="0" IVar="6" Cut="2.0016437396407127e-02" cType="1" res="-1.3690242171287537e-01" rms="2.8294628858566284e-01" purity="1.2179265171289444e-01" nType="0">
            <Node pos="l" depth="3" NCoef="0" IVar="-1" Cut="0.0000000000000000e+00" cType="1" res="-2.1452017128467560e-02" rms="3.2472339272499084e-01" purity="1.5656565129756927e-01" nType="-99"/>
            <Node pos="r" depth="3" NCoef="0" IVar="-1" Cut="0.0000000000000000e+00" cType="1" res="-4.9292895942926407e-02" rms="2.5177550315856934e-01" purity="1.0392332077026367e-01" nType="-99"/>
          </Node>
        </Node>
      </Node>
    </BinaryTree>
    <BinaryTree type="DecisionTree" boostWeight="1.0000000000000000e+00" itree="17">
      <Node pos="s" depth="0" NCoef="0" IVar="24" Cut="1.9918200373649597e-01" cType="1" res="-6.5561871451791376e-05" rms="3.5071799159049988e-01" purity="5.0000000000000000e-01" nType="0">
        <Node pos="l" depth="1" NCoef="0" IVar="7" Cut="1.7799098491668701e+00" cType="1" res="8.2028634846210480e-02" rms="3.1529837846755981e-01" purity="8.5284078121185303e-01" nType="0">
          <Node pos="l" depth="2" NCoef="0" IVar="10" Cut="8.8940247893333435e-02" cType="1" res="6.0752838850021362e-02" rms="3.3015409111976624e-01" purity="8.3404946327209473e-01" nType="0">
            <Node pos="l" depth="3" NCoef="0" IVar="-1" Cut="0.0000000000000000e+00" cType="1" res="2.8201561421155930e-02" rms="2.9171630740165710e-01" purity="8.8642644882202148e-01" nType="-99"/>
            <Node pos="r" depth="3" NCoef="0" IVar="-1" Cut="0.0000000000000000e+00" cType="1" res="-6.9778095930814743e-03" rms="4.1552916169166565e-01" purity="6.7261737585067749e-01" nType="-99"/>
          </Node>
          <Node pos="r" depth="2" NCoef="0" IVar="-1" Cut="0.0000000000000000e+00" cType="1" res="5.0051189959049225e-02" rms="2.2344166040420532e-01" purity="9.3085092306137085e-01" nType="-99"/>
        </Node>
        <Node pos="r" depth="1" NCoef="0" IVar="9" Cut="5.8882741928100586e+00" cType="1" res="-4.7156088054180145e-02" rms="3.6118048429489136e-01" purity="2.9760497808456421e-01" nType="0">
          <Node pos="l" depth="2" NCoef="0" IVar="17" Cut="6.1980761587619781e-02" cType="1" res="-1.8016883730888367e-01" rms="2.8850033879280090e-01" purity="1.3087438046932220e-01" nType="0">
            <Node pos="l" depth="3" NCoef="0" IVar="-1" Cut="0.0000000000000000e+00" cType="1" res="-6.0348607599735260e-02" rms="2.6885673403739929e-01" purity="1.0751365125179291e-01" nType="-99"/>
            <Node pos="r" depth="3" NCoef="0" IVar="-1" Cut="0.0000000000000000e+00" cType="1" res="-3.0687389895319939e-02" rms="3.0028253793716431e-01" purity="1.6720488667488098e-01" nType="-99"/>
          </Node>
          <Node pos="r" depth="2" NCoef="0" IVar="10" Cut="1.0645382106304169e-01" cType="1" res="-2.0298106595873833e-02" rms="3.6836394667625427e-01" purity="3.3127129077911377e-01" nType="0">
            <Node pos="l" depth="3" NCoef="0" IVar="-1" Cut="0.0000000000000000e+00" cType="1" res="1.7128932522609830e-03" rms="3.7628209590911865e-01" purity="3.6971494555473328e-01" nType="-99"/>
            <Node pos="r" depth="3" NCoef="0" IVar="-1" Cut="0.0000000000000000e+00" cType="1" res="-5.2301127463579178e-02" rms="2.4846968054771423e-01" purity="7.8612335026264191e-02" nType="-99"/>
          </Node>
        </Node>
      </Node>
    </BinaryTree>
    <BinaryTree type="DecisionTree" boostWeight="1.0000000000000000e+00" itree="18">
      <Node pos="s" depth="0" NCoef="0" IVar="19" Cut="1.3827405869960785e-02" cType="1" res="-5.8769139286596328e-05" rms="3.4795925021171570e-01" purity="5.0000000000000000e-01" nType="0">
        <Node pos="l" depth="1" NCoef="0" IVar="24" Cut="3.8599249720573425e-01" cType="1" res="5.1238175481557846e-02" rms="3.4301120042800903e-01" purity="6.5054786205291748e-01" nType="0">
          <Node pos="l" depth="2" NCoef="0" IVar="9" Cut="6.6591167449951172e+00" cType="1" res="7.4773669242858887e-02" rms="3.4808462858200073e-01" purity="7.4537569284439087e-01" nType="0">
            <Node pos="l" depth="3" NCoef="0" IVar="-1" Cut="0.0000000000000000e+00" cType="1" res="4.2431438341736794e-03" rms="3.6156317591667175e-01" purity="6.9070392847061157e-01" nType="-99"/>
            <Node pos="r" depth="3" NCoef="0" IVar="-1" Cut="0.0000000000000000e+00" cType="1" res="3.5081535577774048e-02" rms="3.2757961750030518e-01" purity="7.9205650091171265e-01" nType="-99"/>
          </Node>
          <Node pos="r" depth="2" NCoef="0" IVar="24" Cut="4.6559053659439087e-01" cType="1" res="-8.5065588355064392e-02" rms="2.7488902211189270e-01" purity="1.0136082768440247e-01" nType="0">
            <Node pos="l" depth="3" NCoef="0" IVar="-1" Cut="0.0000000000000000e+00" cType="1" res="-4.8950682394206524e-03" rms="3.6566859483718872e-01" purity="1.9233684241771698e-01" nType="-99"/>
            <Node pos="r" depth="3" NCoef="0" IVar="-1" Cut="0.0000000000000000e+00" cType="1" res="-5.6050796061754227e-02" rms="9.4710528850555420e-02" purity="1.1830083094537258e-02" nType="-99"/>
          </Node>
        </Node>
        <Node pos="r" depth="1" NCoef="0" IVar="21" Cut="3.4756302833557129e-01" cType="1" res="-6.7610166966915131e-02" rms="3.4285503625869751e-01" purity="3.0174800753593445e-01" nType="0">
          <Node pos="l" depth="2" NCoef="0" IVar="5" Cut="9.4885832071304321e-01" cType="1" res="-1.1065493524074554e-01" rms="3.1921732425689697e-01" purity="2.1054683625698090e-01" nType="0">
            <Node pos="l" depth="3" NCoef="0" IVar="-1" Cut="0.0000000000000000e+00" cType="1" res="-4.2569305747747421e-02" rms="2.8343424201011658e-01" purity="1.3926902413368225e-01" nType="-99"/>
            <Node pos="r" depth="3" NCoef="0" IVar="-1" Cut="0.0000000000000000e+00" cType="1" res="-4.0236368658952415e-04" rms="4.0177476406097412e-01" purity="4.5794221758842468e-01" nType="-99"/>
          </Node>
          <Node pos="r" depth="2" NCoef="0" IVar="22" Cut="3.7779569625854492e-02" cType="1" res="-4.2327537084929645e-04" rms="3.6683881282806396e-01" purity="4.4410035014152527e-01" nType="0">
            <Node pos="l" depth="3" NCoef="0" IVar="-1" Cut="0.0000000000000000e+00" cType="1" res="2.8207326307892799e-02" rms="3.6122775077819824e-01" purity="7.1309334039688110e-01" nType="-99"/>
            <Node pos="r" depth="3" NCoef="0" IVar="-1" Cut="0.0000000000000000e+00" cType="1" res="-2.3569433018565178e-02" rms="3.4970337152481079e-01" purity="2.4650435149669647e-01" nType="-99"/>
          </Node>
        </Node>
      </Node>
    </BinaryTree>
    <BinaryTree type="DecisionTree" boostWeight="1.0000000000000000e+00" itree="19">
      <Node pos="s" depth="0" NCoef="0" IVar="25" Cut="8.3817058801651001e-01" cType="1" res="-9.4933835498522967e-05" rms="3.4497439861297607e-01" purity="5.0000000000000000e-01" nType="0">
        <Node pos="l" depth="1" NCoef="0" IVar="11" Cut="-7.9053761437535286e-03" cType="1" res="7.1859046816825867e-02" rms="3.4257501363754272e-01" purity="7.6575660705566406e-01" nType="0">
          <Node pos="l" depth="2" NCoef="0" IVar="-1" Cut="0.0000000000000000e+00" cType="1" res="4.9244161695241928e-02" rms="3.3046647906303406e-01" purity="8.0753678083419800e-01" nType="-99"/>
          <Node pos="r" depth="2" NCoef="0" IVar="21" Cut="2.5085934996604919e-01" cType="1" res="5.0028681755065918e-02" rms="3.4038743376731873e-01" purity="7.5793021917343140e-01" nType="0">
            <Node pos="l" depth="3" NCoef="0" IVar="-1" Cut="0.0000000000000000e+00" cType="1" res="-1.1036172509193420e-02" rms="4.0847289562225342e-01" purity="5.5513805150985718e-01" nType="-99"/>
            <Node pos="r" depth="3" NCoef="0" IVar="-1" Cut="0.0000000000000000e+00" cType="1" res="2.5524949654936790e-02" rms="3.0590820312500000e-01" purity="8.2960379123687744e-01" nType="-99"/>
          </Node>
        </Node>
        <Node pos="r" depth="1" NCoef="0" IVar="21" Cut="2.7899751067161560e-01" cType="1" res="-4.3451733887195587e-02" rms="3.3911928534507751e-01" purity="3.3986487984657288e-01" nType="0">
          <Node pos="l" depth="2" NCoef="0" IVar="10" Cut="8.0274261534214020e-02" cType="1" res="-1.0580275952816010e-01" rms="2.9429811239242554e-01" purity="1.8944603204727173e-01" nType="0">
            <Node pos="l" depth="3" NCoef="0" IVar="-1" Cut="0.0000000000000000e+00" cType="1" res="-2.1281544119119644e-02" rms="3.1261900067329407e-01" purity="2.4261990189552307e-01" nType="-99"/>
            <Node pos="r" depth="3" NCoef="0" IVar="-1" Cut="0.0000000000000000e+00" cType="1" res="-5.5591534823179245e-02" rms="2.3985019326210022e-01" purity="8.5370376706123352e-02" nType="-99"/>
          </Node>
          <Node pos="r" depth="2" NCoef="0" IVar="9" Cut="6.3609032630920410e+00" cType="1" res="6.1826412566006184e-03" rms="3.6337825655937195e-01" purity="4.5960545539855957e-01" nType="0">
            <Node pos="l" depth="3" NCoef="0" IVar="-1" Cut="0.0000000000000000e+00" cType="1" res="-2.9398832470178604e-02" rms="3.3872443437576294e-01" purity="3.1722402572631836e-01" nType="-99"/>
            <Node pos="r" depth="3" NCoef="0" IVar="-1" Cut="0.0000000000000000e+00" cType="1" res="1.5090120024979115e-02" rms="3.6410224437713623e-01" purity="5.2294111251831055e-01" nType="-99"/>
          </Node>
        </Node>
      </Node>
    </BinaryTree>
    <BinaryTree type="DecisionTree" boostWeight="1.0000000000000000e+00" itree="20">
      <Node pos="s" depth="0" NCoef="0" IVar="19" Cut="2.5294905528426170e-02" cType="1" res="-1.0706279135774821e-04" rms="3.4230965375900269e-01" purity="5.0000000000000000e-01" nType="0">
        <Node pos="l" depth="1" NCoef="0" IVar="21" Cut="2.1666432917118073e-01" cType="1" res="3.6976944655179977e-02" rms="3.4644350409507751e-01" purity="6.2516033649444580e-01" nType="0">
          <Node pos="l" depth="2" NCoef="0" IVar="9" Cut="7.2923560142517090e+00" cType="1" res="-5.6887947022914886e-02" rms="3.6057728528976440e-01" purity="3.4509322047233582e-01" nType="0">
            <Node pos="l" depth="3" NCoef="0" IVar="-1" Cut="0.0000000000000000e+00" cType="1" res="-2.9983881860971451e-02" rms="3.5730504989624023e-01" purity="2.8731057047843933e-01" nType="-99"/>
            <Node pos="r" depth="3" NCoef="0" IVar="-1" Cut="0.0000000000000000e+00" cType="1" res="9.1902809217572212e-03" rms="3.4779509902000427e-01" purity="4.4103243947029114e-01" nType="-99"/>
          </Node>
          <Node pos="r" depth="2" NCoef="0" IVar="22" Cut="1.2088960409164429e-01" cType="1" res="6.3941843807697296e-02" rms="3.3748221397399902e-01" purity="7.0561617612838745e-01" nType="0">
            <Node pos="l" depth="3" NCoef="0" IVar="-1" Cut="0.0000000000000000e+00" cType="1" res="2.7163935825228691e-02" rms="3.2585427165031433e-01" purity="7.8362023830413818e-01" nType="-99"/>
            <Node pos="r" depth="3" NCoef="0" IVar="-1" Cut="0.0000000000000000e+00" cType="1" res="-8.6101545020937920e-03" rms="3.6101099848747253e-01" purity="4.2680487036705017e-01" nType="-99"/>
          </Node>
        </Node>
        <Node pos="r" depth="1" NCoef="0" IVar="25" Cut="8.6689054965972900e-01" cType="1" res="-7.2385840117931366e-02" rms="3.2205888628959656e-01" purity="2.5605568289756775e-01" nType="0">
          <Node pos="l" depth="2" NCoef="0" IVar="2" Cut="1.4904639720916748e+00" cType="1" res="-4.4108242727816105e-03" rms="3.8621154427528381e-01" purity="5.2203857898712158e-01" nType="0">
            <Node pos="l" depth="3" NCoef="0" IVar="-1" Cut="0.0000000000000000e+00" cType="1" res="1.5315736643970013e-02" rms="3.8382709026336670e-01" purity="6.3171535730361938e-01" nType="-99"/>
            <Node pos="r" depth="3" NCoef="0" IVar="-1" Cut="0.0000000000000000e+00" cType="1" res="-1.9270855933427811e-02" rms="3.7621310353279114e-01" purity="3.9946058392524719e-01" nType="-99"/>
          </Node>
          <Node pos="r" depth="2" NCoef="0" IVar="6" Cut="2.0016437396407127e-02" cType="1" res="-1.0669831931591034e-01" rms="2.7798604965209961e-01" purity="1.2179265171289444e-01" nType="0">
            <Node pos="l" depth="3" NCoef="0" IVar="-1" Cut="0.0000000000000000e+00" cType="1" res="-1.5707561746239662e-02" rms="3.2080060243606567e-01" purity="1.5656565129756927e-01" nType="-99"/>
            <Node pos="r" depth="3" NCoef="0" IVar="-1" Cut="0.0000000000000000e+00" cType="1" res="-4.3772168457508087e-02" rms="2.4747322499752045e-01" purity="1.0392332077026367e-01" nType="-99"/>
          </Node>
        </Node>
      </Node>
    </BinaryTree>
    <BinaryTree type="DecisionTree" boostWeight="1.0000000000000000e+00" itree="21">
      <Node pos="s" depth="0" NCoef="0" IVar="24" Cut="3.7444189190864563e-01" cType="1" res="-1.1290863039903343e-04" rms="3.4010124206542969e-01" purity="5.0000000000000000e-01" nType="0">
        <Node pos="l" depth="1" NCoef="0" IVar="10" Cut="9.5254227519035339e-02" cType="1" res="2.9374644160270691e-02" rms="3.6252745985984802e-01" purity="6.5499180555343628e-01" nType="0">
          <Node pos="l" depth="2" NCoef="0" IVar="9" Cut="6.4529786109924316e+00" cType="1" res="5.7515662163496017e-02" rms="3.5198113322257996e-01" purity="7.1136486530303955e-01" nType="0">
            <Node pos="l" depth="3" NCoef="0" IVar="-1" Cut="0.0000000000000000e+00" cType="1" res="-7.1435272693634033e-03" rms="3.7773814797401428e-01" purity="5.9819644689559937e-01" nType="-99"/>
            <Node pos="r" depth="3" NCoef="0" IVar="-1" Cut="0.0000000000000000e+00" cType="1" res="3.4483525902032852e-02" rms="3.1793531775474548e-01" purity="7.9512006044387817e-01" nType="-99"/>
          </Node>
          <Node pos="r" depth="2" NCoef="0" IVar="21" Cut="3.6775293946266174e-01" cType="1" res="-8.6307838559150696e-02" rms="3.8179197907447815e-01" purity="4.2325231432914734e-01" nType="0">
            <Node pos="l" depth="3" NCoef="0" IVar="-1" Cut="0.0000000000000000e+00" cType="1" res="-5.3624279797077179e-02" rms="3.1398949027061462e-01" purity="2.3215389251708984e-01" nType="-99"/>
            <Node pos="r" depth="3" NCoef="0" IVar="-1" Cut="0.0000000000000000e+00" cType="1" res="1.8887374608311802e-04" rms="4.0277099609375000e-01" purity="5.6270933151245117e-01" nType="-99"/>
          </Node>
        </Node>
        <Node pos="r" depth="1" NCoef="0" IVar="24" Cut="4.7085228562355042e-01" cType="1" res="-7.9469785094261169e-02" rms="2.5421491265296936e-01" purity="8.2886204123497009e-02" nType="0">
          <Node pos="l" depth="2" NCoef="0" IVar="9" Cut="7.0341615676879883e+00" cType="1" res="-4.0373869240283966e-02" rms="3.2547053694725037e-01" purity="1.4264221489429474e-01" nType="0">
            <Node pos="l" depth="3" NCoef="0" IVar="-1" Cut="0.0000000000000000e+00" cType="1" res="-3.4880422055721283e-02" rms="2.4817568063735962e-01" purity="7.2758264839649200e-02" nType="-99"/>
            <Node pos="r" depth="3" NCoef="0" IVar="-1" Cut="0.0000000000000000e+00" cType="1" res="8.2853613421320915e-03" rms="3.8694250583648682e-01" purity="2.2439512610435486e-01" nType="-99"/>
          </Node>
          <Node pos="r" depth="2" NCoef="0" IVar="10" Cut="7.9048797488212585e-02" cType="1" res="-1.2123633921146393e-01" rms="1.3084502518177032e-01" purity="1.9048264250159264e-02" nType="0">
            <Node pos="l" depth="3" NCoef="0" IVar="-1" Cut="0.0000000000000000e+00" cType="1" res="-5.8433786034584045e-02" rms="2.6735343039035797e-02" purity="0.0000000000000000e+00" nType="-99"/>
            <Node pos="r" depth="3" NCoef="0" IVar="-1" Cut="0.0000000000000000e+00" cType="1" res="-3.9434041827917099e-02" rms="1.9948175549507141e-01" purity="4.6706192195415497e-02" nType="-99"/>
          </Node>
        </Node>
      </Node>
    </BinaryTree>
    <BinaryTree type="DecisionTree" boostWeight="1.0000000000000000e+00" itree="22">
      <Node pos="s" depth="0" NCoef="0" IVar="24" Cut="1.8619978427886963e-01" cType="1" res="-1.4695801655761898e-04" rms="3.3708974719047546e-01" purity="5.0000000000000000e-01" nType="0">
        <Node pos="l" depth="1" NCoef="0" IVar="1" Cut="1.8687198162078857e+00" cType="1" res="6.5342731773853302e-02" rms="3.0270966887474060e-01" purity="8.6242610216140747e-01" nType="0">
          <Node pos="l" depth="2" NCoef="0" IVar="18" Cut="5.9599183499813080e-02" cType="1" res="8.5189096629619598e-02" rms="2.8132677078247070e-01" purity="8.8716351985931396e-01" nType="0">
            <Node pos="l" depth="3" NCoef="0" IVar="-1" Cut="0.0000000000000000e+00" cType="1" res="4.8184707760810852e-02" rms="1.9062633812427521e-01" purity="9.5708763599395752e-01" nType="-99"/>
            <Node pos="r" depth="3" NCoef="0" IVar="-1" Cut="0.0000000000000000e+00" cType="1" res="2.0342411473393440e-02" rms="3.1194379925727844e-01" purity="8.5473936796188354e-01" nType="-99"/>
          </Node>
          <Node pos="r" depth="2" NCoef="0" IVar="-1" Cut="0.0000000000000000e+00" cType="1" res="-4.4459113851189613e-03" rms="3.6565363407135010e-01" purity="7.6349461078643799e-01" nType="-99"/>
        </Node>
        <Node pos="r" depth="1" NCoef="0" IVar="15" Cut="1.0842230170965195e-01" cType="1" res="-3.2883223146200180e-02" rms="3.4843832254409790e-01" purity="3.1883445382118225e-01" nType="0">
          <Node pos="l" depth="2" NCoef="0" IVar="5" Cut="1.6057602167129517e+00" cType="1" res="-6.0338914394378662e-02" rms="3.3533823490142822e-01" purity="2.7096128463745117e-01" nType="0">
            <Node pos="l" depth="3" NCoef="0" IVar="-1" Cut="0.0000000000000000e+00" cType="1" res="-2.2645000368356705e-02" rms="3.2484251260757446e-01" purity="2.3658591508865356e-01" nType="-99"/>
            <Node pos="r" depth="3" NCoef="0" IVar="-1" Cut="0.0000000000000000e+00" cType="1" res="2.1505543962121010e-02" rms="4.0040746331214905e-01" purity="6.2456387281417847e-01" nType="-99"/>
          </Node>
          <Node pos="r" depth="2" NCoef="0" IVar="9" Cut="6.3417158126831055e+00" cType="1" res="6.7037716507911682e-02" rms="3.7587398290634155e-01" purity="4.9306175112724304e-01" nType="0">
            <Node pos="l" depth="3" NCoef="0" IVar="-1" Cut="0.0000000000000000e+00" cType="1" res="-1.4355147257447243e-02" rms="3.7341183423995972e-01" purity="3.0222842097282410e-01" nType="-99"/>
            <Node pos="r" depth="3" NCoef="0" IVar="-1" Cut="0.0000000000000000e+00" cType="1" res="3.3037059009075165e-02" rms="3.6362999677658081e-01" purity="5.8356434106826782e-01" nType="-99"/>
          </Node>
        </Node>
      </Node>
    </BinaryTree>
    <BinaryTree type="DecisionTree" boostWeight="1.0000000000000000e+00" itree="23">
      <Node pos="s" depth="0" NCoef="0" IVar="2" Cut="1.1008035391569138e-01" cType="1" res="-1.1353650916134939e-04" rms="3.3523815870285034e-01" purity="5.0000000000000000e-01" nType="0">
        <Node pos="l" depth="1" NCoef="0" IVar="9" Cut="6.8504738807678223e+00" cType="1" res="9.4039104878902435e-02" rms="2.9394662380218506e-01" purity="7.6902848482131958e-01" nType="0">
          <Node pos="l" depth="2" NCoef="0" IVar="-1" Cut="0.0000000000000000e+00" cType="1" res="1.6473965719342232e-02" rms="2.9902568459510803e-01" purity="7.4019908905029297e-01" nType="-99"/>
          <Node pos="r" depth="2" NCoef="0" IVar="-1" Cut="0.0000000000000000e+00" cType="1" res="4.5309070497751236e-02" rms="2.7966359257698059e-01" purity="8.0228471755981445e-01" nType="-99"/>
        </Node>
        <Node pos="r" depth="1" NCoef="0" IVar="1" Cut="1.2960417568683624e-01" cType="1" res="-2.1844545379281044e-02" rms="3.4038609266281128e-01" purity="4.3790659308433533e-01" nType="0">
          <Node pos="l" depth="2" NCoef="0" IVar="9" Cut="6.3182692527770996e+00" cType="1" res="7.4772901833057404e-02" rms="3.3242070674896240e-01" purity="7.3963129520416260e-01" nType="0">
            <Node pos="l" depth="3" NCoef="0" IVar="-1" Cut="0.0000000000000000e+00" cType="1" res="-7.7980646165087819e-04" rms="3.6116370558738708e-01" purity="6.5067422389984131e-01" nType="-99"/>
            <Node pos="r" depth="3" NCoef="0" IVar="-1" Cut="0.0000000000000000e+00" cType="1" res="3.5669226199388504e-02" rms="3.0863288044929504e-01" purity="7.8628081083297729e-01" nType="-99"/>
          </Node>
          <Node pos="r" depth="2" NCoef="0" IVar="7" Cut="1.3245841264724731e+00" cType="1" res="-4.4408805668354034e-02" rms="3.3826768398284912e-01" purity="3.6744105815887451e-01" nType="0">
            <Node pos="l" depth="3" NCoef="0" IVar="-1" Cut="0.0000000000000000e+00" cType="1" res="-1.8324606120586395e-02" rms="3.3551859855651855e-01" purity="3.1927499175071716e-01" nType="-99"/>
            <Node pos="r" depth="3" NCoef="0" IVar="-1" Cut="0.0000000000000000e+00" cType="1" res="2.5549901649355888e-02" rms="3.3339950442314148e-01" purity="7.9774248600006104e-01" nType="-99"/>
          </Node>
        </Node>
      </Node>
    </BinaryTree>
    <BinaryTree type="DecisionTree" boostWeight="1.0000000000000000e+00" itree="24">
      <Node pos="s" depth="0" NCoef="0" IVar="21" Cut="2.0400857925415039e-01" cType="1" res="-8.0822617746889591e-05" rms="3.3346992731094360e-01" purity="5.0000000000000000e-01" nType="0">
        <Node pos="l" depth="1" NCoef="0" IVar="18" Cut="9.1618299484252930e-02" cType="1" res="-8.1785663962364197e-02" rms="3.1292143464088440e-01" purity="2.2515685856342316e-01" nType="0">
          <Node pos="l" depth="2" NCoef="0" IVar="-1" Cut="0.0000000000000000e+00" cType="1" res="-5.7618907885625958e-04" rms="3.4195354580879211e-01" purity="3.6293083429336548e-01" nType="-99"/>
          <Node pos="r" depth="2" NCoef="0" IVar="16" Cut="-3.1107967719435692e-02" cType="1" res="-1.2029554694890976e-01" rms="2.9016485810279846e-01" purity="1.5874549746513367e-01" nType="0">
            <Node pos="l" depth="3" NCoef="0" IVar="-1" Cut="0.0000000000000000e+00" cType="1" res="-1.6626339405775070e-02" rms="2.9609423875808716e-01" purity="2.1920646727085114e-01" nType="-99"/>
            <Node pos="r" depth="3" NCoef="0" IVar="-1" Cut="0.0000000000000000e+00" cType="1" res="-5.0358537584543228e-02" rms="2.7752456068992615e-01" purity="1.2101407349109650e-01" nType="-99"/>
          </Node>
        </Node>
        <Node pos="r" depth="1" NCoef="0" IVar="10" Cut="1.0718093067407608e-01" cType="1" res="2.4087045341730118e-02" rms="3.3551800251007080e-01" purity="5.8129715919494629e-01" nType="0">
          <Node pos="l" depth="2" NCoef="0" IVar="9" Cut="5.9118056297302246e+00" cType="1" res="4.3521396815776825e-02" rms="3.2715848088264465e-01" purity="6.2371999025344849e-01" nType="0">
            <Node pos="l" depth="3" NCoef="0" IVar="-1" Cut="0.0000000000000000e+00" cType="1" res="-2.2150037810206413e-02" rms="3.3218550682067871e-01" purity="4.3576818704605103e-01" nType="-99"/>
            <Node pos="r" depth="3" NCoef="0" IVar="-1" Cut="0.0000000000000000e+00" cType="1" res="2.3087590932846069e-02" rms="3.1984704732894897e-01" purity="6.6925579309463501e-01" nType="-99"/>
          </Node>
          <Node pos="r" depth="2" NCoef="0" IVar="1" Cut="1.8449586629867554e+00" cType="1" res="-1.1191155016422272e-01" rms="3.6083146929740906e-01" purity="2.8442925214767456e-01" nType="0">
            <Node pos="l" depth="3" NCoef="0" IVar="-1" Cut="0.0000000000000000e+00" cType="1" res="-7.0618363097310066e-03" rms="4.0709000825881958e-01" purity="4.4870948791503906e-01" nType="-99"/>
            <Node pos="r" depth="3" NCoef="0" IVar="-1" Cut="0.0000000000000000e+00" cType="1" res="-5.6741189211606979e-02" rms="2.6587831974029541e-01" purity="9.0268112719058990e-02" nType="-99"/>
          </Node>
        </Node>
      </Node>
    </BinaryTree>
    <BinaryTree type="DecisionTree" boostWeight="1.0000000000000000e+00" itree="25">
      <Node pos="s" depth="0" NCoef="0" IVar="18" Cut="5.8897480368614197e-02" cType="1" res="-1.0281625145580620e-04" rms="3.3086007833480835e-01" purity="5.0000000000000000e-01" nType="0">
        <Node pos="l" depth="1" NCoef="0" IVar="15" Cut="2.9909510165452957e-02" cType="1" res="7.2399750351905823e-02" rms="3.1424725055694580e-01" purity="6.6114473342895508e-01" nType="0">
          <Node pos="l" depth="2" NCoef="0" IVar="24" Cut="3.6190080642700195e-01" cType="1" res="1.6456479206681252e-02" rms="3.1009498238563538e-01" purity="5.7925677299499512e-01" nType="0">
            <Node pos="l" depth="3" NCoef="0" IVar="-1" Cut="0.0000000000000000e+00" cType="1" res="2.0340953022241592e-02" rms="3.3325171470642090e-01" purity="7.8184568881988525e-01" nType="-99"/>
            <Node pos="r" depth="3" NCoef="0" IVar="-1" Cut="0.0000000000000000e+00" cType="1" res="-4.1563652455806732e-02" rms="1.8962246179580688e-01" purity="6.0980737209320068e-02" nType="-99"/>
          </Node>
          <Node pos="r" depth="2" NCoef="0" IVar="17" Cut="1.4437731355428696e-02" cType="1" res="1.4676427841186523e-01" rms="3.0414989590644836e-01" purity="7.6999717950820923e-01" nType="0">
            <Node pos="l" depth="3" NCoef="0" IVar="-1" Cut="0.0000000000000000e+00" cType="1" res="5.6872665882110596e-02" rms="2.8992617130279541e-01" purity="8.5268026590347290e-01" nType="-99"/>
            <Node pos="r" depth="3" NCoef="0" IVar="-1" Cut="0.0000000000000000e+00" cType="1" res="2.7987860143184662e-02" rms="3.1177940964698792e-01" purity="6.6878956556320190e-01" nType="-99"/>
          </Node>
        </Node>
        <Node pos="r" depth="1" NCoef="0" IVar="21" Cut="3.2673281431198120e-01" cType="1" res="-2.4933116510510445e-02" rms="3.3274900913238525e-01" purity="4.4481196999549866e-01" nType="0">
          <Node pos="l" depth="2" NCoef="0" IVar="5" Cut="1.5692657232284546e+00" cType="1" res="-6.5956458449363708e-02" rms="3.1251046061515808e-01" purity="3.2721126079559326e-01" nType="0">
            <Node pos="l" depth="3" NCoef="0" IVar="-1" Cut="0.0000000000000000e+00" cType="1" res="-2.7978710830211639e-02" rms="2.9883220791816711e-01" purity="2.7081394195556641e-01" nType="-99"/>
            <Node pos="r" depth="3" NCoef="0" IVar="-1" Cut="0.0000000000000000e+00" cType="1" res="1.7223011702299118e-02" rms="3.6386504769325256e-01" purity="6.8661385774612427e-01" nType="-99"/>
          </Node>
          <Node pos="r" depth="2" NCoef="0" IVar="22" Cut="6.6915251314640045e-02" cType="1" res="2.1755810827016830e-02" rms="3.4855324029922485e-01" purity="5.7865411043167114e-01" nType="0">
            <Node pos="l" depth="3" NCoef="0" IVar="-1" Cut="0.0000000000000000e+00" cType="1" res="2.5100646540522575e-02" rms="3.4167575836181641e-01" purity="7.7192389965057373e-01" nType="-99"/>
            <Node pos="r" depth="3" NCoef="0" IVar="-1" Cut="0.0000000000000000e+00" cType="1" res="-1.6271950677037239e-02" rms="3.4255653619766235e-01" purity="3.4492602944374084e-01" nType="-99"/>
          </Node>
        </Node>
      </Node>
    </BinaryTree>
    <BinaryTree type="DecisionTree" boostWeight="1.0000000000000000e+00" itree="26">
      <Node pos="s" depth="0" NCoef="0" IVar="2" Cut="1.1008035391569138e-01" cType="1" res="-8.9357985416427255e-05" rms="3.2838368415832520e-01" purity="5.0000000000000000e-01" nType="0">
        <Node pos="l" depth="1" NCoef="0" IVar="18" Cut="1.5350289642810822e-01" cType="1" res="8.2170329988002777e-02" rms="2.8809374570846558e-01" purity="7.6902848482131958e-01" nType="0">
          <Node pos="l" depth="2" NCoef="0" IVar="-1" Cut="0.0000000000000000e+00" cType="1" res="3.9195712655782700e-02" rms="2.7572941780090332e-01" purity="8.0285435914993286e-01" nType="-99"/>
          <Node pos="r" depth="2" NCoef="0" IVar="-1" Cut="0.0000000000000000e+00" cType="1" res="1.0755702853202820e-02" rms="2.9738500714302063e-01" purity="7.2167122364044189e-01" nType="-99"/>
        </Node>
        <Node pos="r" depth="1" NCoef="0" IVar="15" Cut="1.2805049121379852e-01" cType="1" res="-1.9075399264693260e-02" rms="3.3413517475128174e-01" purity="4.3790659308433533e-01" nType="0">
          <Node pos="l" depth="2" NCoef="0" IVar="24" Cut="1.7053835093975067e-01" cType="1" res="-3.9571810513734818e-02" rms="3.2922935485839844e-01" purity="3.9876082539558411e-01" nType="0">
            <Node pos="l" depth="3" NCoef="0" IVar="-1" Cut="0.0000000000000000e+00" cType="1" res="1.2444602325558662e-02" rms="3.2338887453079224e-01" purity="8.3501064777374268e-01" nType="-99"/>
            <Node pos="r" depth="3" NCoef="0" IVar="-1" Cut="0.0000000000000000e+00" cType="1" res="-1.9964499399065971e-02" rms="3.2741221785545349e-01" purity="2.6157552003860474e-01" nType="-99"/>
          </Node>
          <Node pos="r" depth="2" NCoef="0" IVar="23" Cut="6.3551017083227634e-03" cType="1" res="6.4180463552474976e-02" rms="3.4092152118682861e-01" purity="5.9691560268402100e-01" nType="0">
            <Node pos="l" depth="3" NCoef="0" IVar="-1" Cut="0.0000000000000000e+00" cType="1" res="3.6090206354856491e-02" rms="3.4582656621932983e-01" purity="6.7075663805007935e-01" nType="-99"/>
            <Node pos="r" depth="3" NCoef="0" IVar="-1" Cut="0.0000000000000000e+00" cType="1" res="-6.8240221589803696e-03" rms="3.1410455703735352e-01" purity="4.8920607566833496e-01" nType="-99"/>
          </Node>
        </Node>
      </Node>
    </BinaryTree>
    <BinaryTree type="DecisionTree" boostWeight="1.0000000000000000e+00" itree="27">
      <Node pos="s" depth="0" NCoef="0" IVar="9" Cut="5.4984436035156250e+00" cType="1" res="-7.5313451816327870e-05" rms="3.2683283090591431e-01" purity="5.0000000000000000e-01" nType="0">
        <Node pos="l" depth="1" NCoef="0" IVar="9" Cut="5.1400713920593262e+00" cType="1" res="-1.2225873023271561e-01" rms="3.0856147408485413e-01" purity="2.5957593321800232e-01" nType="0">
          <Node pos="l" depth="2" NCoef="0" IVar="-1" Cut="0.0000000000000000e+00" cType="1" res="-5.9201408177614212e-02" rms="2.8856614232063293e-01" purity="1.8663330376148224e-01" nType="-99"/>
          <Node pos="r" depth="2" NCoef="0" IVar="-1" Cut="0.0000000000000000e+00" cType="1" res="-1.9479816779494286e-02" rms="3.1256118416786194e-01" purity="3.2262167334556580e-01" nType="-99"/>
        </Node>
        <Node pos="r" depth="1" NCoef="0" IVar="10" Cut="9.0908400714397430e-02" cType="1" res="1.2345115654170513e-02" rms="3.2607975602149963e-01" purity="5.2444005012512207e-01" nType="0">
          <Node pos="l" depth="2" NCoef="0" IVar="24" Cut="4.4584408402442932e-01" cType="1" res="3.8468357175588608e-02" rms="3.1852945685386658e-01" purity="5.7710254192352295e-01" nType="0">
            <Node pos="l" depth="3" NCoef="0" IVar="-1" Cut="0.0000000000000000e+00" cType="1" res="2.0242419093847275e-02" rms="3.3602261543273926e-01" purity="6.8744325637817383e-01" nType="-99"/>
            <Node pos="r" depth="3" NCoef="0" IVar="-1" Cut="0.0000000000000000e+00" cType="1" res="-4.3508056551218033e-02" rms="1.5548758208751678e-01" purity="3.0484307557344437e-02" nType="-99"/>
          </Node>
          <Node pos="r" depth="2" NCoef="0" IVar="21" Cut="2.7359783649444580e-01" cType="1" res="-6.6686473786830902e-02" rms="3.3577039837837219e-01" purity="3.6511832475662231e-01" nType="0">
            <Node pos="l" depth="3" NCoef="0" IVar="-1" Cut="0.0000000000000000e+00" cType="1" res="-5.2665833383798599e-02" rms="2.3880018293857574e-01" purity="1.1684180796146393e-01" nType="-99"/>
            <Node pos="r" depth="3" NCoef="0" IVar="-1" Cut="0.0000000000000000e+00" cType="1" res="-8.1958007067441940e-03" rms="3.6350706219673157e-01" purity="4.7305941581726074e-01" nType="-99"/>
          </Node>
        </Node>
      </Node>
    </BinaryTree>
    <BinaryTree type="DecisionTree" boostWeight="1.0000000000000000e+00" itree="28">
      <Node pos="s" depth="0" NCoef="0" IVar="1" Cut="1.7790672779083252e+00" cType="1" res="-1.1636060662567616e-04" rms="3.2464909553527832e-01" purity="5.0000000000000000e-01" nType="0">
        <Node pos="l" depth="1" NCoef="0" IVar="9" Cut="6.4568958282470703e+00" cType="1" res="3.3167384564876556e-02" rms="3.2687789201736450e-01" purity="6.3615280389785767e-01" nType="0">
          <Node pos="l" depth="2" NCoef="0" IVar="24" Cut="1.5433529019355774e-01" cType="1" res="-2.5099989026784897e-02" rms="3.4593418240547180e-01" purity="5.6737482547760010e-01" nType="0">
            <Node pos="l" depth="3" NCoef="0" IVar="-1" Cut="0.0000000000000000e+00" cType="1" res="3.0506296083331108e-02" rms="2.5389552116394043e-01" purity="9.1276484727859497e-01" nType="-99"/>
            <Node pos="r" depth="3" NCoef="0" IVar="-1" Cut="0.0000000000000000e+00" cType="1" res="-2.5821598246693611e-02" rms="3.7645807862281799e-01" purity="3.6094847321510315e-01" nType="-99"/>
          </Node>
          <Node pos="r" depth="2" NCoef="0" IVar="0" Cut="2.0737457275390625e+00" cType="1" res="6.4540162682533264e-02" rms="3.1166258454322815e-01" purity="6.7318475246429443e-01" nType="0">
            <Node pos="l" depth="3" NCoef="0" IVar="-1" Cut="0.0000000000000000e+00" cType="1" res="2.9531940817832947e-02" rms="3.1045094132423401e-01" purity="7.7137625217437744e-01" nType="-99"/>
            <Node pos="r" depth="3" NCoef="0" IVar="-1" Cut="0.0000000000000000e+00" cType="1" res="-9.7697796300053596e-03" rms="2.9745829105377197e-01" purity="3.2601919770240784e-01" nType="-99"/>
          </Node>
        </Node>
        <Node pos="r" depth="1" NCoef="0" IVar="10" Cut="1.1213196069002151e-01" cType="1" res="-4.1688002645969391e-02" rms="3.1697231531143188e-01" purity="3.2994416356086731e-01" nType="0">
          <Node pos="l" depth="2" NCoef="0" IVar="15" Cut="1.8098966777324677e-01" cType="1" res="-2.3920597508549690e-02" rms="3.2289817929267883e-01" purity="3.6295861005783081e-01" nType="0">
            <Node pos="l" depth="3" NCoef="0" IVar="-1" Cut="0.0000000000000000e+00" cType="1" res="-1.4369141310453415e-02" rms="3.1243097782135010e-01" purity="3.3404973149299622e-01" nType="-99"/>
            <Node pos="r" depth="3" NCoef="0" IVar="-1" Cut="0.0000000000000000e+00" cType="1" res="3.2258264720439911e-02" rms="3.6489820480346680e-01" purity="5.7925677299499512e-01" nType="-99"/>
          </Node>
          <Node pos="r" depth="2" NCoef="0" IVar="-1" Cut="0.0000000000000000e+00" cType="1" res="-5.5792547762393951e-02" rms="2.2021722793579102e-01" purity="6.9765590131282806e-02" nType="-99"/>
        </Node>
      </Node>
    </BinaryTree>
    <BinaryTree type="DecisionTree" boostWeight="1.0000000000000000e+00" itree="29">
      <Node pos="s" depth="0" NCoef="0" IVar="21" Cut="3.1791028380393982e-01" cType="1" res="-9.9573851912282407e-05" rms="3.2255607843399048e-01" purity="5.0000000000000000e-01" nType="0">
        <Node pos="l" depth="1" NCoef="0" IVar="5" Cut="8.7586921453475952e-01" cType="1" res="-3.7439052015542984e-02" rms="3.1463426351547241e-01" purity="3.7148973345756531e-01" nType="0">
          <Node pos="l" depth="2" NCoef="0" IVar="9" Cut="7.3174214363098145e+00" cType="1" res="-6.7418009042739868e-02" rms="2.8575873374938965e-01" purity="2.6883006095886230e-01" nType="0">
            <Node pos="l" depth="3" NCoef="0" IVar="-1" Cut="0.0000000000000000e+00" cType="1" res="-3.5966426134109497e-02" rms="2.8225505352020264e-01" purity="2.4392782151699066e-01" nType="-99"/>
            <Node pos="r" depth="3" NCoef="0" IVar="-1" Cut="0.0000000000000000e+00" cType="1" res="-3.8231997750699520e-03" rms="2.8197297453880310e-01" purity="3.0804252624511719e-01" nType="-99"/>
          </Node>
          <Node pos="r" depth="2" NCoef="0" IVar="15" Cut="5.3275141865015030e-02" cType="1" res="2.6729786768555641e-02" rms="3.6064085364341736e-01" purity="5.9122896194458008e-01" nType="0">
            <Node pos="l" depth="3" NCoef="0" IVar="-1" Cut="0.0000000000000000e+00" cType="1" res="-3.9119739085435867e-03" rms="3.5201603174209595e-01" purity="5.1508307456970215e-01" nType="-99"/>
            <Node pos="r" depth="3" NCoef="0" IVar="-1" Cut="0.0000000000000000e+00" cType="1" res="2.7396572753787041e-02" rms="3.6499577760696411e-01" purity="7.2212982177734375e-01" nType="-99"/>
          </Node>
        </Node>
        <Node pos="r" depth="1" NCoef="0" IVar="22" Cut="6.6915251314640045e-02" cType="1" res="3.6596924066543579e-02" rms="3.2601585984230042e-01" purity="6.2629735469818115e-01" nType="0">
          <Node pos="l" depth="2" NCoef="0" IVar="10" Cut="8.9096680283546448e-02" cType="1" res="8.4420040249824524e-02" rms="3.1166541576385498e-01" purity="8.0373543500900269e-01" nType="0">
            <Node pos="l" depth="3" NCoef="0" IVar="-1" Cut="0.0000000000000000e+00" cType="1" res="3.9907086640596390e-02" rms="2.8103065490722656e-01" purity="8.6303740739822388e-01" nType="-99"/>
            <Node pos="r" depth="3" NCoef="0" IVar="-1" Cut="0.0000000000000000e+00" cType="1" res="1.3012262061238289e-03" rms="3.6469683051109314e-01" purity="6.5718072652816772e-01" nType="-99"/>
          </Node>
          <Node pos="r" depth="2" NCoef="0" IVar="12" Cut="5.1360898651182652e-03" cType="1" res="-2.8074365109205246e-02" rms="3.3374559879302979e-01" purity="3.8634744286537170e-01" nType="0">
            <Node pos="l" depth="3" NCoef="0" IVar="-1" Cut="0.0000000000000000e+00" cType="1" res="2.6541413739323616e-02" rms="3.3292412757873535e-01" purity="8.0761641263961792e-01" nType="-99"/>
            <Node pos="r" depth="3" NCoef="0" IVar="-1" Cut="0.0000000000000000e+00" cType="1" res="-2.2872295230627060e-02" rms="3.2460606098175049e-01" purity="2.3210605978965759e-01" nType="-99"/>
          </Node>
        </Node>
      </Node>
    </BinaryTree>
    <BinaryTree type="DecisionTree" boostWeight="1.0000000000000000e+00" itree="30">
      <Node pos="s" depth="0" NCoef="0" IVar="18" Cut="7.8529976308345795e-02" cType="1" res="-7.0009969931561500e-05" rms="3.2029178738594055e-01" purity="5.0000000000000000e-01" nType="0">
        <Node pos="l" depth="1" NCoef="0" IVar="24" Cut="4.4718956947326660e-01" cType="1" res="5.3234003484249115e-02" rms="3.1314814090728760e-01" purity="6.2809598445892334e-01" nType="0">
          <Node pos="l" depth="2" NCoef="0" IVar="10" Cut="8.8516674935817719e-02" cType="1" res="7.2746418416500092e-02" rms="3.2424876093864441e-01" purity="7.2467076778411865e-01" nType="0">
            <Node pos="l" depth="3" NCoef="0" IVar="-1" Cut="0.0000000000000000e+00" cType="1" res="3.0842909589409828e-02" rms="3.0539840459823608e-01" purity="7.7595448493957520e-01" nType="-99"/>
            <Node pos="r" depth="3" NCoef="0" IVar="-1" Cut="0.0000000000000000e+00" cType="1" res="-6.5341818844899535e-04" rms="3.7125152349472046e-01" purity="5.5193638801574707e-01" nType="-99"/>
          </Node>
          <Node pos="r" depth="2" NCoef="0" IVar="-1" Cut="0.0000000000000000e+00" cType="1" res="-3.0876519158482552e-02" rms="2.0105306804180145e-01" purity="5.5121131241321564e-02" nType="-99"/>
        </Node>
        <Node pos="r" depth="1" NCoef="0" IVar="9" Cut="5.6182012557983398e+00" cType="1" res="-2.4447660893201828e-02" rms="3.2056605815887451e-01" purity="4.4141757488250732e-01" nType="0">
          <Node pos="l" depth="2" NCoef="0" IVar="9" Cut="5.2587900161743164e+00" cType="1" res="-1.2778659164905548e-01" rms="3.0686211585998535e-01" purity="2.3843140900135040e-01" nType="0">
            <Node pos="l" depth="3" NCoef="0" IVar="-1" Cut="0.0000000000000000e+00" cType="1" res="-5.4508976638317108e-02" rms="2.8418752551078796e-01" purity="1.5645161271095276e-01" nType="-99"/>
            <Node pos="r" depth="3" NCoef="0" IVar="-1" Cut="0.0000000000000000e+00" cType="1" res="-2.8246052563190460e-02" rms="3.2410168647766113e-01" purity="3.2307666540145874e-01" nType="-99"/>
          </Node>
          <Node pos="r" depth="2" NCoef="0" IVar="10" Cut="8.9045487344264984e-02" cType="1" res="-1.0496025905013084e-02" rms="3.1982344388961792e-01" purity="4.6882241964340210e-01" nType="0">
            <Node pos="l" depth="3" NCoef="0" IVar="-1" Cut="0.0000000000000000e+00" cType="1" res="6.1985296197235584e-03" rms="3.1799283623695374e-01" purity="5.2245002985000610e-01" nType="-99"/>
            <Node pos="r" depth="3" NCoef="0" IVar="-1" Cut="0.0000000000000000e+00" cType="1" res="-2.4717550724744797e-02" rms="3.1398433446884155e-01" purity="3.4186595678329468e-01" nType="-99"/>
          </Node>
        </Node>
      </Node>
    </BinaryTree>
    <BinaryTree type="DecisionTree" boostWeight="1.0000000000000000e+00" itree="31">
      <Node pos="s" depth="0" NCoef="0" IVar="6" Cut="1.1898469924926758e+00" cType="1" res="-6.6466738644521683e-05" rms="3.1870472431182861e-01" purity="5.0000000000000000e-01" nType="0">
        <Node pos="l" depth="1" NCoef="0" IVar="8" Cut="1.0434107780456543e+00" cType="1" res="-1.6412684693932533e-02" rms="3.1984430551528931e-01" purity="4.3324828147888184e-01" nType="0">
          <Node pos="l" depth="2" NCoef="0" IVar="7" Cut="1.6143368482589722e+00" cType="1" res="-3.3152908086776733e-02" rms="3.2589060068130493e-01" purity="3.5428836941719055e-01" nType="0">
            <Node pos="l" depth="3" NCoef="0" IVar="-1" Cut="0.0000000000000000e+00" cType="1" res="-1.5458856709301472e-02" rms="3.2984724640846252e-01" purity="2.9997664690017700e-01" nType="-99"/>
            <Node pos="r" depth="3" NCoef="0" IVar="-1" Cut="0.0000000000000000e+00" cType="1" res="3.4615028649568558e-02" rms="2.4859376251697540e-01" purity="8.9116257429122925e-01" nType="-99"/>
          </Node>
          <Node pos="r" depth="2" NCoef="0" IVar="8" Cut="1.7088665962219238e+00" cType="1" res="7.2161294519901276e-02" rms="2.6891317963600159e-01" purity="8.5103207826614380e-01" nType="0">
            <Node pos="l" depth="3" NCoef="0" IVar="-1" Cut="0.0000000000000000e+00" cType="1" res="1.2853819876909256e-02" rms="3.0805122852325439e-01" purity="7.7669078111648560e-01" nType="-99"/>
            <Node pos="r" depth="3" NCoef="0" IVar="-1" Cut="0.0000000000000000e+00" cType="1" res="3.8720887154340744e-02" rms="2.2357618808746338e-01" purity="9.1797643899917603e-01" nType="-99"/>
          </Node>
        </Node>
        <Node pos="r" depth="1" NCoef="0" IVar="18" Cut="1.5033981204032898e-01" cType="1" res="7.3851957917213440e-02" rms="3.0267122387886047e-01" purity="8.0185461044311523e-01" nType="0">
          <Node pos="l" depth="2" NCoef="0" IVar="-1" Cut="0.0000000000000000e+00" cType="1" res="3.7659198045730591e-02" rms="2.7580606937408447e-01" purity="8.6198765039443970e-01" nType="-99"/>
          <Node pos="r" depth="2" NCoef="0" IVar="-1" Cut="0.0000000000000000e+00" cType="1" res="6.1095170676708221e-03" rms="3.3075821399688721e-01" purity="7.1366280317306519e-01" nType="-99"/>
        </Node>
      </Node>
    </BinaryTree>
    <BinaryTree type="DecisionTree" boostWeight="1.0000000000000000e+00" itree="32">
      <Node pos="s" depth="0" NCoef="0" IVar="21" Cut="1.9135282933712006e-01" cType="1" res="-2.6246201741741970e-05" rms="3.1758686900138855e-01" purity="5.0000000000000000e-01" nType="0">
        <Node pos="l" depth="1" NCoef="0" IVar="9" Cut="7.6942477226257324e+00" cType="1" res="-6.7941002547740936e-02" rms="2.9570281505584717e-01" purity="2.1706151962280273e-01" nType="0">
          <Node pos="l" depth="2" NCoef="0" IVar="12" Cut="4.0862741880118847e-03" cType="1" res="-1.0464577376842499e-01" rms="2.8871229290962219e-01" purity="1.8905103206634521e-01" nType="0">
            <Node pos="l" depth="3" NCoef="0" IVar="-1" Cut="0.0000000000000000e+00" cType="1" res="-4.6509109437465668e-02" rms="3.4670093655586243e-01" purity="2.3628048598766327e-01" nType="-99"/>
            <Node pos="r" depth="3" NCoef="0" IVar="-1" Cut="0.0000000000000000e+00" cType="1" res="-2.8762880712747574e-02" rms="2.5442427396774292e-01" purity="1.6862334311008453e-01" nType="-99"/>
          </Node>
          <Node pos="r" depth="2" NCoef="0" IVar="-1" Cut="0.0000000000000000e+00" cType="1" res="5.2385549061000347e-03" rms="2.9463279247283936e-01" purity="2.7984908223152161e-01" nType="-99"/>
        </Node>
        <Node pos="r" depth="1" NCoef="0" IVar="10" Cut="1.1320901662111282e-01" cType="1" res="1.7197523266077042e-02" rms="3.2062244415283203e-01" purity="5.7175564765930176e-01" nType="0">
          <Node pos="l" depth="2" NCoef="0" IVar="9" Cut="7.0494999885559082e+00" cType="1" res="3.1312264502048492e-02" rms="3.1500753760337830e-01" purity="6.1051779985427856e-01" nType="0">
            <Node pos="l" depth="3" NCoef="0" IVar="-1" Cut="0.0000000000000000e+00" cType="1" res="-1.9514650921337306e-04" rms="3.1207433342933655e-01" purity="5.8186584711074829e-01" nType="-99"/>
            <Node pos="r" depth="3" NCoef="0" IVar="-1" Cut="0.0000000000000000e+00" cType="1" res="3.3426661044359207e-02" rms="3.1057745218276978e-01" purity="6.7090582847595215e-01" nType="-99"/>
          </Node>
          <Node pos="r" depth="2" NCoef="0" IVar="1" Cut="1.8449586629867554e+00" cType="1" res="-9.9927127361297607e-02" rms="3.4211575984954834e-01" purity="2.5010591745376587e-01" nType="0">
            <Node pos="l" depth="3" NCoef="0" IVar="-1" Cut="0.0000000000000000e+00" cType="1" res="-8.6608724668622017e-03" rms="4.0784692764282227e-01" purity="4.0935209393501282e-01" nType="-99"/>
            <Node pos="r" depth="3" NCoef="0" IVar="-1" Cut="0.0000000000000000e+00" cType="1" res="-5.3474299609661102e-02" rms="2.2985826432704926e-01" purity="7.3583140969276428e-02" nType="-99"/>
          </Node>
        </Node>
      </Node>
    </BinaryTree>
    <BinaryTree type="DecisionTree" boostWeight="1.0000000000000000e+00" itree="33">
      <Node pos="s" depth="0" NCoef="0" IVar="21" Cut="3.1791028380393982e-01" cType="1" res="-4.2368341382825747e-05" rms="3.1572717428207397e-01" purity="5.0000000000000000e-01" nType="0">
        <Node pos="l" depth="1" NCoef="0" IVar="11" Cut="-6.9206715561449528e-03" cType="1" res="-3.2980956137180328e-02" rms="3.0771362781524658e-01" purity="3.7148973345756531e-01" nType="0">
          <Node pos="l" depth="2" NCoef="0" IVar="24" Cut="3.7032753229141235e-01" cType="1" res="3.8798216730356216e-02" rms="2.9085484147071838e-01" purity="4.3688812851905823e-01" nType="0">
            <Node pos="l" depth="3" NCoef="0" IVar="-1" Cut="0.0000000000000000e+00" cType="1" res="2.9496226459741592e-02" rms="3.0787515640258789e-01" purity="7.2311139106750488e-01" nType="-99"/>
