<?xml version="1.0"?>
<MethodSetup Method="MLP::MLP">
  <GeneralInfo>
    <Info name="TMVA Release" value="4.2.1 [262657]"/>
    <Info name="ROOT Release" value="6.34/04 [401924]"/>
    <Info name="Creator" value="ethan_rm"/>
    <Info name="Date" value="Mon Jul 28 07:53:41 2025"/>
    <Info name="Host" value="Linux 0998ae7ee246 6.11.0-1015-azure #15~24.04.1-Ubuntu SMP Thu May 1 02:52:08 UTC 2025 x86_64 x86_64 x86_64 GNU/Linux"/>
    <Info name="Dir" value="/home/ethan_rm/LFV_BELLE/Search-for-the-lepton-flavour-violating-decay-at-Belle-experiment"/>
    <Info name="Training events" value="3761"/>
    <Info name="TrainingTime" value="3.55890641e+01"/>
    <Info name="AnalysisType" value="Classification"/>
  </GeneralInfo>
  <Options>
    <Option name="NCycles" modified="Yes">600</Option>
    <Option name="HiddenLayers" modified="Yes">N+5</Option>
    <Option name="NeuronType" modified="Yes">tanh</Option>
    <Option name="RandomSeed" modified="No">1</Option>
    <Option name="EstimatorType" modified="No">CE</Option>
    <Option name="NeuronInputType" modified="No">sum</Option>
    <Option name="V" modified="Yes">False</Option>
    <Option name="VerbosityLevel" modified="No">Default</Option>
    <Option name="VarTransform" modified="Yes">N</Option>
    <Option name="H" modified="Yes">True</Option>
    <Option name="CreateMVAPdfs" modified="No">False</Option>
    <Option name="IgnoreNegWeightsInTraining" modified="No">False</Option>
    <Option name="TrainingMethod" modified="No">BP</Option>
    <Option name="LearningRate" modified="No">2.000000e-02</Option>
    <Option name="DecayRate" modified="No">1.000000e-02</Option>
    <Option name="TestRate" modified="Yes">5</Option>
    <Option name="EpochMonitoring" modified="No">False</Option>
    <Option name="Sampling" modified="No">1.000000e+00</Option>
    <Option name="SamplingEpoch" modified="No">1.000000e+00</Option>
    <Option name="SamplingImportance" modified="No">1.000000e+00</Option>
    <Option name="SamplingTraining" modified="No">True</Option>
    <Option name="SamplingTesting" modified="No">False</Option>
    <Option name="ResetStep" modified="No">50</Option>
    <Option name="Tau" modified="No">3.000000e+00</Option>
    <Option name="BPMode" modified="No">sequential</Option>
    <Option name="BatchSize" modified="No">-1</Option>
    <Option name="ConvergenceImprove" modified="No">1.000000e-30</Option>
    <Option name="ConvergenceTests" modified="No">-1</Option>
    <Option name="UseRegulator" modified="No">False</Option>
    <Option name="UpdateLimit" modified="No">10000</Option>
    <Option name="CalculateErrors" modified="No">False</Option>
    <Option name="WeightRange" modified="No">1.000000e+00</Option>
  </Options>
  <Variables NVar="26">
    <Variable VarIndex="0" Expression="CleoConeCS_1" Label="CleoConeCS_1" Title="CleoConeCS_1" Unit="" Internal="CleoConeCS_1" Type="F" Min="0.00000000e+00" Max="6.78170872e+00"/>
    <Variable VarIndex="1" Expression="CleoConeCS_2" Label="CleoConeCS_2" Title="CleoConeCS_2" Unit="" Internal="CleoConeCS_2" Type="F" Min="0.00000000e+00" Max="7.97285700e+00"/>
    <Variable VarIndex="2" Expression="CleoConeCS_3" Label="CleoConeCS_3" Title="CleoConeCS_3" Unit="" Internal="CleoConeCS_3" Type="F" Min="0.00000000e+00" Max="6.65986156e+00"/>
    <Variable VarIndex="3" Expression="CleoConeCS_4" Label="CleoConeCS_4" Title="CleoConeCS_4" Unit="" Internal="CleoConeCS_4" Type="F" Min="0.00000000e+00" Max="5.86983585e+00"/>
    <Variable VarIndex="4" Expression="CleoConeCS_5" Label="CleoConeCS_5" Title="CleoConeCS_5" Unit="" Internal="CleoConeCS_5" Type="F" Min="0.00000000e+00" Max="5.25017691e+00"/>
    <Variable VarIndex="5" Expression="CleoConeCS_6" Label="CleoConeCS_6" Title="CleoConeCS_6" Unit="" Internal="CleoConeCS_6" Type="F" Min="0.00000000e+00" Max="5.53426170e+00"/>
    <Variable VarIndex="6" Expression="CleoConeCS_7" Label="CleoConeCS_7" Title="CleoConeCS_7" Unit="" Internal="CleoConeCS_7" Type="F" Min="0.00000000e+00" Max="5.14183903e+00"/>
    <Variable VarIndex="7" Expression="CleoConeCS_8" Label="CleoConeCS_8" Title="CleoConeCS_8" Unit="" Internal="CleoConeCS_8" Type="F" Min="0.00000000e+00" Max="5.00858355e+00"/>
    <Variable VarIndex="8" Expression="CleoConeCS_9" Label="CleoConeCS_9" Title="CleoConeCS_9" Unit="" Internal="CleoConeCS_9" Type="F" Min="0.00000000e+00" Max="4.67602634e+00"/>
    <Variable VarIndex="9" Expression="KSFWVariables_et" Label="KSFWVariables_et" Title="KSFWVariables_et" Unit="" Internal="KSFWVariables_et" Type="F" Min="3.33085299e+00" Max="1.26979418e+01"/>
    <Variable VarIndex="10" Expression="KSFWVariables_hoo0" Label="KSFWVariables_hoo0" Title="KSFWVariables_hoo0" Unit="" Internal="KSFWVariables_hoo0" Type="F" Min="1.54535258e-02" Max="7.58213937e-01"/>
    <Variable VarIndex="11" Expression="KSFWVariables_hoo1" Label="KSFWVariables_hoo1" Title="KSFWVariables_hoo1" Unit="" Internal="KSFWVariables_hoo1" Type="F" Min="-4.35744263e-02" Max="9.76694524e-02"/>
    <Variable VarIndex="12" Expression="KSFWVariables_hoo2" Label="KSFWVariables_hoo2" Title="KSFWVariables_hoo2" Unit="" Internal="KSFWVariables_hoo2" Type="F" Min="-2.45382413e-02" Max="1.64440393e-01"/>
    <Variable VarIndex="13" Expression="KSFWVariables_hoo3" Label="KSFWVariables_hoo3" Title="KSFWVariables_hoo3" Unit="" Internal="KSFWVariables_hoo3" Type="F" Min="-3.45871188e-02" Max="4.55517285e-02"/>
    <Variable VarIndex="14" Expression="KSFWVariables_hoo4" Label="KSFWVariables_hoo4" Title="KSFWVariables_hoo4" Unit="" Internal="KSFWVariables_hoo4" Type="F" Min="-4.17935029e-02" Max="1.68596447e-01"/>
    <Variable VarIndex="15" Expression="KSFWVariables_hso01" Label="KSFWVariables_hso01" Title="KSFWVariables_hso01" Unit="" Internal="KSFWVariables_hso01" Type="F" Min="-1.46183348e+00" Max="9.13178384e-01"/>
    <Variable VarIndex="16" Expression="KSFWVariables_hso03" Label="KSFWVariables_hso03" Title="KSFWVariables_hso03" Unit="" Internal="KSFWVariables_hso03" Type="F" Min="-6.50135338e-01" Max="4.74473208e-01"/>
    <Variable VarIndex="17" Expression="KSFWVariables_hso04" Label="KSFWVariables_hso04" Title="KSFWVariables_hso04" Unit="" Internal="KSFWVariables_hso04" Type="F" Min="-4.04266328e-01" Max="7.95326352e-01"/>
    <Variable VarIndex="18" Expression="KSFWVariables_hso10" Label="KSFWVariables_hso10" Title="KSFWVariables_hso10" Unit="" Internal="KSFWVariables_hso10" Type="F" Min="0.00000000e+00" Max="7.91843891e-01"/>
    <Variable VarIndex="19" Expression="KSFWVariables_hso12" Label="KSFWVariables_hso12" Title="KSFWVariables_hso12" Unit="" Internal="KSFWVariables_hso12" Type="F" Min="-2.15522587e-01" Max="4.78261143e-01"/>
    <Variable VarIndex="20" Expression="KSFWVariables_hso14" Label="KSFWVariables_hso14" Title="KSFWVariables_hso14" Unit="" Internal="KSFWVariables_hso14" Type="F" Min="-1.78718269e-01" Max="3.68612438e-01"/>
    <Variable VarIndex="21" Expression="KSFWVariables_hso20" Label="KSFWVariables_hso20" Title="KSFWVariables_hso20" Unit="" Internal="KSFWVariables_hso20" Type="F" Min="1.41724041e-02" Max="1.54551756e+00"/>
    <Variable VarIndex="22" Expression="KSFWVariables_hso22" Label="KSFWVariables_hso22" Title="KSFWVariables_hso22" Unit="" Internal="KSFWVariables_hso22" Type="F" Min="-3.60408038e-01" Max="8.14731002e-01"/>
    <Variable VarIndex="23" Expression="KSFWVariables_hso24" Label="KSFWVariables_hso24" Title="KSFWVariables_hso24" Unit="" Internal="KSFWVariables_hso24" Type="F" Min="-3.43206733e-01" Max="4.80300248e-01"/>
    <Variable VarIndex="24" Expression="r2" Label="r2" Title="r2" Unit="" Internal="r2" Type="F" Min="4.44877986e-03" Max="7.89872766e-01"/>
    <Variable VarIndex="25" Expression="thrust_Bm" Label="thrust_Bm" Title="thrust_Bm" Unit="" Internal="thrust_Bm" Type="F" Min="6.45773888e-01" Max="9.88126814e-01"/>
  </Variables>
  <Spectators NSpec="0"/>
  <Classes NClass="2">
    <Class Name="Signal" Index="0"/>
    <Class Name="Background" Index="1"/>
  </Classes>
  <Transformations NTransformations="1">
    <Transform Name="Normalize">
      <Selection>
        <Input NInputs="26">
          <Input Type="Variable" Label="CleoConeCS_1" Expression="CleoConeCS_1"/>
          <Input Type="Variable" Label="CleoConeCS_2" Expression="CleoConeCS_2"/>
          <Input Type="Variable" Label="CleoConeCS_3" Expression="CleoConeCS_3"/>
          <Input Type="Variable" Label="CleoConeCS_4" Expression="CleoConeCS_4"/>
          <Input Type="Variable" Label="CleoConeCS_5" Expression="CleoConeCS_5"/>
          <Input Type="Variable" Label="CleoConeCS_6" Expression="CleoConeCS_6"/>
          <Input Type="Variable" Label="CleoConeCS_7" Expression="CleoConeCS_7"/>
          <Input Type="Variable" Label="CleoConeCS_8" Expression="CleoConeCS_8"/>
          <Input Type="Variable" Label="CleoConeCS_9" Expression="CleoConeCS_9"/>
          <Input Type="Variable" Label="KSFWVariables_et" Expression="KSFWVariables_et"/>
          <Input Type="Variable" Label="KSFWVariables_hoo0" Expression="KSFWVariables_hoo0"/>
          <Input Type="Variable" Label="KSFWVariables_hoo1" Expression="KSFWVariables_hoo1"/>
          <Input Type="Variable" Label="KSFWVariables_hoo2" Expression="KSFWVariables_hoo2"/>
          <Input Type="Variable" Label="KSFWVariables_hoo3" Expression="KSFWVariables_hoo3"/>
          <Input Type="Variable" Label="KSFWVariables_hoo4" Expression="KSFWVariables_hoo4"/>
          <Input Type="Variable" Label="KSFWVariables_hso01" Expression="KSFWVariables_hso01"/>
          <Input Type="Variable" Label="KSFWVariables_hso03" Expression="KSFWVariables_hso03"/>
          <Input Type="Variable" Label="KSFWVariables_hso04" Expression="KSFWVariables_hso04"/>
          <Input Type="Variable" Label="KSFWVariables_hso10" Expression="KSFWVariables_hso10"/>
          <Input Type="Variable" Label="KSFWVariables_hso12" Expression="KSFWVariables_hso12"/>
          <Input Type="Variable" Label="KSFWVariables_hso14" Expression="KSFWVariables_hso14"/>
          <Input Type="Variable" Label="KSFWVariables_hso20" Expression="KSFWVariables_hso20"/>
          <Input Type="Variable" Label="KSFWVariables_hso22" Expression="KSFWVariables_hso22"/>
          <Input Type="Variable" Label="KSFWVariables_hso24" Expression="KSFWVariables_hso24"/>
          <Input Type="Variable" Label="r2" Expression="r2"/>
          <Input Type="Variable" Label="thrust_Bm" Expression="thrust_Bm"/>
        </Input>
        <Output NOutputs="26">
          <Output Type="Variable" Label="CleoConeCS_1" Expression="CleoConeCS_1"/>
          <Output Type="Variable" Label="CleoConeCS_2" Expression="CleoConeCS_2"/>
          <Output Type="Variable" Label="CleoConeCS_3" Expression="CleoConeCS_3"/>
          <Output Type="Variable" Label="CleoConeCS_4" Expression="CleoConeCS_4"/>
          <Output Type="Variable" Label="CleoConeCS_5" Expression="CleoConeCS_5"/>
          <Output Type="Variable" Label="CleoConeCS_6" Expression="CleoConeCS_6"/>
          <Output Type="Variable" Label="CleoConeCS_7" Expression="CleoConeCS_7"/>
          <Output Type="Variable" Label="CleoConeCS_8" Expression="CleoConeCS_8"/>
          <Output Type="Variable" Label="CleoConeCS_9" Expression="CleoConeCS_9"/>
          <Output Type="Variable" Label="KSFWVariables_et" Expression="KSFWVariables_et"/>
          <Output Type="Variable" Label="KSFWVariables_hoo0" Expression="KSFWVariables_hoo0"/>
          <Output Type="Variable" Label="KSFWVariables_hoo1" Expression="KSFWVariables_hoo1"/>
          <Output Type="Variable" Label="KSFWVariables_hoo2" Expression="KSFWVariables_hoo2"/>
          <Output Type="Variable" Label="KSFWVariables_hoo3" Expression="KSFWVariables_hoo3"/>
          <Output Type="Variable" Label="KSFWVariables_hoo4" Expression="KSFWVariables_hoo4"/>
          <Output Type="Variable" Label="KSFWVariables_hso01" Expression="KSFWVariables_hso01"/>
          <Output Type="Variable" Label="KSFWVariables_hso03" Expression="KSFWVariables_hso03"/>
          <Output Type="Variable" Label="KSFWVariables_hso04" Expression="KSFWVariables_hso04"/>
          <Output Type="Variable" Label="KSFWVariables_hso10" Expression="KSFWVariables_hso10"/>
          <Output Type="Variable" Label="KSFWVariables_hso12" Expression="KSFWVariables_hso12"/>
          <Output Type="Variable" Label="KSFWVariables_hso14" Expression="KSFWVariables_hso14"/>
          <Output Type="Variable" Label="KSFWVariables_hso20" Expression="KSFWVariables_hso20"/>
          <Output Type="Variable" Label="KSFWVariables_hso22" Expression="KSFWVariables_hso22"/>
          <Output Type="Variable" Label="KSFWVariables_hso24" Expression="KSFWVariables_hso24"/>
          <Output Type="Variable" Label="r2" Expression="r2"/>
          <Output Type="Variable" Label="thrust_Bm" Expression="thrust_Bm"/>
        </Output>
      </Selection>
      <Class ClassIndex="0">
        <Ranges>
          <Range Index="0" Min="0.0000000000000000e+00" Max="4.3789734840393066e+00"/>
          <Range Index="1" Min="0.0000000000000000e+00" Max="5.8056049346923828e+00"/>
          <Range Index="2" Min="0.0000000000000000e+00" Max="6.1379404067993164e+00"/>
          <Range Index="3" Min="0.0000000000000000e+00" Max="5.8698358535766602e+00"/>
          <Range Index="4" Min="0.0000000000000000e+00" Max="5.2501769065856934e+00"/>
          <Range Index="5" Min="0.0000000000000000e+00" Max="5.5342617034912109e+00"/>
          <Range Index="6" Min="0.0000000000000000e+00" Max="5.1418390274047852e+00"/>
          <Range Index="7" Min="0.0000000000000000e+00" Max="5.0085835456848145e+00"/>
          <Range Index="8" Min="0.0000000000000000e+00" Max="4.6760263442993164e+00"/>
          <Range Index="9" Min="4.3540506362915039e+00" Max="9.6207809448242188e+00"/>
          <Range Index="10" Min="2.9905186966061592e-02" Max="3.2234591245651245e-01"/>
          <Range Index="11" Min="-2.4930266663432121e-02" Max="7.5903147459030151e-02"/>
          <Range Index="12" Min="-2.4538241326808929e-02" Max="1.5339140594005585e-01"/>
          <Range Index="13" Min="-2.1692665293812752e-02" Max="2.9238065704703331e-02"/>
          <Range Index="14" Min="-2.0082885399460793e-02" Max="1.0699436068534851e-01"/>
          <Range Index="15" Min="-5.4895389080047607e-01" Max="7.1558761596679688e-01"/>
          <Range Index="16" Min="-4.3117067217826843e-01" Max="3.9131873846054077e-01"/>
          <Range Index="17" Min="-3.1579202413558960e-01" Max="3.2057872414588928e-01"/>
          <Range Index="18" Min="0.0000000000000000e+00" Max="7.2115010023117065e-01"/>
          <Range Index="19" Min="-2.1552258729934692e-01" Max="1.9777497649192810e-01"/>
          <Range Index="20" Min="-1.5685366094112396e-01" Max="1.7286656796932220e-01"/>
          <Range Index="21" Min="5.1020205020904541e-02" Max="9.1616553068161011e-01"/>
          <Range Index="22" Min="-2.7801179885864258e-01" Max="4.5993235707283020e-01"/>
          <Range Index="23" Min="-2.7727103233337402e-01" Max="3.4480065107345581e-01"/>
          <Range Index="24" Min="4.4487798586487770e-03" Max="5.5499744415283203e-01"/>
          <Range Index="25" Min="6.4577388763427734e-01" Max="9.7075533866882324e-01"/>
        </Ranges>
      </Class>
      <Class ClassIndex="1">
        <Ranges>
          <Range Index="0" Min="0.0000000000000000e+00" Max="6.7817087173461914e+00"/>
          <Range Index="1" Min="0.0000000000000000e+00" Max="7.9728569984436035e+00"/>
          <Range Index="2" Min="0.0000000000000000e+00" Max="6.6598615646362305e+00"/>
          <Range Index="3" Min="0.0000000000000000e+00" Max="5.5289254188537598e+00"/>
          <Range Index="4" Min="0.0000000000000000e+00" Max="4.6064467430114746e+00"/>
          <Range Index="5" Min="0.0000000000000000e+00" Max="4.9171032905578613e+00"/>
          <Range Index="6" Min="0.0000000000000000e+00" Max="3.5371596813201904e+00"/>
          <Range Index="7" Min="0.0000000000000000e+00" Max="3.6694169044494629e+00"/>
          <Range Index="8" Min="0.0000000000000000e+00" Max="4.3586831092834473e+00"/>
          <Range Index="9" Min="3.3308529853820801e+00" Max="1.2697941780090332e+01"/>
          <Range Index="10" Min="1.5453525818884373e-02" Max="7.5821393728256226e-01"/>
          <Range Index="11" Min="-4.3574426323175430e-02" Max="9.7669452428817749e-02"/>
          <Range Index="12" Min="-2.0647715777158737e-02" Max="1.6444039344787598e-01"/>
          <Range Index="13" Min="-3.4587118774652481e-02" Max="4.5551728457212448e-02"/>
          <Range Index="14" Min="-4.1793502867221832e-02" Max="1.6859644651412964e-01"/>
          <Range Index="15" Min="-1.4618334770202637e+00" Max="9.1317838430404663e-01"/>
          <Range Index="16" Min="-6.5013533830642700e-01" Max="4.7447320818901062e-01"/>
          <Range Index="17" Min="-4.0426632761955261e-01" Max="7.9532635211944580e-01"/>
          <Range Index="18" Min="0.0000000000000000e+00" Max="7.9184389114379883e-01"/>
          <Range Index="19" Min="-1.0650967806577682e-01" Max="4.7826114296913147e-01"/>
          <Range Index="20" Min="-1.7871826887130737e-01" Max="3.6861243844032288e-01"/>
          <Range Index="21" Min="1.4172404073178768e-02" Max="1.5455175638198853e+00"/>
          <Range Index="22" Min="-3.6040803790092468e-01" Max="8.1473100185394287e-01"/>
          <Range Index="23" Min="-3.4320673346519470e-01" Max="4.8030024766921997e-01"/>
          <Range Index="24" Min="2.7215231209993362e-02" Max="7.8987276554107666e-01"/>
          <Range Index="25" Min="6.6643154621124268e-01" Max="9.8812681436538696e-01"/>
        </Ranges>
      </Class>
      <Class ClassIndex="2">
        <Ranges>
          <Range Index="0" Min="0.0000000000000000e+00" Max="6.7817087173461914e+00"/>
          <Range Index="1" Min="0.0000000000000000e+00" Max="7.9728569984436035e+00"/>
          <Range Index="2" Min="0.0000000000000000e+00" Max="6.6598615646362305e+00"/>
          <Range Index="3" Min="0.0000000000000000e+00" Max="5.8698358535766602e+00"/>
          <Range Index="4" Min="0.0000000000000000e+00" Max="5.2501769065856934e+00"/>
          <Range Index="5" Min="0.0000000000000000e+00" Max="5.5342617034912109e+00"/>
          <Range Index="6" Min="0.0000000000000000e+00" Max="5.1418390274047852e+00"/>
          <Range Index="7" Min="0.0000000000000000e+00" Max="5.0085835456848145e+00"/>
          <Range Index="8" Min="0.0000000000000000e+00" Max="4.6760263442993164e+00"/>
          <Range Index="9" Min="3.3308529853820801e+00" Max="1.2697941780090332e+01"/>
          <Range Index="10" Min="1.5453525818884373e-02" Max="7.5821393728256226e-01"/>
          <Range Index="11" Min="-4.3574426323175430e-02" Max="9.7669452428817749e-02"/>
          <Range Index="12" Min="-2.4538241326808929e-02" Max="1.6444039344787598e-01"/>
          <Range Index="13" Min="-3.4587118774652481e-02" Max="4.5551728457212448e-02"/>
          <Range Index="14" Min="-4.1793502867221832e-02" Max="1.6859644651412964e-01"/>
          <Range Index="15" Min="-1.4618334770202637e+00" Max="9.1317838430404663e-01"/>
          <Range Index="16" Min="-6.5013533830642700e-01" Max="4.7447320818901062e-01"/>
          <Range Index="17" Min="-4.0426632761955261e-01" Max="7.9532635211944580e-01"/>
          <Range Index="18" Min="0.0000000000000000e+00" Max="7.9184389114379883e-01"/>
          <Range Index="19" Min="-2.1552258729934692e-01" Max="4.7826114296913147e-01"/>
          <Range Index="20" Min="-1.7871826887130737e-01" Max="3.6861243844032288e-01"/>
          <Range Index="21" Min="1.4172404073178768e-02" Max="1.5455175638198853e+00"/>
          <Range Index="22" Min="-3.6040803790092468e-01" Max="8.1473100185394287e-01"/>
          <Range Index="23" Min="-3.4320673346519470e-01" Max="4.8030024766921997e-01"/>
          <Range Index="24" Min="4.4487798586487770e-03" Max="7.8987276554107666e-01"/>
          <Range Index="25" Min="6.4577388763427734e-01" Max="9.8812681436538696e-01"/>
        </Ranges>
      </Class>
    </Transform>
  </Transformations>
  <MVAPdfs/>
  <Weights>
    <Layout NLayers="3">
      <Layer Index="0" NNeurons="27">
        <Neuron NSynapses="31">
          -1.9235420163715902e-01 1.6554533162289571e+00 1.9941213192716606e-01 -1.0768978272303151e+00 -1.9927376312003877e+00 -1.1663962239934196e+00 -7.4449272703571501e-01 1.4219365291494388e+00 -1.8478775877529137e+00 -1.2887780766644346e+00 -3.7005814792727787e-01 5.7069735508819198e-02 -1.1903887358447804e+00 -6.7634210802425920e-01 -1.0576032670598510e+00 8.0216043647738400e-01 1.6233028557843233e-02 2.1216832667309138e+00 1.4531427059439599e+00 1.4233541236841230e+00 1.1431620656700163e-01 -5.1213774799641298e-01 1.2318225519984818e+00 1.3633197682586207e-01 -2.3909538473309047e+00 6.1232975577886303e-02 1.5711795781507216e+00 -1.0904684946626424e+00 -1.7975656586554289e+00 2.1215074690940244e-01 4.0581704651397366e-01 
        </Neuron>
        <Neuron NSynapses="31">
          1.6502455065152180e+00 -5.4726057543851636e-01 1.1410029854093440e-01 -1.6187092198010977e+00 -2.2757012947288316e-01 -1.3127123474999858e+00 1.7815351175017649e+00 -1.2878707116477095e+00 6.3350971701898007e-01 8.7154041743889954e-01 1.0635071398998506e+00 1.4358134759167824e+00 1.2631906286260550e+00 -9.4152414576604704e-01 -1.5954601162021740e+00 8.8646868225115338e-01 4.8356115247099868e-01 9.4945971630511805e-01 1.9013920906265953e+00 1.5813911634931261e+00 4.4815053041746794e-01 -1.6223604759575754e+00 -4.7577394272296147e-01 -1.8680809638208657e+00 -8.5450534059209726e-01 -1.1029776592207805e+00 -1.7277464576915573e+00 1.5262682201812308e+00 5.7319155029892321e-01 -1.8273157097286148e+00 4.6460909868505806e-01 
        </Neuron>
        <Neuron NSynapses="31">
          -3.5299143505444491e-01 6.6089635646000155e-01 3.8964586232704734e-01 -1.4719523649140547e+00 1.7266469350673561e-01 -2.3476298738038053e+00 7.5123287949154338e-01 -1.1847494062980093e+00 -1.0963910798804291e+00 -1.3217418014518418e+00 4.1985518558062002e-01 1.1492517853166119e-01 1.3325392718416547e+00 -3.2707540816010539e-01 -2.3957722149599783e+00 -6.1395519751619987e-01 1.1431757769178825e+00 9.2918786042660673e-01 8.5783702202137058e-01 6.4991522691925674e-01 3.3291084871440058e-01 -5.2951928361399425e-01 -1.1941652385172570e+00 -1.8339459930248708e-01 3.4714958768998888e-01 -8.8991678957905351e-01 -1.5828609012548323e+00 -1.1271879644089868e+00 -1.0438795067143014e-01 1.1174184981190487e+00 2.8715853958526827e-01 
        </Neuron>
        <Neuron NSynapses="31">
          -1.5671658404455995e+00 -8.6828962159081202e-01 -9.1393495241691192e-01 -7.4299473483187028e-01 -1.5194516771825739e+00 -1.5385709031030350e+00 1.4387998714345257e-01 -2.1756874830917012e+00 -2.0901695605166939e+00 4.8250678493480892e-01 6.9955322223515171e-01 -8.3158513183402594e-01 1.6566983884095949e+00 -1.0332871880700862e+00 -4.0658159703404217e-01 2.1444774508332007e-01 3.8430381197614832e-01 -1.9003495638332952e+00 1.6121306158312050e+00 3.1656577024281568e-01 2.2101725141819861e-01 -1.3495510779382991e+00 2.8854440735844493e+00 3.6013729817150492e-01 -4.8978575735751012e-01 7.9571328219238580e-01 -1.0292962337426708e+00 -7.4518486405843476e-01 6.8784113615406248e-02 1.2905981385160019e+00 5.1683659031889773e-01 
        </Neuron>
        <Neuron NSynapses="31">
          7.0060319586167552e-01 1.0340840965880753e-01 2.1465104504654242e-01 -8.6471103929952098e-01 -1.7478375648863886e+00 8.0792674270175580e-01 1.5685014902966482e-01 -1.9406558376124905e+00 5.8847498235109030e-01 -1.7750905302436220e+00 -4.6477166317168077e-02 1.3203909031320002e+00 1.8273227777581449e+00 -1.9702597827282848e+00 1.5890551079354981e-01 5.2073541445516314e-01 1.8958614100450455e+00 3.0213160309907128e-01 3.6371454346964349e-01 -1.8595055968301896e-01 9.3268666480861118e-01 1.9660633868910333e+00 1.1976946943847042e+00 -4.9143184981312116e-01 -9.2412021532204527e-02 2.2832477852621262e-02 -1.3577732350420393e+00 1.4080579056417986e-01 1.5124736229372302e+00 3.6843840209528600e-01 -8.1754732738534164e-01 
        </Neuron>
        <Neuron NSynapses="31">
          4.1846732938015696e-01 1.0001908091906864e+00 -4.8181114083920462e-01 -9.6518563426215354e-01 -1.4500119889093674e+00 1.6647278800617280e+00 7.7288068225420736e-01 3.8171405938826640e-02 4.9762683226054322e-01 6.9312289308722452e-01 -2.9774794027894177e-02 -1.5419249929168168e+00 1.0889947121740213e+00 -1.0416651915520228e+00 -7.2051106080620042e-01 4.0009511782414087e-01 1.1291892611346479e+00 -5.0348003548340270e-01 2.6523226473574839e+00 1.8740393010804870e+00 -1.0164259991708011e+00 8.5183653095961553e-01 -3.8905650765462491e-01 4.9338256012308018e-01 -5.9350638973897485e-01 -1.5679168721977568e+00 1.1911960616375070e+00 1.9440234187497563e+00 -1.5638605337250173e+00 -4.1198398254720564e-01 -9.9542414248903943e-01 
        </Neuron>
        <Neuron NSynapses="31">
          1.8305986660372933e-01 1.8887679599866303e+00 -1.3081445694754088e+00 -1.5489988576561289e-01 -1.0403233469222186e+00 1.0333056083747614e+00 1.6343783010111579e+00 6.2422675036081365e-01 3.2088762511677693e-01 -1.1396929982586765e+00 -2.3489927027335540e+00 -3.5514414266756450e-01 5.1311638697962303e-01 -1.5150931212842531e+00 -8.4289705815971960e-01 8.1236838829877356e-01 3.8597597776332443e-01 -2.1842054996337921e+00 2.4368353413137664e+00 8.4521261560081262e-01 2.9881447166309955e-01 3.0327746610960926e-01 -4.2447477424540292e-01 1.0625766941811534e+00 9.6486906874303702e-01 1.5490230307790392e-01 -1.9224240199738407e+00 -1.6292856457410243e+00 2.0207950340037799e+00 2.0135311846329582e+00 -1.9950257216831113e-01 
        </Neuron>
        <Neuron NSynapses="31">
          2.9951191361361512e-01 2.1933565283431804e+00 -1.3817065547301197e+00 -1.4333976308243515e+00 -6.9872655329295319e-02 -1.2206566838659426e-01 1.0093727685003333e+00 1.2617434028169729e+00 -1.0418415004080146e+00 4.5398570711132269e-01 -1.9445697236171239e-01 -2.2255570885817448e+00 -1.0149326365050917e+00 8.5755412664173347e-01 4.4997082977949923e-02 9.3551055476799161e-01 -9.1026066906029135e-01 1.4036947552962045e+00 -2.2136247488392766e+00 8.4760008256418706e-01 1.5846638813142769e-01 -1.2669887861912734e+00 4.2653722511983322e-01 -1.8902557002303748e+00 -1.4330177647646960e+00 -1.8965479149312865e+00 -1.5607101075297511e+00 -7.2473325519902831e-01 4.2527596577747456e-01 -1.6654161349118901e+00 -8.9863675172539259e-01 
        </Neuron>
        <Neuron NSynapses="31">
          1.6262682013284224e+00 -8.8268550130902079e-01 -6.6417307119791180e-01 -1.2168768928566926e+00 2.5269462593430836e-01 6.5354607752187543e-01 1.4013136820274619e+00 -1.3675075876900129e+00 -6.5903588484650999e-01 -1.3233682623178868e+00 -1.1964657646010193e+00 -1.8823693590308612e+00 4.0088825204194489e-01 2.6397353331882117e-01 1.6617605663143464e+00 -2.5315789173980602e-01 4.2538634218604265e-01 -1.2034330564674982e-01 -8.8958711838489046e-01 1.2500412091959299e+00 1.0229543323418779e+00 -9.3953737670880733e-01 -5.3926072686711159e-02 8.9399857054786680e-01 1.2210796268032775e+00 7.7195372126955408e-01 -4.5900296757415243e-01 -1.6764257666377262e+00 1.7232934095179360e+00 1.1346697368681826e+00 1.5345308047151707e+00 
        </Neuron>
        <Neuron NSynapses="31">
          -2.5679870353733786e-01 2.9179188941002937e-01 -1.9162528432164765e+00 -2.5813396358800125e+00 -6.1267006281512693e-01 -2.5563774257997598e+00 -1.4662011098754588e+00 -1.2503905066457144e+00 1.6176236412636822e+00 -1.3795071371403789e+00 1.3299249665666100e+00 -2.0943731970494475e+00 1.1214169506226732e+00 -8.8872312591466496e-01 4.3733583411002669e-01 2.6962237049818345e+00 -1.9733921917314290e+00 8.7699856753113009e-02 1.3804219017722639e+00 -1.9473183250395145e+00 -2.3750110071227528e+00 -1.7907468977827383e+00 -1.8427893552048151e+00 1.8845252050578543e+00 -8.1893407174409805e-01 2.9512757417845847e-01 -9.5736219864787475e-01 -1.0928521172014587e+00 -1.6319173228924282e+00 1.9806534363313882e-01 -1.5211281209092273e+00 
        </Neuron>
        <Neuron NSynapses="31">
          9.2543319200485696e-01 -1.3695841893303915e+00 3.2623867540535891e+00 8.0038486934884254e+00 3.0133610388401944e-01 -1.5630262026862016e+00 1.8179555251016679e+00 -1.8315681027795474e+00 1.4255499744143920e+00 1.1793480202174229e+00 -1.0395398118905834e-01 4.3089621233233855e-01 1.6334805184911847e-02 -1.0176336995371371e+00 2.6385851449042003e-01 3.1073196581531590e+00 1.2576885155517299e+00 1.1918910220996879e+00 -3.0887726923750094e+00 1.0547945667363905e+00 -5.4340959469792702e+00 6.9418415288117197e-01 -3.0190667213987301e+00 -1.8249015870025418e+00 -8.1878479930808157e-01 1.4552569209587953e+00 3.7599020820227741e-01 1.9261168962122421e-01 3.9471537323231742e-01 -1.7665999906483685e+00 1.8932861137898871e+00 
        </Neuron>
        <Neuron NSynapses="31">
          1.2724259762510012e-01 2.1838371213308601e+00 -5.6271385290686682e-01 3.6644642066557814e-01 -1.4300826857253965e+00 -8.2355770462875977e-01 2.0382907410676079e-02 -2.2529202544828368e-02 -1.0408172294671472e+00 7.1342842736320911e-01 9.0303839118585372e-01 9.9108196961083395e-01 -1.2052273970032314e-01 -1.0575700133235983e+00 -1.4284503734243734e+00 -3.1983584429288223e+00 1.2900205472555246e+00 -3.8202995366499931e-01 -7.6171451111093824e-01 5.2937362989323511e-01 -7.1682569455307465e-01 -9.5762402002637781e-01 -8.9016463046442551e-01 1.0137337579759684e+00 -1.8029084399615951e+00 -1.6711526577277116e+00 -5.8514938040141751e-01 -1.3021446641512398e+00 -1.6168980351367881e+00 1.0612137676063094e+00 -1.8782350425783729e+00 
        </Neuron>
        <Neuron NSynapses="31">
          -1.2540018649866311e+00 1.8655644147231947e+00 -2.2984566348514385e-02 1.6646505337625643e+00 1.4955561768099510e-01 9.9024798407704495e-01 1.7542441171251579e+00 1.7111495757176082e-01 -9.4915361021200129e-01 -8.2901043567394128e-01 -2.9576962598820864e+00 6.5031833153638030e-01 9.5138304152354913e-01 2.8632923055839622e-02 1.0557794947406491e+00 2.3644892928057135e-01 1.5538224536217200e+00 -1.3484182199194843e+00 9.4866438734893810e-01 7.7239784965805003e-01 3.3279883790275272e-01 -1.1537724275550691e-01 -3.9423332595259852e-01 9.4855570878090711e-01 3.3710997432498169e-01 1.1513691059974389e+00 1.8319503684343084e+00 2.7297371700721323e-01 1.9424081003240614e+00 9.0771789490571742e-01 1.0814282629837675e+00 
        </Neuron>
        <Neuron NSynapses="31">
          -1.1591587036625088e+00 1.7452033275995094e+00 -1.1028365874950021e+00 -2.7641371137741066e-01 1.7531258067419846e+00 -1.0772248603005903e+00 -7.9560275968265703e-01 -1.2245361700555700e-01 -1.2216814842411099e+00 2.8518588561408026e-01 -1.8942621234408450e+00 -3.9771951515629095e-01 -1.7182022041275419e-01 1.5601926015414769e+00 1.4371903374156225e+00 8.2503732309457178e-01 -3.3498855500483177e-01 -8.9077881996510277e-01 -5.6750722823653399e-02 1.8515949738324942e+00 -1.0004369796825894e+00 -1.2319666726591463e+00 -5.7051772255444355e-01 -1.5088717686460196e+00 -1.3958383860460291e+00 -1.5661055799523216e+00 7.8407109877278225e-01 -2.2505311288208141e-01 -1.9709149324821378e+00 -1.8725092442020435e+00 -6.1477443577097945e-02 
        </Neuron>
        <Neuron NSynapses="31">
          1.7721078241001844e+00 1.8700537020454266e+00 9.9458645452302197e-01 -1.1259317541101741e+00 -1.8887474737596468e+00 -7.9602736692329967e-01 -1.2494878392771742e+00 -1.9524509753947283e+00 -8.4272029016963768e-01 -1.0724119526762832e-01 -1.7713211717454747e+00 1.7261623471465948e+00 1.2619994023462751e+00 1.4403785902827079e-01 -7.3242376972920764e-01 -8.4687226013292971e-01 1.8214032284436275e+00 -6.0903574978290298e-01 -8.0526659861775673e-01 1.6022118996259302e+00 1.2792646470238127e+00 -8.7248330112404027e-01 1.5248509196847067e+00 -1.8933881937446613e+00 1.9972523801744562e+00 2.0494495593594637e+00 -1.1601673245354131e-01 -1.5066293112783447e-01 3.7514848749601176e-01 -1.4616737065350374e+00 1.1546382880847776e+00 
        </Neuron>
        <Neuron NSynapses="31">
          3.5016678778287869e-01 -6.3746616546252977e-01 -1.5795562624683210e+00 1.1431439635600613e+00 1.8362195673674413e+00 1.2496428892068980e+00 -7.5085927837527577e-01 -1.7570592788393249e+00 1.7908417077460388e+00 4.6443992305240217e-01 -6.5197470941384317e-01 -1.3510505309559862e-01 -1.0204496343478748e+00 1.2324498886964785e+00 1.2718182370676894e+00 -5.2852594470544301e-01 -1.0901776564523384e+00 1.4289167255796953e+00 2.0201667760496900e+00 3.0375825231109110e-01 -4.6925643353572460e-01 -1.2589869992769129e+00 -5.7162606287870399e-01 1.1512342326925671e+00 4.9209511397406203e-01 5.0873985526919940e-01 -1.8171424908104792e+00 -1.5348661260534016e+00 -1.9429814846474458e+00 -7.6332085008370465e-01 -2.9807819486087044e+00 
        </Neuron>
        <Neuron NSynapses="31">
          6.2425989240585844e-01 -3.8312129240828824e-01 1.4712720108552460e-01 1.2383419399929195e-01 -2.0300743840435267e+00 1.6485933523831999e+00 1.8878728481490410e+00 1.2904875888770664e+00 -5.6752840996792553e-01 -8.9775100430253418e-01 1.8827264840604514e+00 -1.9922829122036969e+00 4.0516504895567412e-01 -1.3283172426321550e+00 1.3088964796537761e+00 -6.0705245768279625e-01 2.2653504259162566e-01 -6.3743829854306389e-01 -1.3820128241660137e-01 -6.0947315554917159e-01 2.3113667897850890e-01 6.3450013227253221e-01 7.7829770300237267e-01 7.8914505320095096e-01 1.3448909433336327e+00 -1.8670963022832729e+00 1.4297682628450679e+00 -2.0780896288028239e+00 9.2346115377520421e-01 1.4203528473367779e+00 1.2427492412091827e+00 
        </Neuron>
        <Neuron NSynapses="31">
          1.6142347673987931e+00 1.3345519490209892e+00 -9.1144643906116918e-01 3.0802277964141811e-01 -9.3238279186991635e-01 8.1838651569479481e-01 -1.2514260844351463e-01 -3.8652397590405141e-01 -4.2252276104074371e-01 -6.3813522445159909e-01 -1.5616991371519133e+00 -1.5950274217198074e-01 -1.8825232930911187e+00 -4.7275869854042901e-01 -6.9588488017548494e-02 -2.8970898003850759e-01 -1.3615642206472622e+00 2.0733872180660298e-01 -1.1439692985799921e+00 -2.6136284536864840e-01 -5.6448646625387955e-01 1.8415736564895056e+00 -9.3812677505737441e-01 7.3429147048955845e-01 -7.5339662947777453e-01 -9.3950269125562302e-01 -8.9663900379706896e-01 -7.1401701601325765e-02 -1.9587272843509824e+00 -2.2067963885048744e-01 -5.5615704672603727e-01 
        </Neuron>
        <Neuron NSynapses="31">
          1.1222250679726014e+00 -1.8828140539876377e+00 9.2945008623742931e-01 -3.8970716441039799e-01 1.6799081507147777e+00 1.8459590330078079e+00 6.9094609078850155e-01 -1.9352346277039054e-01 -1.3920697419180617e+00 -2.1738223141659012e+00 2.9807900096838230e-02 -3.1397379457098579e-01 1.4015840432323163e+00 -3.7459417938535321e-02 -7.6600747140939696e-01 1.1787967152362733e+00 1.5203548079534333e+00 -8.9805487005926465e-01 -9.9033004111214651e-01 -1.6392168686494872e+00 3.6870045679789770e-01 -1.9368023830421506e+00 -1.3634022132962578e+00 -2.6277711829309686e-01 3.3096335114381609e-01 -1.5746232773981337e+00 2.8035769974231445e-01 -2.3383106708853512e+00 5.8506527422182132e-02 8.2082606854573092e-01 8.1289586443563699e-01 
        </Neuron>
        <Neuron NSynapses="31">
          6.1417098552972549e-01 -1.7509682537271727e+00 3.0854053981627763e+00 1.8346300214770037e-01 8.5053410382646466e-01 -9.4903045384594809e-01 -1.0372654258409046e+00 1.7355346971889329e+00 -2.4703150642770075e+00 -1.2835478750254512e+00 -8.9432659832609596e-01 1.0152037073178517e+00 1.4670415387595745e+00 1.3933819163960568e+00 -2.1912402664028914e+00 1.1567162200237928e+00 8.1072215859922869e-01 4.6862685691372907e-01 -1.1249927082477247e+00 -1.3485803103488658e+00 1.3685288776624782e-01 -6.1020896467843665e-02 1.3635564785358449e+00 -6.2389656423352269e-01 -4.5680562116100576e-01 -1.0236699122327673e+00 1.4089513495777204e+00 -1.0699672633095236e-01 1.3844087980808200e+00 -9.1911448334056123e-01 -2.8222814493417254e+00 
        </Neuron>
        <Neuron NSynapses="31">
          1.6426661701097247e+00 1.2611177186095077e-01 1.5541608913003513e+00 6.6383674554288763e-01 -9.4187007734049599e-01 -8.4346288021319638e-01 -1.5269613041629375e+00 -5.2152516956867923e-01 -1.6411192962144998e+00 -3.0928354014758797e-01 -3.8332494094087739e-02 -9.2988034553124932e-01 9.2373117494065926e-01 -2.0678191914494679e+00 -1.4402273036995763e+00 -4.4874539726347827e-02 -8.3839102516228381e-01 8.8202784414019542e-01 1.8906341534562028e+00 -1.7723539684140281e+00 -6.4520502183576889e-01 -1.4114593632210626e+00 3.1615024809980680e-01 4.3251927792804279e-01 -1.2128272500770110e+00 -5.6609211518095570e-01 -1.5648744713076248e+00 1.1571967218465624e+00 9.7609097484776641e-02 9.5999199763388565e-01 -1.5474124488345471e+00 
        </Neuron>
        <Neuron NSynapses="31">
          -1.3349760613598882e+00 -1.2275787864138483e+00 -2.8209767495243074e+00 -2.2570877240944602e+00 7.4878829943750391e-01 4.0684736903941315e-01 -1.3772045275281328e+00 3.2906488974592507e-01 5.8270935181815919e-01 -1.3900886176317753e+00 1.5540404828949919e+00 -8.3590222984254525e-01 -1.3731353178811594e+00 -1.0177611590108986e+00 -1.2912543629480735e+00 -1.3940900506269343e+00 1.3737549380003391e+00 7.7337176313727307e-01 5.5569766162396284e-01 -1.8958902977569065e+00 1.0800392816840840e+00 -6.5254781102523529e-01 -2.3034817853734962e-01 1.4624983517308296e+00 -9.2514616971049957e-01 1.3856401745394327e+00 -6.0176916652690859e-01 1.0611446303821055e+00 -1.8992480209892246e+00 1.1260332795257963e+00 -5.8865562444873776e-01 
        </Neuron>
        <Neuron NSynapses="31">
          1.7885143282982443e+00 -1.2848118139789371e+00 9.6178264330132146e-01 8.6858755992888637e-01 1.4674989296455725e+00 -1.1050399551739494e+00 -1.5410207909353935e+00 -2.0008963071504535e+00 2.9359929405324342e-01 5.9513660970431259e-01 -6.0482672213609712e-01 2.1469076011137422e-01 4.5843149467971023e-01 -3.9644733087362416e-01 1.1450286246070074e+00 -1.4527171167803013e-01 -1.6797420024239413e+00 6.2037595000434720e-01 1.4628933203937294e-01 1.8818058444938270e+00 1.5731071891273820e+00 -6.2341985550282231e-01 9.2413046281214439e-01 -7.3487761718598654e-01 -6.2170668797998241e-01 -1.1148031518678132e+00 5.6327356828790487e-01 1.4113560781524905e+00 -5.9893972419251629e-01 1.2113311600171059e+00 -4.5877639983919721e-01 
        </Neuron>
        <Neuron NSynapses="31">
          1.7258769128316864e-02 -3.8969044324627450e-01 -3.8333501100800721e-02 1.7583708913718241e-01 -1.8206407712951029e+00 1.7379740092764098e+00 -2.0744151411025474e-01 -1.0080145749992282e+00 1.7216842849808049e+00 -1.4955685612619312e+00 -1.3329099512517451e-01 1.6762677035802966e+00 2.2936793400998362e-01 1.2535441112387052e-01 -3.2369492698510099e-01 1.1128737011621217e+00 1.7967003424707229e+00 8.6653070740200477e-01 -3.3683286181048178e-01 1.9768427212874313e+00 1.0978447850819140e+00 3.8175109064388779e-01 4.7767178259923193e-01 1.1883918313876619e-01 2.1605021326367413e+00 -1.6082098543367036e+00 -1.5045850857321277e-01 -1.0072159623273425e+00 1.3484475520851615e+00 -1.7993584496177590e+00 5.0319082472177623e-01 
        </Neuron>
        <Neuron NSynapses="31">
          -1.2761283214144368e+00 3.4186930278781995e-02 3.4324207784564786e-01 6.0036958475952606e-01 -1.8447315834341422e+00 -2.1414385473544725e-02 -4.8710491352591379e-01 5.8616427524759596e-01 5.0687774622682069e-01 9.9413288492464691e-01 2.4187974362392617e+00 -6.9576753661156843e-01 7.6803832044672626e-01 -2.5502482211494948e-01 -1.3116060512011465e+00 4.8732870277060758e-01 1.0024727123559676e-01 1.9234240935737035e-01 5.0136418289525905e-02 -8.9177732614630500e-01 2.0707128117365157e+00 1.5170973827386552e-01 -1.6475102804699993e+00 -8.7058691789612652e-01 -1.2162070638765434e+00 -7.9933402949616883e-01 -8.8819052081579253e-01 1.0957402970858643e+00 1.0468191026299409e+00 1.1149572851007505e+00 -4.3982640694556813e-01 
        </Neuron>
        <Neuron NSynapses="31">
          -1.1924896421119193e+00 -1.6718507850466138e+00 -1.1807230962459948e-01 1.4813615339034528e-01 -1.9099250804530168e-01 -1.2452325015037480e+00 8.7151010589126854e-01 1.2524070718426297e+00 -8.7139159005190725e-01 -4.6188771008280949e-01 -1.4791156683855862e+00 -2.1225485596971265e+00 -1.1996061263766771e+00 3.6533258211422059e-01 -1.3309571608605639e+00 8.6092778738904607e-01 -1.2603274464330549e+00 -1.0036706379307030e+00 -2.5871111219800202e-01 9.8497455547103119e-01 -2.3238151213287925e-01 -3.2128085508504073e-02 1.2543884397522787e+00 1.7157191710852387e-01 -5.9229007434534520e-01 2.2597857103055738e+00 9.6489292107544955e-01 8.0607490388640513e-01 -1.0444753797303745e+00 -2.6902709737106485e+00 1.1251405084610216e-01 
        </Neuron>
        <Neuron NSynapses="31">
          7.5754290971827443e-01 -1.4065512564445450e+00 1.1174390312443534e+00 -1.0376319934249576e+00 1.7131860192351929e+00 -1.5597296073005040e+00 -1.1885407211492212e+00 7.2983237564634118e-01 -6.9623933648221314e-01 1.3413706360052686e+00 -2.0065600373889785e+00 7.8971352861935662e-01 -3.5396881735632885e-01 -2.7976920129065691e-01 -1.4605594263684407e+00 2.0162173245486072e+00 7.3994455789499120e-02 -1.8799181379934835e+00 2.0047623967601350e-01 -4.6862541385068840e-01 5.6794384308763261e-02 -5.0528628781469453e-01 9.4646186047785641e-01 9.2666472697676949e-01 -8.2389453109757904e-01 1.4316563392577017e+00 1.3171777319529612e+00 -7.9458742625797230e-01 -4.6900026069158823e-01 1.0999892858267943e+00 2.1043354855154286e+00 
        </Neuron>
      </Layer>
      <Layer Index="1" NNeurons="32">
        <Neuron NSynapses="1">
          -5.6988961224909551e-01 
        </Neuron>
        <Neuron NSynapses="1">
          1.1271760442301459e+00 
        </Neuron>
        <Neuron NSynapses="1">
          -2.3660405309684878e+00 
        </Neuron>
        <Neuron NSynapses="1">
          -4.5914397643279479e+00 
        </Neuron>
        <Neuron NSynapses="1">
          1.1670636193681447e+00 
        </Neuron>
        <Neuron NSynapses="1">
          8.7145899687352757e-01 
        </Neuron>
        <Neuron NSynapses="1">
          8.1519105470095055e-02 
        </Neuron>
        <Neuron NSynapses="1">
          -4.5166281526705104e-01 
        </Neuron>
        <Neuron NSynapses="1">
          1.0343179463849288e+00 
        </Neuron>
        <Neuron NSynapses="1">
          -1.1184894815631365e+00 
        </Neuron>
        <Neuron NSynapses="1">
          -2.4009682710520290e+00 
        </Neuron>
        <Neuron NSynapses="1">
          -2.5900684213820191e+00 
        </Neuron>
        <Neuron NSynapses="1">
          8.9897688254784915e-03 
        </Neuron>
        <Neuron NSynapses="1">
          -1.0438607640428441e+00 
        </Neuron>
        <Neuron NSynapses="1">
          1.1713450092567792e+00 
        </Neuron>
        <Neuron NSynapses="1">
          -2.9039649645606729e+00 
        </Neuron>
        <Neuron NSynapses="1">
          1.3439871248167221e+00 
        </Neuron>
        <Neuron NSynapses="1">
          1.4236176465301571e+00 
        </Neuron>
        <Neuron NSynapses="1">
          2.6760912983174241e+00 
        </Neuron>
        <Neuron NSynapses="1">
          -5.1311532966737972e-01 
        </Neuron>
        <Neuron NSynapses="1">
          2.9765477127530624e+00 
        </Neuron>
        <Neuron NSynapses="1">
          1.3736977317037344e+00 
        </Neuron>
        <Neuron NSynapses="1">
          2.0924792595333952e+00 
        </Neuron>
        <Neuron NSynapses="1">
          1.1967006351599831e-01 
        </Neuron>
        <Neuron NSynapses="1">
          2.0952161442909611e+00 
        </Neuron>
        <Neuron NSynapses="1">
          -1.0834263136327285e+00 
        </Neuron>
        <Neuron NSynapses="1">
          6.1025562771207775e-01 
        </Neuron>
        <Neuron NSynapses="1">
          1.1331407953502939e+00 
        </Neuron>
        <Neuron NSynapses="1">
          -3.7921270762388293e-01 
        </Neuron>
        <Neuron NSynapses="1">
          1.4352763634063481e+00 
        </Neuron>
        <Neuron NSynapses="1">
          -2.8824591945773843e+00 
        </Neuron>
        <Neuron NSynapses="1">
          1.3384642162437741e+00 
        </Neuron>
      </Layer>
      <Layer Index="2" NNeurons="1">
        <Neuron NSynapses="0"/>
      </Layer>
    </Layout>
  </Weights>
</MethodSetup>
